svm_type c_svc
kernel_type linear
nr_class 2
total_sv 11536
rho 1.5703400414590334
label 1 -1
nr_sv 5745 5791
SV
1 5:1 7:1 17:1 22:1 36:1 40:1 51:1 63:1 67:1 73:1 74:1 76:1 81:1 83:1 
1 2:1 6:1 14:1 29:1 39:1 42:1 52:1 64:1 67:1 72:1 75:1 76:1 82:1 83:1 
1 3:1 6:1 18:1 20:1 37:1 40:1 51:1 63:1 71:1 73:1 74:1 76:1 82:1 83:1 
1 2:1 11:1 15:1 19:1 39:1 40:1 52:1 63:1 68:1 73:1 74:1 76:1 80:1 90:1 
1 3:1 6:1 15:1 25:1 38:1 40:1 48:1 63:1 68:1 73:1 74:1 76:1 80:1 
1 4:1 7:1 18:1 29:1 39:1 41:1 51:1 66:1 67:1 72:1 74:1 76:1 81:1 83:1 
1 5:1 10:1 17:1 19:1 39:1 40:1 47:1 63:1 67:1 73:1 74:1 76:1 80:1 83:1 
1 5:1 16:1 20:1 37:1 40:1 63:1 68:1 73:1 74:1 76:1 82:1 93:1 
1 2:1 6:1 14:1 20:1 37:1 40:1 50:1 63:1 67:1 73:1 74:1 76:1 79:1 
1 5:1 9:1 18:1 19:1 39:1 40:1 52:1 63:1 71:1 73:1 74:1 76:1 80:1 83:1 
1 5:1 9:1 17:1 19:1 39:1 41:1 51:1 64:1 67:1 73:1 74:1 76:1 82:1 83:1 
1 4:1 6:1 17:1 20:1 37:1 40:1 47:1 63:1 67:1 73:1 74:1 76:1 80:1 83:1 
1 5:1 6:1 16:1 22:1 36:1 40:1 55:1 61:1 67:1 72:1 74:1 76:1 80:1 83:1 
1 4:1 8:1 16:1 20:1 37:1 40:1 51:1 63:1 67:1 73:1 74:1 76:1 82:1 83:1 
1 2:1 7:1 16:1 19:1 39:1 40:1 50:1 63:1 67:1 73:1 74:1 76:1 82:1 83:1 
1 4:1 6:1 18:1 22:1 36:1 41:1 48:1 64:1 67:1 72:1 75:1 76:1 80:1 83:1 
1 4:1 10:1 18:1 22:1 36:1 40:1 59:1 63:1 67:1 73:1 74:1 76:1 80:1 83:1 
1 4:1 9:1 18:1 32:1 39:1 42:1 52:1 64:1 67:1 72:1 74:1 76:1 82:1 83:1 
1 3:1 10:1 17:1 19:1 39:1 40:1 59:1 63:1 67:1 73:1 74:1 76:1 80:1 83:1 
1 3:1 6:1 17:1 20:1 37:1 40:1 50:1 63:1 67:1 73:1 74:1 76:1 82:1 83:1 
1 2:1 8:1 18:1 22:1 36:1 40:1 48:1 63:1 67:1 73:1 75:1 76:1 80:1 83:1 
1 3:1 6:1 14:1 23:1 39:1 40:1 52:1 63:1 67:1 73:1 74:1 76:1 80:1 83:1 
1 5:1 7:1 18:1 22:1 36:1 40:1 49:1 63:1 67:1 73:1 74:1 77:1 82:1 87:1 
1 4:1 10:1 17:1 25:1 38:1 40:1 48:1 63:1 71:1 73:1 74:1 76:1 80:1 83:1 
1 2:1 11:1 18:1 19:1 39:1 40:1 52:1 63:1 67:1 73:1 74:1 76:1 82:1 83:1 
1 2:1 6:1 15:1 24:1 38:1 40:1 55:1 63:1 67:1 73:1 74:1 76:1 80:1 83:1 
1 3:1 9:1 15:1 29:1 39:1 40:1 52:1 63:1 67:1 73:1 74:1 76:1 80:1 96:1 
1 4:1 6:1 14:1 20:1 37:1 40:1 48:1 63:1 68:1 73:1 74:1 76:1 80:1 83:1 
1 4:1 6:1 17:1 25:1 38:1 42:1 52:1 64:1 67:1 72:1 74:1 77:1 80:1 83:1 
1 5:1 17:1 22:1 36:1 41:1 64:1 67:1 73:1 74:1 76:1 81:1 83:1 
1 4:1 7:1 17:1 29:1 39:1 40:1 50:1 63:1 67:1 73:1 74:1 76:1 80:1 83:1 
1 5:1 6:1 14:1 20:1 37:1 40:1 50:1 63:1 67:1 73:1 74:1 77:1 80:1 83:1 
1 2:1 11:1 15:1 19:1 39:1 40:1 52:1 63:1 67:1 73:1 74:1 76:1 80:1 83:1 
1 4:1 10:1 16:1 20:1 37:1 40:1 51:1 63:1 71:1 73:1 74:1 76:1 79:1 83:1 
1 3:1 6:1 18:1 27:1 35:1 40:1 54:1 63:1 67:1 73:1 74:1 76:1 80:1 103:1 
1 3:1 9:1 14:1 20:1 37:1 40:1 55:1 63:1 67:1 73:1 74:1 76:1 81:1 83:1 
1 5:1 11:1 15:1 32:1 39:1 40:1 52:1 63:1 67:1 73:1 74:1 76:1 78:1 83:1 
1 3:1 9:1 14:1 29:1 39:1 42:1 51:1 64:1 67:1 72:1 75:1 76:1 82:1 83:1 
1 3:1 6:1 15:1 19:1 39:1 40:1 49:1 63:1 71:1 73:1 75:1 76:1 79:1 83:1 
1 3:1 6:1 17:1 22:1 36:1 40:1 48:1 63:1 67:1 73:1 74:1 76:1 80:1 83:1 
1 5:1 8:1 15:1 27:1 35:1 40:1 54:1 63:1 67:1 73:1 74:1 76:1 80:1 83:1 
1 3:1 6:1 18:1 19:1 39:1 42:1 51:1 64:1 71:1 73:1 74:1 76:1 82:1 83:1 
1 2:1 6:1 14:1 23:1 39:1 42:1 52:1 64:1 67:1 73:1 74:1 76:1 82:1 83:1 
1 3:1 6:1 18:1 19:1 39:1 40:1 52:1 63:1 67:1 73:1 74:1 76:1 80:1 83:1 
1 5:1 6:1 17:1 22:1 36:1 40:1 55:1 63:1 67:1 73:1 74:1 76:1 81:1 83:1 
1 4:1 7:1 18:1 22:1 36:1 40:1 56:1 63:1 68:1 73:1 74:1 76:1 80:1 84:1 
1 3:1 8:1 17:1 20:1 37:1 40:1 51:1 63:1 68:1 73:1 74:1 76:1 82:1 117:1 
1 5:1 6:1 14:1 22:1 36:1 40:1 51:1 63:1 67:1 73:1 74:1 76:1 80:1 83:1 
1 3:1 6:1 17:1 22:1 36:1 40:1 48:1 61:1 67:1 72:1 74:1 76:1 80:1 83:1 
1 5:1 6:1 14:1 22:1 36:1 40:1 51:1 63:1 67:1 73:1 74:1 76:1 80:1 83:1 
1 4:1 6:1 16:1 20:1 37:1 40:1 48:1 63:1 67:1 73:1 75:1 76:1 80:1 83:1 
1 1:1 6:1 18:1 20:1 37:1 40:1 54:1 61:1 67:1 72:1 75:1 76:1 82:1 83:1 
1 4:1 10:1 14:1 20:1 37:1 40:1 48:1 63:1 67:1 73:1 75:1 76:1 80:1 83:1 
1 2:1 6:1 17:1 22:1 36:1 40:1 57:1 63:1 67:1 73:1 74:1 76:1 81:1 83:1 
1 5:1 6:1 17:1 22:1 36:1 40:1 50:1 63:1 67:1 73:1 75:1 76:1 80:1 83:1 
1 3:1 6:1 16:1 24:1 38:1 40:1 55:1 63:1 67:1 73:1 74:1 76:1 80:1 83:1 
1 4:1 8:1 14:1 20:1 37:1 40:1 56:1 63:1 67:1 73:1 74:1 76:1 82:1 83:1 
1 3:1 7:1 17:1 19:1 39:1 41:1 52:1 64:1 71:1 72:1 74:1 76:1 80:1 83:1 
1 3:1 6:1 18:1 25:1 38:1 40:1 48:1 63:1 67:1 73:1 75:1 76:1 80:1 83:1 
1 3:1 11:1 15:1 22:1 36:1 40:1 59:1 63:1 67:1 73:1 75:1 76:1 80:1 83:1 
1 3:1 6:1 15:1 19:1 39:1 40:1 51:1 63:1 67:1 73:1 74:1 76:1 80:1 83:1 
1 3:1 6:1 15:1 19:1 39:1 40:1 51:1 63:1 67:1 73:1 74:1 76:1 80:1 83:1 
1 5:1 18:1 19:1 39:1 40:1 63:1 67:1 73:1 74:1 76:1 80:1 83:1 
1 3:1 9:1 14:1 22:1 36:1 40:1 55:1 63:1 67:1 73:1 74:1 76:1 80:1 83:1 
1 3:1 6:1 14:1 25:1 38:1 40:1 47:1 63:1 67:1 73:1 74:1 76:1 80:1 83:1 
1 5:1 6:1 18:1 29:1 39:1 40:1 52:1 63:1 67:1 73:1 74:1 76:1 80:1 83:1 
1 4:1 6:1 16:1 19:1 39:1 41:1 51:1 64:1 67:1 73:1 74:1 77:1 81:1 83:1 
1 5:1 6:1 17:1 19:1 39:1 41:1 51:1 64:1 67:1 72:1 74:1 76:1 81:1 83:1 
1 3:1 11:1 16:1 25:1 38:1 40:1 54:1 63:1 67:1 73:1 74:1 76:1 79:1 83:1 
1 4:1 6:1 16:1 20:1 37:1 40:1 55:1 61:1 67:1 72:1 74:1 77:1 78:1 83:1 
1 3:1 6:1 17:1 22:1 36:1 40:1 49:1 61:1 67:1 72:1 74:1 76:1 80:1 83:1 
1 1:1 6:1 14:1 19:1 39:1 40:1 51:1 63:1 67:1 73:1 74:1 76:1 82:1 83:1 
1 5:1 11:1 18:1 19:1 39:1 40:1 59:1 63:1 67:1 73:1 74:1 76:1 80:1 83:1 
1 2:1 15:1 20:1 37:1 40:1 61:1 67:1 72:1 74:1 77:1 80:1 83:1 
1 3:1 6:1 14:1 28:1 35:1 41:1 48:1 64:1 67:1 73:1 74:1 76:1 82:1 83:1 
1 2:1 11:1 14:1 19:1 39:1 40:1 51:1 61:1 67:1 72:1 74:1 76:1 80:1 83:1 
1 5:1 8:1 17:1 22:1 36:1 40:1 51:1 63:1 67:1 73:1 74:1 76:1 80:1 83:1 
1 2:1 6:1 14:1 24:1 38:1 40:1 49:1 61:1 67:1 72:1 74:1 76:1 78:1 83:1 
0.087615660472346424 3:1 6:1 17:1 29:1 39:1 40:1 52:1 63:1 67:1 73:1 74:1 76:1 82:1 83:1 
1 4:1 6:1 15:1 20:1 37:1 40:1 52:1 63:1 67:1 73:1 74:1 76:1 80:1 83:1 
1 4:1 8:1 17:1 20:1 37:1 40:1 48:1 63:1 67:1 73:1 74:1 76:1 82:1 83:1 
1 5:1 6:1 17:1 22:1 36:1 40:1 48:1 63:1 67:1 73:1 74:1 76:1 80:1 83:1 
1 4:1 6:1 17:1 24:1 38:1 40:1 51:1 63:1 71:1 73:1 74:1 76:1 80:1 
1 4:1 7:1 17:1 22:1 36:1 40:1 50:1 61:1 67:1 72:1 74:1 76:1 80:1 83:1 
1 3:1 6:1 14:1 25:1 38:1 40:1 54:1 63:1 68:1 73:1 74:1 76:1 80:1 83:1 
1 2:1 6:1 15:1 19:1 39:1 40:1 47:1 61:1 67:1 72:1 74:1 76:1 78:1 83:1 
1 5:1 6:1 17:1 20:1 37:1 42:1 52:1 66:1 67:1 73:1 74:1 76:1 80:1 83:1 
1 3:1 6:1 18:1 20:1 37:1 40:1 52:1 63:1 67:1 73:1 74:1 76:1 82:1 83:1 
1 3:1 6:1 15:1 19:1 39:1 40:1 52:1 63:1 67:1 73:1 74:1 76:1 82:1 83:1 
1 3:1 10:1 16:1 20:1 37:1 40:1 47:1 63:1 67:1 73:1 74:1 76:1 81:1 83:1 
1 4:1 6:1 16:1 20:1 37:1 41:1 54:1 66:1 67:1 73:1 74:1 76:1 82:1 83:1 
1 4:1 6:1 17:1 19:1 39:1 40:1 51:1 63:1 67:1 73:1 74:1 76:1 80:1 83:1 
1 4:1 6:1 14:1 24:1 38:1 40:1 51:1 61:1 67:1 72:1 74:1 76:1 82:1 83:1 
1 3:1 9:1 18:1 25:1 38:1 41:1 48:1 66:1 71:1 72:1 74:1 76:1 80:1 83:1 
1 5:1 6:1 17:1 19:1 39:1 40:1 50:1 63:1 67:1 73:1 74:1 76:1 79:1 83:1 
1 4:1 6:1 18:1 20:1 37:1 40:1 52:1 63:1 67:1 73:1 74:1 76:1 82:1 83:1 
1 5:1 7:1 18:1 19:1 39:1 40:1 52:1 63:1 67:1 73:1 74:1 76:1 82:1 83:1 
1 3:1 6:1 14:1 25:1 38:1 40:1 48:1 63:1 67:1 73:1 74:1 77:1 80:1 83:1 
1 5:1 16:1 20:1 37:1 40:1 63:1 67:1 73:1 74:1 76:1 78:1 83:1 
1 5:1 6:1 14:1 22:1 36:1 40:1 50:1 63:1 67:1 73:1 74:1 76:1 80:1 83:1 
1 5:1 6:1 14:1 31:1 35:1 40:1 48:1 63:1 67:1 73:1 74:1 77:1 81:1 83:1 
1 5:1 6:1 14:1 27:1 35:1 42:1 57:1 64:1 67:1 73:1 74:1 76:1 82:1 83:1 
1 5:1 6:1 18:1 29:1 39:1 40:1 48:1 63:1 67:1 73:1 74:1 76:1 80:1 83:1 
1 3:1 6:1 15:1 22:1 36:1 40:1 50:1 63:1 67:1 73:1 74:1 76:1 81:1 83:1 
1 3:1 6:1 17:1 20:1 37:1 40:1 51:1 63:1 67:1 73:1 74:1 76:1 80:1 83:1 
1 4:1 6:1 18:1 19:1 39:1 40:1 50:1 63:1 67:1 73:1 74:1 76:1 78:1 83:1 
1 2:1 6:1 14:1 19:1 39:1 40:1 55:1 61:1 71:1 72:1 74:1 76:1 80:1 83:1 
1 5:1 8:1 16:1 32:1 39:1 43:1 52:1 64:1 67:1 73:1 74:1 76:1 80:1 83:1 
1 2:1 11:1 16:1 19:1 39:1 40:1 47:1 63:1 67:1 73:1 74:1 76:1 80:1 83:1 
1 4:1 6:1 16:1 22:1 36:1 40:1 54:1 63:1 67:1 73:1 74:1 76:1 80:1 83:1 
1 4:1 7:1 18:1 28:1 35:1 40:1 53:1 63:1 71:1 73:1 74:1 76:1 80:1 83:1 
1 4:1 6:1 18:1 24:1 38:1 41:1 52:1 66:1 67:1 72:1 75:1 76:1 80:1 83:1 
1 4:1 6:1 17:1 22:1 36:1 40:1 48:1 63:1 71:1 73:1 74:1 76:1 80:1 83:1 
1 3:1 6:1 16:1 19:1 39:1 40:1 51:1 63:1 67:1 73:1 74:1 76:1 80:1 83:1 
1 5:1 8:1 17:1 22:1 36:1 40:1 50:1 63:1 67:1 73:1 74:1 76:1 82:1 83:1 
1 3:1 6:1 16:1 25:1 38:1 40:1 48:1 63:1 67:1 73:1 74:1 76:1 80:1 104:1 
1 3:1 7:1 16:1 22:1 36:1 40:1 48:1 63:1 67:1 73:1 74:1 76:1 80:1 83:1 
1 3:1 6:1 17:1 29:1 39:1 42:1 52:1 64:1 67:1 73:1 74:1 76:1 82:1 83:1 
1 4:1 6:1 14:1 19:1 39:1 41:1 51:1 62:1 67:1 72:1 74:1 76:1 82:1 83:1 
1 5:1 10:1 14:1 22:1 36:1 40:1 51:1 63:1 67:1 73:1 74:1 76:1 81:1 83:1 
1 4:1 6:1 16:1 19:1 39:1 42:1 52:1 64:1 67:1 73:1 74:1 76:1 80:1 
1 5:1 7:1 15:1 21:1 35:1 40:1 51:1 63:1 67:1 73:1 75:1 76:1 82:1 
1 4:1 6:1 18:1 19:1 39:1 40:1 47:1 63:1 67:1 73:1 74:1 76:1 80:1 83:1 
1 4:1 6:1 15:1 29:1 39:1 42:1 51:1 64:1 67:1 72:1 75:1 76:1 82:1 83:1 
1 4:1 10:1 15:1 19:1 39:1 40:1 52:1 61:1 67:1 72:1 74:1 76:1 80:1 83:1 
1 5:1 6:1 17:1 22:1 36:1 40:1 57:1 63:1 67:1 73:1 75:1 76:1 80:1 83:1 
1 5:1 6:1 18:1 22:1 36:1 40:1 57:1 63:1 67:1 73:1 74:1 76:1 80:1 83:1 
1 4:1 9:1 16:1 22:1 36:1 40:1 55:1 61:1 67:1 72:1 74:1 76:1 80:1 83:1 
1 5:1 10:1 18:1 22:1 36:1 40:1 55:1 61:1 67:1 72:1 74:1 76:1 79:1 83:1 
1 5:1 6:1 18:1 19:1 39:1 42:1 50:1 64:1 67:1 73:1 74:1 76:1 82:1 83:1 
1 3:1 6:1 18:1 25:1 38:1 40:1 47:1 61:1 67:1 72:1 74:1 76:1 78:1 83:1 
1 4:1 6:1 17:1 19:1 39:1 40:1 50:1 63:1 67:1 73:1 74:1 76:1 82:1 83:1 
1 3:1 6:1 15:1 25:1 38:1 40:1 51:1 63:1 67:1 73:1 74:1 76:1 82:1 83:1 
1 3:1 6:1 17:1 19:1 39:1 42:1 50:1 64:1 70:1 72:1 74:1 76:1 82:1 83:1 
1 4:1 6:1 14:1 25:1 38:1 40:1 47:1 63:1 67:1 73:1 74:1 76:1 82:1 83:1 
1 5:1 6:1 14:1 22:1 36:1 40:1 57:1 63:1 67:1 73:1 74:1 76:1 82:1 83:1 
1 4:1 6:1 14:1 29:1 39:1 42:1 47:1 64:1 67:1 73:1 74:1 76:1 79:1 83:1 
1 2:1 6:1 17:1 22:1 36:1 40:1 48:1 63:1 67:1 73:1 75:1 76:1 82:1 83:1 
1 5:1 6:1 18:1 19:1 39:1 40:1 52:1 63:1 67:1 73:1 74:1 76:1 80:1 83:1 
1 5:1 6:1 16:1 20:1 37:1 40:1 48:1 63:1 67:1 73:1 74:1 76:1 82:1 83:1 
1 4:1 6:1 16:1 22:1 36:1 40:1 57:1 63:1 67:1 73:1 74:1 76:1 82:1 83:1 
1 5:1 6:1 14:1 22:1 36:1 44:1 57:1 66:1 67:1 73:1 74:1 77:1 81:1 83:1 
1 4:1 6:1 16:1 19:1 39:1 41:1 52:1 64:1 67:1 72:1 74:1 76:1 82:1 83:1 
1 5:1 6:1 15:1 20:1 37:1 40:1 52:1 63:1 67:1 73:1 74:1 76:1 80:1 83:1 
1 5:1 6:1 18:1 22:1 36:1 40:1 48:1 63:1 67:1 73:1 75:1 76:1 80:1 83:1 
1 3:1 6:1 14:1 19:1 39:1 40:1 51:1 63:1 67:1 73:1 74:1 76:1 81:1 83:1 
1 5:1 6:1 14:1 29:1 39:1 44:1 52:1 64:1 67:1 72:1 74:1 76:1 80:1 83:1 
1 4:1 11:1 18:1 32:1 39:1 41:1 52:1 62:1 67:1 73:1 74:1 76:1 82:1 83:1 
1 5:1 6:1 15:1 22:1 36:1 40:1 49:1 63:1 67:1 73:1 74:1 76:1 80:1 83:1 
1 4:1 6:1 14:1 19:1 39:1 42:1 51:1 64:1 67:1 72:1 74:1 76:1 82:1 83:1 
1 3:1 6:1 16:1 20:1 37:1 40:1 56:1 63:1 67:1 73:1 74:1 76:1 82:1 83:1 
1 4:1 6:1 14:1 19:1 39:1 40:1 51:1 63:1 67:1 73:1 74:1 76:1 80:1 83:1 
1 5:1 7:1 16:1 19:1 39:1 40:1 50:1 63:1 68:1 73:1 74:1 77:1 80:1 94:1 
1 3:1 6:1 15:1 22:1 36:1 40:1 57:1 63:1 67:1 73:1 74:1 76:1 80:1 83:1 
1 2:1 6:1 18:1 19:1 39:1 40:1 55:1 65:1 67:1 73:1 74:1 76:1 80:1 98:1 
1 3:1 6:1 14:1 19:1 39:1 40:1 50:1 63:1 67:1 73:1 74:1 76:1 82:1 83:1 
1 4:1 7:1 16:1 23:1 39:1 40:1 56:1 63:1 67:1 73:1 74:1 76:1 82:1 83:1 
1 2:1 6:1 14:1 19:1 39:1 40:1 51:1 63:1 67:1 73:1 74:1 76:1 81:1 83:1 
1 5:1 8:1 14:1 22:1 36:1 40:1 51:1 63:1 68:1 73:1 74:1 76:1 80:1 83:1 
1 3:1 6:1 16:1 21:1 35:1 40:1 54:1 63:1 67:1 73:1 75:1 76:1 81:1 83:1 
1 3:1 6:1 16:1 22:1 36:1 40:1 48:1 63:1 67:1 73:1 74:1 76:1 82:1 83:1 
1 2:1 6:1 15:1 19:1 39:1 42:1 50:1 64:1 67:1 73:1 74:1 76:1 80:1 83:1 
1 3:1 8:1 17:1 22:1 36:1 40:1 51:1 63:1 67:1 73:1 74:1 76:1 80:1 83:1 
1 4:1 11:1 16:1 22:1 36:1 40:1 52:1 61:1 67:1 72:1 74:1 76:1 80:1 83:1 
1 4:1 8:1 18:1 20:1 37:1 40:1 50:1 63:1 67:1 73:1 74:1 76:1 82:1 83:1 
1 3:1 7:1 15:1 19:1 39:1 40:1 51:1 63:1 67:1 73:1 74:1 76:1 80:1 83:1 
1 4:1 6:1 16:1 24:1 38:1 40:1 51:1 63:1 67:1 73:1 74:1 76:1 80:1 83:1 
1 3:1 8:1 18:1 20:1 37:1 40:1 50:1 63:1 67:1 73:1 74:1 76:1 82:1 83:1 
1 4:1 6:1 16:1 19:1 39:1 40:1 51:1 63:1 68:1 73:1 74:1 76:1 80:1 90:1 
1 3:1 6:1 17:1 22:1 36:1 40:1 48:1 63:1 67:1 73:1 74:1 76:1 79:1 83:1 
1 5:1 6:1 14:1 19:1 39:1 44:1 51:1 64:1 67:1 73:1 74:1 77:1 80:1 83:1 
1 3:1 11:1 16:1 29:1 39:1 40:1 52:1 63:1 67:1 73:1 74:1 76:1 79:1 83:1 
1 4:1 10:1 18:1 22:1 36:1 44:1 59:1 64:1 67:1 73:1 74:1 76:1 80:1 83:1 
1 4:1 6:1 16:1 22:1 36:1 40:1 55:1 63:1 67:1 73:1 74:1 76:1 82:1 83:1 
1 5:1 6:1 15:1 22:1 36:1 40:1 51:1 63:1 67:1 73:1 74:1 76:1 82:1 83:1 
1 4:1 9:1 14:1 19:1 39:1 41:1 51:1 66:1 67:1 73:1 74:1 76:1 82:1 83:1 
1 3:1 11:1 18:1 22:1 36:1 40:1 52:1 61:1 67:1 72:1 74:1 76:1 80:1 83:1 
1 3:1 8:1 16:1 22:1 36:1 40:1 51:1 63:1 67:1 73:1 74:1 76:1 80:1 83:1 
1 5:1 7:1 15:1 22:1 36:1 40:1 48:1 63:1 67:1 73:1 75:1 76:1 82:1 83:1 
1 5:1 6:1 18:1 22:1 36:1 40:1 54:1 63:1 67:1 73:1 75:1 76:1 80:1 83:1 
1 4:1 6:1 15:1 20:1 37:1 40:1 52:1 63:1 67:1 73:1 74:1 76:1 81:1 83:1 
1 3:1 6:1 14:1 25:1 38:1 40:1 47:1 61:1 67:1 72:1 74:1 76:1 80:1 83:1 
1 4:1 10:1 15:1 29:1 39:1 40:1 52:1 63:1 67:1 73:1 74:1 76:1 79:1 83:1 
1 4:1 6:1 18:1 22:1 36:1 40:1 51:1 63:1 67:1 73:1 74:1 76:1 82:1 83:1 
1 5:1 7:1 18:1 19:1 39:1 40:1 50:1 63:1 67:1 73:1 74:1 76:1 80:1 87:1 
0.20924798425448027 2:1 6:1 18:1 19:1 39:1 40:1 55:1 63:1 67:1 73:1 75:1 76:1 80:1 83:1 
1 5:1 7:1 14:1 20:1 37:1 40:1 50:1 63:1 67:1 73:1 74:1 76:1 82:1 83:1 
1 4:1 6:1 16:1 22:1 36:1 40:1 48:1 63:1 67:1 73:1 74:1 76:1 81:1 83:1 
1 4:1 6:1 16:1 20:1 37:1 40:1 50:1 63:1 67:1 73:1 74:1 76:1 82:1 83:1 
1 3:1 6:1 15:1 22:1 36:1 40:1 48:1 63:1 67:1 73:1 74:1 77:1 80:1 83:1 
1 3:1 6:1 17:1 22:1 36:1 40:1 48:1 63:1 67:1 73:1 74:1 76:1 82:1 83:1 
1 4:1 11:1 17:1 25:1 38:1 40:1 52:1 61:1 67:1 72:1 74:1 76:1 80:1 83:1 
1 4:1 10:1 16:1 20:1 37:1 40:1 59:1 63:1 67:1 73:1 74:1 76:1 80:1 83:1 
1 4:1 9:1 15:1 24:1 38:1 40:1 52:1 63:1 67:1 73:1 74:1 76:1 80:1 83:1 
1 4:1 7:1 15:1 19:1 39:1 42:1 50:1 64:1 67:1 73:1 74:1 76:1 82:1 83:1 
1 2:1 8:1 18:1 22:1 36:1 40:1 50:1 61:1 67:1 72:1 74:1 77:1 78:1 83:1 
1 4:1 8:1 15:1 19:1 39:1 40:1 54:1 63:1 67:1 73:1 74:1 76:1 82:1 83:1 
1 3:1 7:1 17:1 24:1 38:1 40:1 52:1 61:1 67:1 72:1 74:1 76:1 78:1 83:1 
1 3:1 8:1 18:1 29:1 39:1 40:1 50:1 63:1 67:1 73:1 74:1 76:1 81:1 103:1 
1 3:1 6:1 14:1 19:1 39:1 40:1 50:1 61:1 67:1 72:1 74:1 76:1 81:1 83:1 
1 5:1 8:1 17:1 25:1 38:1 40:1 54:1 63:1 67:1 73:1 74:1 77:1 82:1 
1 5:1 10:1 17:1 19:1 39:1 40:1 52:1 61:1 67:1 72:1 74:1 76:1 80:1 83:1 
1 3:1 6:1 14:1 22:1 36:1 40:1 57:1 63:1 67:1 73:1 74:1 76:1 82:1 83:1 
1 2:1 6:1 16:1 20:1 37:1 40:1 51:1 63:1 67:1 73:1 74:1 76:1 82:1 101:1 
1 3:1 9:1 17:1 22:1 36:1 40:1 55:1 63:1 71:1 73:1 74:1 76:1 82:1 83:1 
1 5:1 8:1 14:1 22:1 36:1 40:1 51:1 63:1 67:1 73:1 74:1 76:1 79:1 83:1 
1 4:1 6:1 14:1 22:1 36:1 40:1 51:1 63:1 67:1 73:1 74:1 76:1 81:1 83:1 
1 2:1 11:1 18:1 29:1 39:1 40:1 52:1 61:1 67:1 72:1 74:1 76:1 82:1 83:1 
1 3:1 6:1 15:1 19:1 39:1 40:1 50:1 63:1 67:1 73:1 74:1 76:1 82:1 83:1 
1 5:1 6:1 14:1 24:1 38:1 40:1 47:1 63:1 67:1 73:1 74:1 76:1 80:1 83:1 
1 5:1 6:1 18:1 19:1 39:1 40:1 55:1 63:1 67:1 73:1 75:1 76:1 78:1 83:1 
1 1:1 6:1 18:1 29:1 39:1 40:1 56:1 64:1 67:1 73:1 74:1 76:1 82:1 83:1 
1 5:1 16:1 20:1 37:1 40:1 63:1 67:1 73:1 74:1 76:1 80:1 83:1 
1 5:1 11:1 18:1 22:1 36:1 40:1 52:1 63:1 67:1 73:1 74:1 76:1 82:1 83:1 
1 5:1 15:1 22:1 36:1 40:1 63:1 67:1 73:1 74:1 76:1 80:1 83:1 
1 3:1 6:1 17:1 19:1 39:1 41:1 51:1 64:1 67:1 72:1 74:1 76:1 81:1 83:1 
1 4:1 6:1 16:1 20:1 37:1 40:1 48:1 63:1 67:1 73:1 74:1 76:1 80:1 83:1 
1 4:1 9:1 18:1 22:1 36:1 40:1 55:1 63:1 71:1 73:1 74:1 76:1 82:1 83:1 
1 2:1 10:1 17:1 19:1 39:1 40:1 52:1 63:1 67:1 73:1 74:1 76:1 82:1 83:1 
1 4:1 6:1 18:1 19:1 39:1 42:1 49:1 64:1 67:1 73:1 74:1 76:1 80:1 83:1 
1 5:1 8:1 15:1 29:1 39:1 40:1 50:1 63:1 67:1 73:1 74:1 76:1 80:1 83:1 
1 3:1 6:1 14:1 19:1 39:1 40:1 50:1 63:1 67:1 73:1 74:1 76:1 81:1 83:1 
1 5:1 15:1 19:1 39:1 44:1 64:1 67:1 72:1 74:1 76:1 80:1 83:1 
1 4:1 7:1 17:1 20:1 37:1 40:1 48:1 63:1 69:1 73:1 75:1 76:1 80:1 83:1 
1 4:1 7:1 17:1 22:1 36:1 40:1 48:1 63:1 67:1 73:1 74:1 76:1 80:1 83:1 
1 3:1 6:1 14:1 29:1 39:1 40:1 57:1 63:1 67:1 73:1 74:1 76:1 82:1 
1 3:1 6:1 18:1 19:1 39:1 40:1 52:1 63:1 67:1 73:1 74:1 76:1 82:1 83:1 
1 3:1 6:1 14:1 29:1 39:1 42:1 52:1 64:1 67:1 73:1 74:1 76:1 81:1 83:1 
1 5:1 7:1 16:1 22:1 36:1 40:1 51:1 63:1 67:1 73:1 74:1 76:1 82:1 83:1 
1 5:1 6:1 15:1 22:1 36:1 40:1 50:1 63:1 67:1 73:1 74:1 76:1 82:1 83:1 
0.056892733070415459 4:1 9:1 18:1 19:1 39:1 40:1 52:1 63:1 67:1 73:1 74:1 76:1 80:1 83:1 
1 5:1 6:1 14:1 22:1 36:1 40:1 57:1 63:1 67:1 73:1 74:1 76:1 82:1 83:1 
1 5:1 10:1 15:1 19:1 39:1 40:1 55:1 63:1 67:1 73:1 74:1 76:1 80:1 83:1 
1 4:1 9:1 16:1 24:1 38:1 41:1 52:1 66:1 68:1 72:1 74:1 76:1 80:1 98:1 
1 5:1 14:1 22:1 36:1 40:1 63:1 67:1 73:1 74:1 76:1 80:1 83:1 
1 5:1 6:1 14:1 22:1 36:1 40:1 55:1 61:1 67:1 72:1 75:1 76:1 80:1 83:1 
1 5:1 8:1 16:1 20:1 37:1 40:1 57:1 61:1 67:1 72:1 74:1 76:1 80:1 83:1 
1 3:1 6:1 14:1 19:1 39:1 40:1 54:1 63:1 67:1 73:1 74:1 76:1 81:1 83:1 
1 4:1 6:1 15:1 22:1 36:1 40:1 48:1 61:1 67:1 72:1 74:1 76:1 80:1 83:1 
1 2:1 6:1 18:1 20:1 37:1 40:1 53:1 63:1 67:1 73:1 74:1 76:1 82:1 87:1 
1 4:1 11:1 15:1 19:1 39:1 40:1 52:1 63:1 67:1 73:1 74:1 76:1 80:1 83:1 
1 4:1 6:1 14:1 19:1 39:1 40:1 48:1 63:1 67:1 73:1 74:1 76:1 81:1 83:1 
1 2:1 6:1 16:1 22:1 36:1 42:1 50:1 64:1 67:1 73:1 74:1 76:1 82:1 83:1 
1 5:1 6:1 15:1 20:1 37:1 40:1 57:1 63:1 67:1 73:1 74:1 76:1 78:1 83:1 
1 3:1 6:1 14:1 22:1 36:1 40:1 55:1 63:1 67:1 73:1 74:1 76:1 80:1 83:1 
1 5:1 6:1 16:1 22:1 36:1 44:1 49:1 66:1 68:1 72:1 74:1 76:1 80:1 90:1 
1 5:1 6:1 15:1 25:1 38:1 40:1 52:1 63:1 67:1 73:1 74:1 76:1 80:1 83:1 
1 3:1 6:1 17:1 22:1 36:1 40:1 51:1 63:1 67:1 73:1 74:1 76:1 80:1 83:1 
1 3:1 6:1 15:1 19:1 39:1 40:1 51:1 63:1 68:1 73:1 74:1 76:1 82:1 
1 3:1 6:1 18:1 20:1 37:1 42:1 52:1 64:1 67:1 73:1 74:1 76:1 82:1 83:1 
1 5:1 7:1 14:1 22:1 36:1 40:1 56:1 63:1 67:1 73:1 74:1 77:1 82:1 83:1 
1 5:1 6:1 15:1 22:1 36:1 40:1 48:1 63:1 67:1 73:1 74:1 76:1 80:1 83:1 
1 3:1 7:1 18:1 20:1 37:1 41:1 51:1 65:1 67:1 73:1 74:1 77:1 82:1 96:1 
1 3:1 10:1 18:1 27:1 35:1 40:1 48:1 63:1 71:1 73:1 74:1 77:1 80:1 
1 4:1 6:1 17:1 31:1 35:1 42:1 57:1 66:1 67:1 73:1 74:1 76:1 80:1 83:1 
1 5:1 6:1 15:1 22:1 36:1 40:1 57:1 63:1 67:1 73:1 74:1 76:1 82:1 83:1 
1 1:1 6:1 17:1 22:1 36:1 40:1 49:1 63:1 67:1 73:1 74:1 76:1 81:1 83:1 
1 3:1 10:1 18:1 24:1 38:1 40:1 48:1 61:1 67:1 72:1 74:1 76:1 82:1 83:1 
1 3:1 6:1 14:1 19:1 39:1 40:1 52:1 63:1 67:1 73:1 74:1 76:1 80:1 83:1 
1 5:1 6:1 14:1 20:1 37:1 40:1 51:1 63:1 67:1 73:1 74:1 76:1 81:1 83:1 
1 2:1 6:1 16:1 19:1 39:1 40:1 50:1 63:1 71:1 73:1 74:1 76:1 82:1 83:1 
1 2:1 6:1 15:1 19:1 39:1 40:1 52:1 61:1 67:1 72:1 74:1 76:1 80:1 83:1 
0.079829968228707263 4:1 8:1 14:1 19:1 39:1 40:1 56:1 63:1 67:1 73:1 75:1 76:1 79:1 83:1 
1 5:1 6:1 16:1 22:1 36:1 40:1 57:1 63:1 67:1 73:1 74:1 77:1 80:1 83:1 
1 2:1 6:1 16:1 25:1 38:1 41:1 50:1 64:1 67:1 73:1 74:1 76:1 82:1 83:1 
1 3:1 9:1 17:1 24:1 38:1 40:1 55:1 61:1 67:1 72:1 74:1 76:1 80:1 83:1 
1 4:1 6:1 14:1 22:1 36:1 40:1 50:1 63:1 67:1 73:1 74:1 76:1 80:1 83:1 
1 3:1 6:1 18:1 22:1 36:1 40:1 51:1 63:1 67:1 73:1 74:1 76:1 82:1 83:1 
1 5:1 7:1 15:1 22:1 36:1 40:1 49:1 63:1 67:1 73:1 74:1 77:1 82:1 83:1 
1 5:1 6:1 16:1 20:1 37:1 40:1 51:1 63:1 67:1 73:1 74:1 76:1 81:1 83:1 
1 4:1 8:1 17:1 20:1 37:1 40:1 51:1 63:1 67:1 73:1 74:1 76:1 82:1 83:1 
1 4:1 6:1 18:1 22:1 36:1 40:1 48:1 63:1 71:1 73:1 74:1 76:1 82:1 83:1 
1 2:1 6:1 16:1 20:1 37:1 42:1 48:1 64:1 67:1 73:1 74:1 76:1 80:1 83:1 
1 3:1 6:1 14:1 22:1 36:1 40:1 57:1 63:1 67:1 73:1 74:1 76:1 80:1 83:1 
1 5:1 6:1 15:1 23:1 39:1 40:1 57:1 63:1 67:1 73:1 74:1 76:1 78:1 83:1 
1 5:1 6:1 17:1 25:1 38:1 40:1 48:1 63:1 67:1 73:1 74:1 76:1 80:1 83:1 
1 4:1 10:1 18:1 19:1 39:1 40:1 52:1 63:1 71:1 73:1 74:1 76:1 80:1 83:1 
1 3:1 6:1 16:1 29:1 39:1 41:1 51:1 66:1 67:1 73:1 74:1 76:1 82:1 83:1 
1 4:1 6:1 14:1 22:1 36:1 40:1 55:1 63:1 67:1 73:1 74:1 76:1 80:1 83:1 
1 5:1 11:1 15:1 22:1 36:1 40:1 55:1 63:1 67:1 73:1 75:1 76:1 79:1 83:1 
1 2:1 8:1 17:1 21:1 35:1 40:1 48:1 63:1 67:1 73:1 74:1 76:1 82:1 83:1 
1 2:1 6:1 14:1 21:1 35:1 41:1 50:1 64:1 67:1 73:1 74:1 76:1 81:1 83:1 
1 3:1 7:1 14:1 20:1 37:1 40:1 51:1 63:1 67:1 73:1 74:1 76:1 82:1 83:1 
1 2:1 7:1 16:1 25:1 38:1 40:1 52:1 63:1 67:1 73:1 75:1 76:1 82:1 83:1 
1 3:1 8:1 17:1 19:1 39:1 40:1 52:1 63:1 67:1 73:1 74:1 76:1 79:1 83:1 
1 4:1 6:1 15:1 22:1 36:1 40:1 55:1 63:1 67:1 73:1 74:1 76:1 82:1 83:1 
1 3:1 6:1 14:1 31:1 35:1 40:1 54:1 63:1 67:1 73:1 74:1 76:1 80:1 83:1 
1 4:1 6:1 15:1 29:1 39:1 41:1 51:1 66:1 67:1 72:1 74:1 76:1 80:1 83:1 
1 4:1 6:1 17:1 31:1 35:1 40:1 57:1 63:1 71:1 73:1 74:1 76:1 81:1 83:1 
1 4:1 6:1 15:1 20:1 37:1 40:1 48:1 63:1 67:1 73:1 74:1 77:1 82:1 83:1 
1 5:1 15:1 19:1 39:1 44:1 64:1 67:1 72:1 75:1 76:1 78:1 83:1 
1 4:1 6:1 17:1 24:1 38:1 40:1 48:1 63:1 67:1 73:1 74:1 77:1 80:1 83:1 
1 2:1 6:1 18:1 22:1 36:1 40:1 50:1 63:1 67:1 73:1 74:1 76:1 82:1 83:1 
1 3:1 6:1 15:1 22:1 36:1 41:1 55:1 64:1 67:1 73:1 75:1 76:1 80:1 83:1 
1 3:1 6:1 14:1 20:1 37:1 40:1 48:1 63:1 67:1 73:1 74:1 76:1 81:1 83:1 
1 3:1 6:1 15:1 22:1 36:1 42:1 52:1 64:1 67:1 73:1 74:1 76:1 82:1 83:1 
1 5:1 6:1 17:1 22:1 36:1 40:1 54:1 63:1 71:1 73:1 74:1 76:1 80:1 83:1 
1 3:1 6:1 14:1 24:1 38:1 40:1 52:1 61:1 67:1 72:1 74:1 76:1 78:1 83:1 
1 4:1 6:1 14:1 29:1 39:1 40:1 52:1 63:1 67:1 73:1 74:1 76:1 79:1 85:1 
1 5:1 6:1 14:1 22:1 36:1 40:1 54:1 63:1 67:1 73:1 74:1 76:1 80:1 83:1 
1 5:1 6:1 14:1 22:1 36:1 40:1 52:1 63:1 67:1 73:1 74:1 76:1 80:1 83:1 
1 4:1 7:1 14:1 20:1 37:1 40:1 50:1 63:1 67:1 73:1 74:1 76:1 82:1 83:1 
1 4:1 7:1 16:1 22:1 36:1 40:1 51:1 63:1 67:1 73:1 74:1 77:1 81:1 83:1 
1 5:1 7:1 16:1 23:1 39:1 40:1 52:1 63:1 67:1 73:1 74:1 76:1 79:1 83:1 
1 3:1 11:1 18:1 24:1 38:1 40:1 55:1 63:1 67:1 73:1 74:1 76:1 80:1 83:1 
1 5:1 6:1 16:1 20:1 37:1 40:1 51:1 63:1 67:1 73:1 74:1 76:1 82:1 83:1 
1 5:1 6:1 17:1 22:1 36:1 40:1 54:1 63:1 67:1 73:1 75:1 76:1 82:1 83:1 
1 4:1 6:1 18:1 19:1 39:1 40:1 52:1 63:1 67:1 73:1 74:1 76:1 81:1 83:1 
1 5:1 8:1 15:1 22:1 36:1 40:1 55:1 61:1 67:1 72:1 74:1 76:1 78:1 83:1 
1 4:1 6:1 18:1 22:1 36:1 40:1 48:1 63:1 71:1 73:1 74:1 76:1 80:1 83:1 
1 4:1 6:1 15:1 19:1 39:1 40:1 51:1 63:1 67:1 73:1 74:1 76:1 80:1 83:1 
1 5:1 8:1 16:1 20:1 37:1 40:1 50:1 63:1 67:1 73:1 74:1 76:1 82:1 83:1 
1 4:1 6:1 16:1 24:1 38:1 40:1 55:1 61:1 67:1 72:1 74:1 76:1 80:1 99:1 
1 5:1 16:1 22:1 36:1 40:1 63:1 67:1 73:1 74:1 76:1 80:1 
1 3:1 6:1 16:1 22:1 36:1 40:1 51:1 63:1 67:1 73:1 74:1 77:1 81:1 83:1 
1 3:1 6:1 16:1 22:1 36:1 40:1 51:1 63:1 67:1 73:1 74:1 77:1 82:1 83:1 
1 5:1 6:1 18:1 22:1 36:1 40:1 54:1 63:1 71:1 73:1 74:1 77:1 80:1 83:1 
1 5:1 6:1 16:1 22:1 36:1 40:1 48:1 63:1 67:1 73:1 74:1 76:1 82:1 83:1 
1 3:1 6:1 15:1 19:1 39:1 40:1 50:1 63:1 67:1 73:1 74:1 76:1 80:1 83:1 
1 4:1 6:1 17:1 29:1 39:1 40:1 52:1 63:1 68:1 73:1 74:1 76:1 81:1 94:1 
1 3:1 6:1 14:1 19:1 39:1 40:1 50:1 63:1 67:1 73:1 74:1 76:1 81:1 83:1 
1 3:1 6:1 14:1 19:1 39:1 41:1 50:1 64:1 67:1 73:1 74:1 76:1 82:1 83:1 
1 3:1 10:1 17:1 20:1 37:1 40:1 51:1 63:1 67:1 73:1 74:1 76:1 81:1 83:1 
1 5:1 6:1 17:1 22:1 36:1 40:1 48:1 63:1 67:1 73:1 74:1 76:1 80:1 83:1 
1 4:1 6:1 16:1 19:1 39:1 41:1 49:1 64:1 67:1 73:1 74:1 76:1 81:1 
1 2:1 6:1 15:1 19:1 39:1 40:1 55:1 63:1 67:1 73:1 74:1 76:1 80:1 83:1 
1 5:1 7:1 16:1 22:1 36:1 40:1 51:1 63:1 71:1 73:1 74:1 76:1 81:1 83:1 
1 4:1 6:1 17:1 20:1 37:1 40:1 52:1 61:1 67:1 72:1 74:1 76:1 82:1 83:1 
1 4:1 6:1 15:1 29:1 39:1 41:1 51:1 64:1 67:1 72:1 75:1 76:1 82:1 83:1 
1 2:1 6:1 16:1 20:1 37:1 40:1 47:1 63:1 67:1 73:1 75:1 76:1 80:1 83:1 
1 4:1 6:1 16:1 22:1 36:1 40:1 49:1 61:1 71:1 72:1 74:1 76:1 80:1 83:1 
1 4:1 10:1 18:1 19:1 39:1 45:1 52:1 64:1 67:1 72:1 75:1 76:1 81:1 83:1 
1 3:1 10:1 14:1 29:1 39:1 40:1 52:1 61:1 67:1 72:1 74:1 76:1 79:1 83:1 
1 3:1 6:1 15:1 22:1 36:1 40:1 50:1 63:1 67:1 73:1 75:1 76:1 80:1 83:1 
1 5:1 9:1 16:1 22:1 36:1 40:1 55:1 63:1 67:1 73:1 74:1 76:1 80:1 83:1 
1 5:1 6:1 16:1 19:1 39:1 40:1 57:1 63:1 67:1 73:1 74:1 76:1 82:1 83:1 
1 4:1 6:1 16:1 22:1 36:1 40:1 50:1 63:1 67:1 73:1 74:1 76:1 80:1 83:1 
1 4:1 11:1 17:1 19:1 39:1 40:1 55:1 63:1 67:1 73:1 74:1 76:1 82:1 83:1 
1 5:1 6:1 16:1 22:1 36:1 40:1 57:1 63:1 67:1 73:1 74:1 76:1 82:1 83:1 
1 5:1 6:1 17:1 19:1 39:1 41:1 51:1 66:1 67:1 73:1 74:1 76:1 80:1 83:1 
1 1:1 7:1 17:1 22:1 36:1 42:1 52:1 66:1 67:1 72:1 75:1 76:1 80:1 107:1 
1 2:1 8:1 17:1 22:1 36:1 40:1 48:1 63:1 67:1 73:1 75:1 76:1 81:1 83:1 
1 4:1 10:1 16:1 24:1 38:1 40:1 55:1 61:1 67:1 72:1 74:1 76:1 79:1 83:1 
1 3:1 10:1 14:1 22:1 36:1 40:1 59:1 63:1 68:1 73:1 74:1 76:1 82:1 83:1 
1 2:1 7:1 18:1 19:1 39:1 40:1 52:1 63:1 67:1 73:1 74:1 76:1 81:1 83:1 
1 2:1 6:1 15:1 20:1 37:1 40:1 51:1 63:1 67:1 73:1 74:1 76:1 82:1 83:1 
1 5:1 6:1 16:1 20:1 37:1 40:1 50:1 63:1 71:1 73:1 74:1 76:1 80:1 83:1 
1 4:1 6:1 15:1 20:1 37:1 43:1 51:1 64:1 67:1 73:1 74:1 76:1 81:1 83:1 
1 4:1 6:1 14:1 19:1 39:1 40:1 47:1 63:1 67:1 73:1 74:1 76:1 80:1 83:1 
1 4:1 7:1 17:1 22:1 36:1 40:1 52:1 61:1 67:1 72:1 74:1 76:1 80:1 99:1 
1 5:1 7:1 16:1 20:1 37:1 40:1 56:1 63:1 67:1 73:1 74:1 76:1 82:1 83:1 
1 3:1 6:1 16:1 29:1 39:1 40:1 52:1 63:1 67:1 73:1 74:1 76:1 82:1 83:1 
1 4:1 10:1 18:1 19:1 39:1 43:1 51:1 64:1 67:1 73:1 74:1 76:1 81:1 83:1 
1 3:1 6:1 16:1 20:1 37:1 40:1 48:1 63:1 67:1 73:1 74:1 76:1 82:1 83:1 
1 4:1 6:1 16:1 22:1 36:1 40:1 54:1 63:1 67:1 73:1 74:1 76:1 80:1 83:1 
1 3:1 6:1 15:1 29:1 39:1 40:1 48:1 63:1 71:1 73:1 74:1 76:1 80:1 83:1 
1 4:1 6:1 14:1 20:1 37:1 40:1 47:1 63:1 67:1 73:1 74:1 76:1 78:1 83:1 
1 2:1 6:1 17:1 19:1 39:1 42:1 51:1 64:1 67:1 73:1 74:1 76:1 82:1 83:1 
1 1:1 6:1 17:1 22:1 36:1 40:1 47:1 65:1 67:1 72:1 74:1 76:1 82:1 83:1 
1 4:1 6:1 17:1 22:1 36:1 40:1 55:1 61:1 67:1 72:1 75:1 76:1 80:1 83:1 
1 3:1 6:1 14:1 29:1 39:1 40:1 51:1 63:1 67:1 73:1 74:1 76:1 80:1 83:1 
1 2:1 6:1 16:1 20:1 37:1 40:1 51:1 63:1 67:1 73:1 74:1 76:1 80:1 83:1 
1 5:1 10:1 16:1 29:1 39:1 40:1 52:1 63:1 67:1 73:1 74:1 76:1 80:1 83:1 
1 4:1 6:1 18:1 19:1 39:1 40:1 50:1 63:1 67:1 73:1 74:1 76:1 82:1 83:1 
1 4:1 7:1 15:1 22:1 36:1 40:1 50:1 63:1 68:1 73:1 74:1 76:1 82:1 93:1 
1 2:1 6:1 15:1 29:1 39:1 42:1 52:1 64:1 67:1 73:1 75:1 76:1 80:1 83:1 
1 4:1 7:1 14:1 21:1 35:1 40:1 56:1 63:1 67:1 73:1 74:1 76:1 82:1 83:1 
1 4:1 9:1 16:1 22:1 36:1 40:1 55:1 63:1 67:1 73:1 74:1 76:1 80:1 83:1 
1 3:1 6:1 14:1 22:1 36:1 40:1 48:1 63:1 67:1 73:1 75:1 76:1 80:1 83:1 
1 5:1 8:1 15:1 20:1 37:1 40:1 50:1 63:1 67:1 73:1 74:1 76:1 81:1 83:1 
1 4:1 6:1 18:1 20:1 37:1 42:1 50:1 64:1 67:1 73:1 74:1 76:1 82:1 83:1 
1 2:1 6:1 17:1 19:1 39:1 42:1 51:1 66:1 67:1 72:1 74:1 76:1 81:1 83:1 
1 4:1 6:1 15:1 22:1 36:1 40:1 50:1 63:1 67:1 73:1 74:1 76:1 82:1 83:1 
1 3:1 6:1 18:1 19:1 39:1 40:1 50:1 63:1 67:1 73:1 74:1 76:1 82:1 83:1 
1 5:1 6:1 14:1 26:1 35:1 40:1 51:1 61:1 68:1 72:1 74:1 76:1 82:1 83:1 
1 3:1 6:1 18:1 29:1 39:1 40:1 51:1 63:1 67:1 73:1 74:1 76:1 80:1 95:1 
1 4:1 6:1 16:1 25:1 38:1 40:1 54:1 63:1 67:1 73:1 74:1 76:1 80:1 83:1 
1 2:1 6:1 17:1 24:1 38:1 40:1 51:1 61:1 67:1 72:1 74:1 77:1 80:1 83:1 
1 5:1 7:1 16:1 20:1 37:1 40:1 52:1 61:1 67:1 72:1 75:1 76:1 78:1 83:1 
1 3:1 6:1 14:1 20:1 37:1 40:1 51:1 63:1 67:1 73:1 74:1 76:1 80:1 83:1 
1 2:1 7:1 17:1 19:1 39:1 40:1 51:1 63:1 67:1 73:1 74:1 76:1 82:1 83:1 
1 2:1 6:1 18:1 22:1 36:1 40:1 48:1 63:1 67:1 73:1 74:1 77:1 81:1 83:1 
1 5:1 6:1 18:1 19:1 39:1 40:1 50:1 63:1 67:1 73:1 74:1 76:1 82:1 83:1 
1 3:1 11:1 18:1 25:1 38:1 42:1 52:1 64:1 67:1 73:1 75:1 76:1 80:1 83:1 
1 4:1 6:1 14:1 22:1 36:1 40:1 51:1 63:1 67:1 73:1 74:1 76:1 80:1 83:1 
1 3:1 6:1 14:1 19:1 39:1 40:1 49:1 61:1 68:1 72:1 74:1 76:1 78:1 83:1 
1 5:1 10:1 15:1 20:1 37:1 40:1 51:1 63:1 71:1 73:1 74:1 76:1 80:1 83:1 
1 3:1 10:1 15:1 20:1 37:1 40:1 59:1 63:1 67:1 73:1 74:1 76:1 80:1 83:1 
1 3:1 6:1 15:1 19:1 39:1 40:1 51:1 63:1 67:1 73:1 74:1 76:1 80:1 83:1 
1 5:1 8:1 17:1 24:1 38:1 40:1 50:1 63:1 67:1 73:1 74:1 76:1 79:1 83:1 
1 2:1 9:1 17:1 22:1 36:1 40:1 55:1 61:1 67:1 72:1 74:1 76:1 80:1 83:1 
1 3:1 6:1 15:1 22:1 36:1 40:1 49:1 63:1 67:1 73:1 74:1 76:1 81:1 83:1 
1 4:1 6:1 14:1 24:1 38:1 40:1 50:1 63:1 67:1 73:1 74:1 76:1 81:1 83:1 
1 5:1 6:1 16:1 19:1 39:1 40:1 50:1 63:1 67:1 73:1 74:1 76:1 81:1 83:1 
1 4:1 6:1 16:1 20:1 37:1 40:1 48:1 63:1 67:1 73:1 74:1 77:1 80:1 83:1 
1 5:1 6:1 18:1 20:1 37:1 40:1 52:1 63:1 67:1 73:1 74:1 76:1 81:1 83:1 
1 4:1 11:1 17:1 19:1 39:1 41:1 51:1 64:1 67:1 72:1 74:1 76:1 80:1 83:1 
1 4:1 6:1 17:1 22:1 36:1 40:1 48:1 63:1 67:1 73:1 74:1 77:1 80:1 83:1 
1 2:1 6:1 17:1 22:1 36:1 40:1 59:1 63:1 67:1 73:1 74:1 76:1 82:1 83:1 
1 4:1 6:1 14:1 20:1 37:1 40:1 55:1 61:1 67:1 72:1 74:1 77:1 79:1 83:1 
1 4:1 10:1 15:1 22:1 36:1 40:1 49:1 61:1 71:1 72:1 74:1 76:1 79:1 101:1 
1 3:1 8:1 17:1 19:1 39:1 40:1 50:1 63:1 67:1 73:1 74:1 76:1 82:1 83:1 
1 4:1 7:1 15:1 33:1 35:1 40:1 50:1 63:1 67:1 73:1 74:1 76:1 82:1 99:1 
1 4:1 18:1 22:1 36:1 40:1 61:1 67:1 72:1 74:1 76:1 78:1 83:1 
1 4:1 6:1 17:1 19:1 39:1 40:1 51:1 63:1 67:1 73:1 74:1 76:1 80:1 83:1 
1 2:1 6:1 18:1 19:1 39:1 40:1 52:1 61:1 67:1 72:1 74:1 76:1 80:1 83:1 
1 3:1 6:1 17:1 24:1 38:1 40:1 54:1 63:1 67:1 73:1 74:1 76:1 80:1 83:1 
1 5:1 7:1 16:1 19:1 39:1 40:1 51:1 63:1 67:1 73:1 74:1 76:1 81:1 83:1 
1 3:1 6:1 18:1 24:1 38:1 40:1 51:1 61:1 67:1 72:1 74:1 76:1 82:1 83:1 
1 3:1 6:1 17:1 19:1 39:1 40:1 52:1 63:1 67:1 73:1 74:1 76:1 80:1 
1 4:1 7:1 18:1 29:1 39:1 41:1 50:1 66:1 67:1 73:1 74:1 76:1 78:1 83:1 
1 5:1 6:1 15:1 21:1 35:1 40:1 57:1 63:1 67:1 73:1 74:1 76:1 82:1 83:1 
1 4:1 6:1 17:1 20:1 37:1 40:1 48:1 63:1 67:1 73:1 74:1 76:1 80:1 83:1 
1 5:1 6:1 15:1 19:1 39:1 40:1 55:1 61:1 67:1 72:1 74:1 76:1 80:1 83:1 
1 4:1 6:1 17:1 22:1 36:1 40:1 54:1 61:1 71:1 72:1 74:1 76:1 80:1 83:1 
1 4:1 6:1 18:1 22:1 36:1 40:1 57:1 63:1 67:1 73:1 74:1 76:1 80:1 83:1 
1 5:1 15:1 33:1 35:1 40:1 63:1 67:1 73:1 74:1 76:1 78:1 83:1 
1 3:1 6:1 15:1 20:1 37:1 40:1 50:1 63:1 67:1 73:1 74:1 76:1 82:1 83:1 
1 2:1 10:1 17:1 19:1 39:1 43:1 52:1 64:1 67:1 72:1 74:1 76:1 82:1 83:1 
1 4:1 6:1 14:1 24:1 38:1 40:1 55:1 61:1 71:1 72:1 74:1 76:1 80:1 83:1 
1 3:1 6:1 16:1 25:1 38:1 40:1 50:1 63:1 67:1 73:1 74:1 76:1 82:1 88:1 
1 5:1 6:1 17:1 22:1 36:1 40:1 47:1 61:1 67:1 72:1 74:1 76:1 80:1 83:1 
1 3:1 11:1 16:1 19:1 39:1 40:1 52:1 63:1 67:1 73:1 74:1 76:1 82:1 83:1 
1 5:1 6:1 17:1 25:1 38:1 40:1 53:1 63:1 67:1 73:1 74:1 76:1 80:1 83:1 
1 4:1 6:1 17:1 24:1 38:1 40:1 48:1 63:1 67:1 73:1 74:1 76:1 81:1 83:1 
1 5:1 6:1 15:1 20:1 37:1 40:1 48:1 63:1 67:1 73:1 74:1 76:1 80:1 83:1 
1 4:1 9:1 17:1 19:1 39:1 40:1 55:1 63:1 68:1 73:1 74:1 76:1 80:1 98:1 
1 5:1 8:1 17:1 22:1 36:1 40:1 51:1 63:1 67:1 73:1 74:1 76:1 80:1 83:1 
1 4:1 6:1 16:1 20:1 37:1 40:1 50:1 63:1 67:1 73:1 74:1 76:1 82:1 83:1 
1 2:1 6:1 17:1 22:1 36:1 40:1 49:1 63:1 67:1 73:1 74:1 76:1 80:1 103:1 
0.28518995432579108 4:1 6:1 15:1 29:1 39:1 40:1 52:1 63:1 68:1 73:1 74:1 76:1 82:1 110:1 
1 4:1 10:1 17:1 19:1 39:1 40:1 52:1 63:1 67:1 73:1 74:1 76:1 79:1 83:1 
1 5:1 6:1 18:1 20:1 37:1 40:1 48:1 63:1 67:1 73:1 74:1 76:1 80:1 83:1 
1 2:1 6:1 16:1 19:1 39:1 40:1 49:1 61:1 67:1 72:1 74:1 76:1 80:1 83:1 
1 4:1 6:1 14:1 20:1 37:1 45:1 52:1 64:1 67:1 73:1 74:1 76:1 80:1 83:1 
1 2:1 6:1 14:1 19:1 39:1 40:1 50:1 61:1 67:1 72:1 74:1 76:1 80:1 83:1 
1 5:1 11:1 14:1 29:1 39:1 40:1 52:1 63:1 67:1 73:1 74:1 76:1 82:1 83:1 
1 4:1 10:1 17:1 20:1 37:1 40:1 59:1 63:1 67:1 73:1 74:1 76:1 80:1 83:1 
1 1:1 7:1 18:1 21:1 35:1 40:1 57:1 63:1 67:1 73:1 75:1 76:1 82:1 83:1 
1 3:1 6:1 15:1 29:1 39:1 40:1 51:1 63:1 68:1 73:1 74:1 76:1 80:1 110:1 
1 2:1 6:1 17:1 19:1 39:1 40:1 50:1 63:1 67:1 73:1 74:1 76:1 80:1 83:1 
1 5:1 7:1 15:1 28:1 35:1 40:1 48:1 63:1 67:1 73:1 74:1 76:1 80:1 83:1 
1 2:1 6:1 17:1 19:1 39:1 42:1 51:1 64:1 67:1 72:1 75:1 76:1 82:1 83:1 
1 4:1 6:1 18:1 22:1 36:1 40:1 49:1 63:1 67:1 73:1 74:1 76:1 80:1 83:1 
1 3:1 6:1 16:1 20:1 37:1 40:1 48:1 63:1 67:1 73:1 75:1 76:1 81:1 83:1 
1 3:1 8:1 17:1 29:1 39:1 43:1 52:1 64:1 67:1 72:1 75:1 76:1 80:1 83:1 
1 5:1 6:1 16:1 22:1 36:1 40:1 54:1 63:1 67:1 73:1 74:1 76:1 80:1 85:1 
1 3:1 7:1 18:1 19:1 39:1 40:1 50:1 63:1 67:1 73:1 74:1 76:1 81:1 83:1 
1 2:1 8:1 14:1 22:1 36:1 40:1 51:1 63:1 67:1 73:1 74:1 76:1 82:1 87:1 
1 5:1 6:1 15:1 29:1 39:1 42:1 52:1 64:1 67:1 72:1 74:1 77:1 82:1 83:1 
1 5:1 6:1 18:1 19:1 39:1 40:1 51:1 63:1 67:1 73:1 74:1 76:1 80:1 83:1 
1 4:1 6:1 14:1 20:1 37:1 40:1 51:1 63:1 67:1 73:1 74:1 76:1 80:1 83:1 
1 4:1 6:1 18:1 19:1 39:1 41:1 51:1 66:1 67:1 73:1 74:1 77:1 82:1 83:1 
1 3:1 10:1 15:1 29:1 39:1 40:1 52:1 63:1 67:1 73:1 74:1 76:1 80:1 83:1 
1 5:1 16:1 19:1 39:1 40:1 63:1 67:1 73:1 74:1 77:1 80:1 83:1 
1 3:1 6:1 16:1 22:1 36:1 40:1 54:1 63:1 67:1 73:1 74:1 76:1 81:1 83:1 
1 5:1 6:1 17:1 22:1 36:1 40:1 48:1 63:1 67:1 73:1 75:1 76:1 80:1 83:1 
1 5:1 7:1 17:1 22:1 36:1 40:1 48:1 63:1 67:1 73:1 74:1 76:1 82:1 83:1 
1 3:1 6:1 14:1 25:1 38:1 40:1 48:1 63:1 67:1 73:1 75:1 76:1 80:1 83:1 
1 3:1 6:1 15:1 22:1 36:1 40:1 50:1 63:1 67:1 73:1 75:1 76:1 81:1 83:1 
1 3:1 7:1 17:1 22:1 36:1 40:1 50:1 61:1 71:1 72:1 74:1 76:1 82:1 107:1 
1 2:1 6:1 18:1 25:1 38:1 40:1 47:1 65:1 67:1 72:1 74:1 76:1 80:1 87:1 
1 2:1 6:1 15:1 20:1 37:1 40:1 51:1 63:1 67:1 73:1 74:1 76:1 82:1 83:1 
1 5:1 6:1 17:1 19:1 39:1 40:1 50:1 63:1 67:1 73:1 74:1 76:1 80:1 83:1 
1 5:1 7:1 14:1 22:1 36:1 44:1 48:1 64:1 67:1 73:1 74:1 76:1 82:1 83:1 
1 3:1 7:1 18:1 22:1 36:1 42:1 48:1 64:1 67:1 73:1 74:1 76:1 81:1 83:1 
1 2:1 6:1 15:1 24:1 38:1 40:1 48:1 64:1 68:1 73:1 74:1 76:1 82:1 83:1 
1 4:1 6:1 18:1 19:1 39:1 40:1 55:1 63:1 68:1 73:1 74:1 76:1 80:1 
1 2:1 6:1 18:1 20:1 37:1 40:1 57:1 63:1 67:1 73:1 74:1 76:1 81:1 83:1 
1 3:1 7:1 17:1 20:1 37:1 40:1 48:1 63:1 67:1 73:1 74:1 76:1 82:1 83:1 
1 4:1 9:1 17:1 29:1 39:1 42:1 51:1 64:1 67:1 73:1 74:1 76:1 82:1 83:1 
1 4:1 6:1 16:1 22:1 36:1 40:1 54:1 63:1 67:1 73:1 74:1 76:1 82:1 83:1 
1 3:1 6:1 16:1 20:1 37:1 40:1 55:1 63:1 71:1 73:1 74:1 76:1 80:1 83:1 
1 1:1 6:1 14:1 20:1 37:1 40:1 57:1 63:1 67:1 73:1 74:1 76:1 82:1 83:1 
1 5:1 6:1 18:1 19:1 39:1 40:1 50:1 63:1 67:1 73:1 74:1 76:1 82:1 83:1 
1 3:1 6:1 16:1 25:1 38:1 40:1 55:1 61:1 67:1 72:1 74:1 76:1 78:1 83:1 
1 5:1 15:1 22:1 36:1 40:1 63:1 67:1 73:1 74:1 76:1 80:1 83:1 
1 2:1 8:1 15:1 22:1 36:1 40:1 50:1 63:1 67:1 73:1 74:1 76:1 82:1 83:1 
1 5:1 14:1 29:1 39:1 40:1 63:1 71:1 73:1 74:1 76:1 80:1 83:1 
1 5:1 6:1 15:1 22:1 36:1 40:1 57:1 63:1 67:1 73:1 74:1 76:1 82:1 83:1 
1 3:1 6:1 18:1 20:1 37:1 40:1 51:1 63:1 67:1 73:1 74:1 76:1 82:1 83:1 
1 4:1 6:1 17:1 19:1 39:1 40:1 48:1 63:1 67:1 73:1 74:1 76:1 81:1 83:1 
1 3:1 6:1 18:1 25:1 38:1 41:1 52:1 64:1 67:1 72:1 75:1 76:1 81:1 83:1 
1 4:1 6:1 16:1 22:1 36:1 40:1 57:1 63:1 67:1 73:1 74:1 76:1 82:1 83:1 
1 5:1 6:1 14:1 24:1 38:1 40:1 55:1 63:1 67:1 73:1 74:1 76:1 79:1 83:1 
1 1:1 6:1 16:1 22:1 36:1 41:1 51:1 64:1 67:1 72:1 74:1 76:1 81:1 83:1 
1 4:1 6:1 18:1 19:1 39:1 40:1 51:1 63:1 67:1 73:1 74:1 76:1 80:1 83:1 
1 2:1 6:1 15:1 25:1 38:1 40:1 50:1 63:1 67:1 73:1 74:1 76:1 80:1 83:1 
1 4:1 9:1 18:1 22:1 36:1 40:1 57:1 63:1 67:1 73:1 74:1 76:1 80:1 83:1 
1 4:1 6:1 17:1 24:1 38:1 40:1 48:1 63:1 67:1 73:1 74:1 76:1 82:1 83:1 
1 5:1 16:1 25:1 38:1 40:1 63:1 67:1 73:1 74:1 76:1 82:1 83:1 
1 4:1 6:1 17:1 25:1 38:1 40:1 48:1 63:1 67:1 73:1 75:1 76:1 80:1 83:1 
1 3:1 6:1 17:1 19:1 39:1 40:1 52:1 63:1 67:1 73:1 74:1 76:1 80:1 96:1 
1 4:1 6:1 15:1 22:1 36:1 40:1 48:1 63:1 67:1 73:1 74:1 76:1 81:1 83:1 
1 4:1 11:1 16:1 25:1 38:1 41:1 52:1 66:1 67:1 72:1 74:1 76:1 82:1 83:1 
1 3:1 6:1 16:1 19:1 39:1 41:1 51:1 64:1 67:1 72:1 75:1 76:1 80:1 83:1 
1 5:1 6:1 14:1 19:1 39:1 40:1 50:1 63:1 67:1 73:1 74:1 76:1 82:1 83:1 
1 4:1 6:1 14:1 20:1 37:1 44:1 51:1 64:1 67:1 72:1 74:1 76:1 80:1 83:1 
1 5:1 6:1 17:1 22:1 36:1 40:1 53:1 63:1 67:1 73:1 75:1 76:1 80:1 83:1 
1 3:1 6:1 17:1 22:1 36:1 40:1 47:1 63:1 67:1 73:1 74:1 76:1 80:1 83:1 
1 4:1 6:1 15:1 22:1 36:1 40:1 57:1 63:1 67:1 73:1 75:1 76:1 82:1 83:1 
1 5:1 6:1 14:1 20:1 37:1 40:1 47:1 63:1 67:1 73:1 74:1 76:1 81:1 83:1 
1 3:1 6:1 16:1 20:1 37:1 41:1 51:1 64:1 67:1 72:1 75:1 76:1 80:1 83:1 
1 4:1 11:1 14:1 29:1 39:1 40:1 52:1 61:1 67:1 72:1 74:1 76:1 78:1 83:1 
1 3:1 6:1 15:1 22:1 36:1 40:1 50:1 63:1 67:1 73:1 74:1 76:1 82:1 83:1 
1 3:1 6:1 14:1 20:1 37:1 40:1 50:1 63:1 67:1 73:1 74:1 76:1 82:1 83:1 
1 4:1 10:1 17:1 19:1 39:1 41:1 52:1 66:1 67:1 72:1 75:1 76:1 82:1 83:1 
1 2:1 6:1 18:1 29:1 39:1 42:1 52:1 64:1 67:1 72:1 74:1 76:1 80:1 83:1 
1 2:1 9:1 14:1 19:1 39:1 42:1 52:1 64:1 67:1 73:1 74:1 76:1 80:1 83:1 
1 5:1 6:1 16:1 23:1 39:1 40:1 52:1 63:1 67:1 73:1 74:1 76:1 78:1 83:1 
1 2:1 6:1 14:1 22:1 36:1 40:1 48:1 63:1 67:1 73:1 74:1 76:1 80:1 83:1 
1 3:1 10:1 18:1 22:1 36:1 40:1 59:1 63:1 67:1 73:1 74:1 76:1 80:1 83:1 
1 5:1 7:1 16:1 27:1 35:1 40:1 51:1 63:1 67:1 73:1 75:1 76:1 82:1 92:1 
1 4:1 6:1 15:1 19:1 39:1 40:1 50:1 63:1 67:1 73:1 74:1 76:1 82:1 83:1 
1 4:1 6:1 15:1 22:1 36:1 40:1 51:1 63:1 67:1 73:1 74:1 76:1 82:1 83:1 
1 5:1 6:1 17:1 22:1 36:1 40:1 48:1 63:1 67:1 73:1 74:1 76:1 81:1 83:1 
1 4:1 6:1 18:1 19:1 39:1 40:1 57:1 63:1 67:1 73:1 74:1 76:1 82:1 87:1 
1 5:1 6:1 15:1 19:1 39:1 40:1 47:1 63:1 67:1 73:1 74:1 76:1 78:1 83:1 
1 5:1 6:1 16:1 20:1 37:1 40:1 50:1 63:1 67:1 73:1 74:1 76:1 81:1 83:1 
1 4:1 9:1 16:1 29:1 39:1 41:1 59:1 64:1 67:1 73:1 74:1 76:1 82:1 83:1 
1 4:1 6:1 16:1 19:1 39:1 40:1 52:1 63:1 67:1 73:1 74:1 76:1 80:1 83:1 
1 4:1 6:1 17:1 30:1 35:1 40:1 54:1 63:1 67:1 73:1 74:1 76:1 80:1 103:1 
1 5:1 7:1 16:1 19:1 39:1 40:1 51:1 63:1 67:1 73:1 74:1 76:1 80:1 83:1 
1 3:1 6:1 15:1 29:1 39:1 40:1 52:1 63:1 67:1 73:1 74:1 76:1 82:1 83:1 
1 5:1 7:1 18:1 20:1 37:1 40:1 50:1 63:1 67:1 73:1 74:1 76:1 82:1 83:1 
1 4:1 6:1 14:1 23:1 39:1 42:1 52:1 64:1 67:1 73:1 75:1 76:1 80:1 83:1 
1 4:1 10:1 18:1 20:1 37:1 40:1 49:1 63:1 67:1 73:1 74:1 77:1 80:1 83:1 
1 5:1 6:1 15:1 20:1 37:1 40:1 50:1 63:1 67:1 73:1 74:1 76:1 81:1 83:1 
1 3:1 6:1 17:1 20:1 37:1 40:1 51:1 63:1 67:1 73:1 74:1 76:1 82:1 83:1 
1 3:1 7:1 18:1 23:1 39:1 42:1 52:1 64:1 67:1 73:1 74:1 77:1 81:1 83:1 
1 4:1 6:1 14:1 29:1 39:1 40:1 50:1 63:1 67:1 73:1 74:1 76:1 80:1 83:1 
1 4:1 10:1 15:1 22:1 36:1 40:1 59:1 63:1 67:1 73:1 74:1 76:1 82:1 83:1 
1 3:1 9:1 15:1 24:1 38:1 40:1 55:1 61:1 67:1 72:1 75:1 76:1 78:1 83:1 
1 4:1 6:1 18:1 29:1 39:1 41:1 51:1 64:1 67:1 72:1 74:1 76:1 82:1 83:1 
1 3:1 6:1 16:1 22:1 36:1 40:1 48:1 63:1 67:1 73:1 75:1 76:1 82:1 83:1 
1 4:1 6:1 18:1 22:1 36:1 40:1 54:1 63:1 67:1 73:1 74:1 76:1 80:1 83:1 
1 4:1 6:1 18:1 22:1 36:1 40:1 57:1 63:1 67:1 73:1 74:1 76:1 82:1 99:1 
1 2:1 6:1 16:1 22:1 36:1 40:1 47:1 63:1 67:1 73:1 74:1 76:1 80:1 83:1 
1 3:1 6:1 15:1 22:1 36:1 40:1 50:1 63:1 67:1 73:1 74:1 76:1 82:1 83:1 
1 2:1 7:1 15:1 23:1 39:1 42:1 52:1 62:1 67:1 73:1 74:1 76:1 82:1 99:1 
1 5:1 6:1 17:1 20:1 37:1 40:1 51:1 63:1 67:1 73:1 74:1 76:1 79:1 83:1 
1 4:1 6:1 14:1 19:1 39:1 40:1 52:1 63:1 67:1 73:1 74:1 76:1 82:1 83:1 
1 2:1 6:1 16:1 19:1 39:1 40:1 52:1 63:1 67:1 73:1 74:1 76:1 81:1 83:1 
1 5:1 6:1 17:1 19:1 39:1 40:1 51:1 63:1 67:1 73:1 74:1 76:1 79:1 83:1 
1 4:1 6:1 15:1 25:1 38:1 40:1 52:1 63:1 67:1 73:1 74:1 76:1 80:1 83:1 
1 3:1 6:1 16:1 20:1 37:1 40:1 51:1 63:1 67:1 73:1 74:1 76:1 81:1 83:1 
1 4:1 8:1 14:1 19:1 39:1 40:1 50:1 63:1 67:1 73:1 74:1 76:1 82:1 83:1 
1 3:1 6:1 16:1 22:1 36:1 40:1 50:1 63:1 67:1 73:1 74:1 76:1 80:1 83:1 
1 5:1 6:1 18:1 20:1 37:1 40:1 50:1 63:1 67:1 73:1 74:1 76:1 81:1 83:1 
1 3:1 6:1 14:1 29:1 39:1 42:1 51:1 64:1 67:1 73:1 74:1 76:1 80:1 83:1 
1 5:1 10:1 17:1 21:1 35:1 40:1 48:1 63:1 71:1 73:1 74:1 76:1 80:1 83:1 
1 3:1 6:1 18:1 29:1 39:1 43:1 51:1 64:1 67:1 73:1 74:1 76:1 81:1 83:1 
1 4:1 6:1 16:1 19:1 39:1 40:1 52:1 63:1 67:1 73:1 74:1 76:1 81:1 83:1 
1 5:1 11:1 16:1 32:1 39:1 42:1 52:1 64:1 67:1 72:1 75:1 76:1 80:1 83:1 
1 2:1 6:1 15:1 22:1 36:1 40:1 53:1 63:1 67:1 73:1 74:1 76:1 80:1 83:1 
0.64504114953292102 5:1 9:1 18:1 19:1 39:1 40:1 52:1 63:1 67:1 73:1 74:1 76:1 80:1 83:1 
1 5:1 6:1 14:1 19:1 39:1 40:1 48:1 63:1 67:1 73:1 74:1 76:1 80:1 83:1 
1 4:1 6:1 15:1 20:1 37:1 40:1 48:1 63:1 67:1 73:1 74:1 76:1 82:1 83:1 
1 5:1 6:1 17:1 29:1 39:1 40:1 50:1 63:1 67:1 73:1 74:1 76:1 82:1 83:1 
1 4:1 7:1 17:1 20:1 37:1 40:1 50:1 63:1 67:1 73:1 74:1 76:1 82:1 83:1 
1 5:1 10:1 15:1 23:1 39:1 42:1 51:1 64:1 71:1 72:1 74:1 76:1 82:1 83:1 
1 2:1 6:1 15:1 20:1 37:1 40:1 57:1 63:1 67:1 73:1 74:1 76:1 82:1 83:1 
1 5:1 6:1 18:1 22:1 36:1 40:1 50:1 63:1 67:1 73:1 74:1 76:1 80:1 83:1 
1 4:1 6:1 14:1 22:1 36:1 45:1 52:1 64:1 68:1 73:1 74:1 76:1 80:1 91:1 
1 2:1 6:1 14:1 19:1 39:1 40:1 51:1 63:1 67:1 73:1 74:1 76:1 81:1 83:1 
1 3:1 11:1 14:1 23:1 39:1 40:1 52:1 63:1 67:1 73:1 74:1 76:1 79:1 83:1 
1 5:1 11:1 15:1 32:1 39:1 40:1 52:1 63:1 67:1 73:1 74:1 76:1 80:1 
1 2:1 6:1 15:1 20:1 37:1 40:1 51:1 62:1 67:1 73:1 75:1 76:1 82:1 83:1 
1 2:1 6:1 14:1 22:1 36:1 40:1 55:1 61:1 67:1 72:1 74:1 76:1 80:1 83:1 
1 5:1 9:1 18:1 24:1 38:1 43:1 52:1 64:1 67:1 72:1 74:1 76:1 80:1 83:1 
1 4:1 6:1 14:1 22:1 36:1 42:1 48:1 62:1 67:1 73:1 75:1 76:1 82:1 83:1 
1 5:1 6:1 17:1 31:1 35:1 40:1 50:1 63:1 67:1 73:1 74:1 77:1 80:1 83:1 
1 4:1 6:1 16:1 22:1 36:1 40:1 48:1 63:1 67:1 73:1 74:1 76:1 82:1 83:1 
1 5:1 7:1 15:1 32:1 39:1 40:1 51:1 63:1 67:1 73:1 74:1 76:1 78:1 83:1 
1 5:1 9:1 15:1 19:1 39:1 40:1 52:1 63:1 67:1 73:1 74:1 76:1 80:1 83:1 
1 4:1 6:1 15:1 22:1 36:1 40:1 50:1 63:1 67:1 73:1 74:1 76:1 82:1 83:1 
1 3:1 6:1 17:1 22:1 36:1 40:1 50:1 63:1 67:1 73:1 75:1 76:1 81:1 83:1 
1 3:1 6:1 14:1 23:1 39:1 42:1 52:1 62:1 67:1 73:1 74:1 76:1 81:1 83:1 
1 5:1 6:1 17:1 25:1 38:1 40:1 51:1 63:1 67:1 73:1 74:1 76:1 80:1 88:1 
1 5:1 10:1 15:1 22:1 36:1 40:1 51:1 61:1 67:1 72:1 74:1 76:1 82:1 83:1 
1 4:1 6:1 16:1 23:1 39:1 40:1 55:1 63:1 67:1 73:1 74:1 76:1 82:1 
1 5:1 6:1 17:1 20:1 37:1 40:1 48:1 63:1 67:1 73:1 74:1 76:1 82:1 
1 3:1 6:1 17:1 29:1 39:1 40:1 52:1 63:1 67:1 73:1 74:1 76:1 79:1 83:1 
1 2:1 6:1 15:1 19:1 39:1 40:1 51:1 63:1 67:1 73:1 74:1 76:1 82:1 83:1 
1 4:1 6:1 16:1 19:1 39:1 40:1 55:1 61:1 67:1 72:1 74:1 76:1 80:1 83:1 
1 2:1 10:1 18:1 22:1 36:1 40:1 59:1 63:1 67:1 73:1 74:1 76:1 80:1 83:1 
1 5:1 11:1 14:1 19:1 39:1 42:1 52:1 66:1 68:1 72:1 74:1 76:1 80:1 83:1 
1 3:1 6:1 16:1 19:1 39:1 40:1 50:1 63:1 67:1 73:1 74:1 76:1 82:1 83:1 
1 3:1 6:1 18:1 31:1 35:1 40:1 48:1 63:1 67:1 73:1 74:1 76:1 82:1 83:1 
1 3:1 6:1 17:1 22:1 36:1 40:1 54:1 61:1 67:1 72:1 74:1 76:1 80:1 83:1 
1 5:1 6:1 14:1 20:1 37:1 40:1 50:1 63:1 68:1 73:1 74:1 76:1 80:1 83:1 
1 5:1 8:1 14:1 19:1 39:1 44:1 50:1 66:1 67:1 73:1 74:1 76:1 82:1 83:1 
1 3:1 6:1 14:1 19:1 39:1 40:1 56:1 63:1 67:1 73:1 74:1 76:1 82:1 83:1 
1 5:1 6:1 16:1 19:1 39:1 40:1 48:1 63:1 67:1 73:1 74:1 76:1 82:1 83:1 
1 3:1 6:1 17:1 19:1 39:1 40:1 50:1 63:1 67:1 73:1 74:1 76:1 82:1 83:1 
1 4:1 8:1 14:1 19:1 39:1 41:1 51:1 64:1 67:1 73:1 74:1 76:1 82:1 83:1 
1 4:1 7:1 15:1 19:1 39:1 40:1 56:1 63:1 67:1 73:1 74:1 77:1 82:1 83:1 
1 5:1 8:1 15:1 22:1 36:1 40:1 55:1 61:1 67:1 72:1 75:1 76:1 80:1 
1 4:1 10:1 15:1 19:1 39:1 42:1 52:1 64:1 67:1 72:1 74:1 76:1 80:1 83:1 
1 4:1 7:1 17:1 22:1 36:1 40:1 48:1 63:1 67:1 73:1 74:1 76:1 80:1 83:1 
1 4:1 6:1 16:1 19:1 39:1 40:1 52:1 63:1 67:1 73:1 74:1 76:1 82:1 
1 3:1 6:1 17:1 19:1 39:1 40:1 52:1 63:1 67:1 73:1 74:1 77:1 80:1 121:1 
1 3:1 7:1 16:1 22:1 36:1 40:1 57:1 63:1 67:1 73:1 74:1 76:1 80:1 83:1 
1 2:1 6:1 16:1 19:1 39:1 40:1 51:1 63:1 67:1 73:1 74:1 76:1 82:1 83:1 
1 3:1 6:1 18:1 22:1 36:1 40:1 52:1 63:1 67:1 73:1 74:1 76:1 80:1 83:1 
1 2:1 6:1 18:1 19:1 39:1 42:1 52:1 64:1 71:1 73:1 74:1 76:1 82:1 83:1 
1 3:1 6:1 17:1 22:1 36:1 40:1 48:1 63:1 67:1 73:1 74:1 76:1 82:1 83:1 
1 5:1 9:1 14:1 22:1 36:1 40:1 48:1 63:1 67:1 73:1 74:1 76:1 80:1 83:1 
1 2:1 10:1 18:1 32:1 39:1 42:1 52:1 64:1 67:1 73:1 74:1 76:1 82:1 103:1 
1 3:1 6:1 14:1 21:1 35:1 41:1 51:1 66:1 67:1 72:1 74:1 76:1 80:1 83:1 
0.67646271229528099 5:1 6:1 16:1 19:1 39:1 40:1 52:1 63:1 67:1 73:1 74:1 76:1 82:1 83:1 
1 5:1 14:1 22:1 36:1 40:1 63:1 67:1 73:1 74:1 76:1 80:1 87:1 
1 3:1 6:1 16:1 24:1 38:1 40:1 47:1 63:1 67:1 73:1 74:1 76:1 82:1 83:1 
1 4:1 6:1 17:1 22:1 36:1 40:1 48:1 63:1 67:1 73:1 74:1 76:1 80:1 83:1 
1 3:1 6:1 18:1 22:1 36:1 40:1 55:1 61:1 67:1 72:1 74:1 76:1 79:1 83:1 
1 3:1 6:1 16:1 19:1 39:1 40:1 52:1 61:1 67:1 72:1 74:1 76:1 80:1 83:1 
1 4:1 6:1 16:1 22:1 36:1 40:1 48:1 63:1 67:1 73:1 75:1 76:1 81:1 83:1 
1 4:1 6:1 18:1 22:1 36:1 40:1 55:1 63:1 67:1 73:1 74:1 76:1 80:1 83:1 
1 3:1 6:1 14:1 29:1 39:1 42:1 51:1 64:1 67:1 73:1 74:1 76:1 80:1 83:1 
1 5:1 8:1 14:1 19:1 39:1 40:1 50:1 61:1 67:1 72:1 74:1 76:1 80:1 83:1 
1 5:1 6:1 15:1 19:1 39:1 40:1 51:1 63:1 67:1 73:1 74:1 76:1 80:1 83:1 
1 2:1 6:1 14:1 19:1 39:1 40:1 51:1 63:1 67:1 73:1 74:1 76:1 80:1 83:1 
1 4:1 7:1 14:1 25:1 38:1 40:1 48:1 63:1 67:1 73:1 74:1 76:1 80:1 83:1 
1 4:1 6:1 15:1 22:1 36:1 40:1 54:1 61:1 71:1 72:1 75:1 76:1 80:1 83:1 
1 5:1 16:1 22:1 36:1 45:1 64:1 67:1 73:1 74:1 76:1 78:1 83:1 
1 4:1 7:1 14:1 19:1 39:1 40:1 56:1 63:1 67:1 73:1 74:1 76:1 80:1 83:1 
1 5:1 8:1 15:1 23:1 39:1 43:1 52:1 64:1 67:1 73:1 74:1 76:1 80:1 83:1 
1 5:1 6:1 14:1 22:1 36:1 40:1 48:1 63:1 67:1 73:1 74:1 76:1 80:1 83:1 
1 5:1 6:1 15:1 20:1 37:1 40:1 51:1 63:1 67:1 73:1 74:1 76:1 80:1 83:1 
1 2:1 6:1 16:1 24:1 38:1 40:1 50:1 63:1 67:1 73:1 74:1 76:1 82:1 83:1 
1 5:1 6:1 14:1 22:1 36:1 40:1 57:1 63:1 67:1 73:1 74:1 76:1 80:1 83:1 
1 5:1 6:1 15:1 22:1 36:1 40:1 48:1 63:1 67:1 73:1 74:1 76:1 82:1 83:1 
1 4:1 6:1 17:1 20:1 37:1 40:1 48:1 63:1 71:1 73:1 74:1 76:1 80:1 83:1 
1 4:1 6:1 15:1 19:1 39:1 40:1 51:1 63:1 67:1 73:1 74:1 76:1 80:1 83:1 
1 5:1 7:1 14:1 22:1 36:1 40:1 50:1 63:1 67:1 73:1 75:1 76:1 82:1 119:1 
1 3:1 6:1 18:1 22:1 36:1 40:1 48:1 63:1 67:1 73:1 74:1 76:1 80:1 83:1 
1 3:1 10:1 15:1 19:1 39:1 40:1 52:1 61:1 67:1 72:1 74:1 76:1 78:1 83:1 
1 3:1 6:1 15:1 20:1 37:1 40:1 51:1 63:1 67:1 73:1 74:1 76:1 82:1 83:1 
1 4:1 6:1 18:1 22:1 36:1 40:1 54:1 63:1 71:1 73:1 75:1 76:1 80:1 83:1 
1 3:1 6:1 18:1 19:1 39:1 42:1 50:1 66:1 67:1 72:1 74:1 76:1 80:1 83:1 
1 5:1 6:1 18:1 19:1 39:1 40:1 51:1 63:1 67:1 73:1 74:1 76:1 80:1 83:1 
1 3:1 6:1 16:1 25:1 38:1 40:1 52:1 61:1 67:1 72:1 74:1 76:1 80:1 83:1 
1 3:1 6:1 15:1 22:1 36:1 40:1 49:1 61:1 67:1 72:1 74:1 76:1 78:1 83:1 
1 1:1 6:1 14:1 19:1 39:1 42:1 51:1 64:1 67:1 72:1 74:1 76:1 80:1 83:1 
1 3:1 7:1 16:1 20:1 37:1 40:1 48:1 63:1 67:1 73:1 74:1 76:1 82:1 83:1 
1 3:1 6:1 17:1 20:1 37:1 42:1 47:1 64:1 67:1 73:1 74:1 76:1 80:1 83:1 
1 5:1 7:1 16:1 19:1 39:1 41:1 52:1 64:1 67:1 72:1 74:1 76:1 80:1 83:1 
1 4:1 6:1 17:1 22:1 36:1 40:1 48:1 63:1 67:1 73:1 74:1 76:1 81:1 83:1 
1 5:1 10:1 17:1 19:1 39:1 40:1 59:1 63:1 67:1 73:1 74:1 76:1 80:1 83:1 
1 4:1 6:1 16:1 20:1 37:1 40:1 50:1 63:1 67:1 73:1 74:1 76:1 82:1 83:1 
1 3:1 8:1 17:1 24:1 38:1 40:1 51:1 63:1 67:1 73:1 74:1 76:1 80:1 83:1 
1 4:1 6:1 18:1 22:1 36:1 40:1 48:1 63:1 67:1 73:1 74:1 76:1 80:1 83:1 
1 3:1 6:1 16:1 29:1 39:1 40:1 50:1 63:1 67:1 73:1 74:1 76:1 82:1 83:1 
1 4:1 10:1 14:1 20:1 37:1 40:1 55:1 61:1 67:1 72:1 74:1 77:1 80:1 83:1 
1 5:1 6:1 16:1 19:1 39:1 41:1 51:1 64:1 71:1 73:1 75:1 76:1 80:1 83:1 
1 4:1 8:1 17:1 22:1 36:1 40:1 56:1 63:1 67:1 73:1 75:1 76:1 80:1 83:1 
1 3:1 6:1 18:1 22:1 36:1 40:1 54:1 63:1 67:1 73:1 74:1 76:1 80:1 83:1 
1 5:1 6:1 14:1 22:1 36:1 40:1 48:1 63:1 67:1 73:1 74:1 76:1 80:1 83:1 
1 4:1 10:1 14:1 20:1 37:1 40:1 59:1 63:1 67:1 73:1 74:1 77:1 80:1 83:1 
1 2:1 6:1 14:1 23:1 39:1 42:1 52:1 64:1 67:1 72:1 74:1 76:1 82:1 83:1 
1 5:1 15:1 22:1 36:1 40:1 61:1 67:1 72:1 75:1 76:1 80:1 83:1 
1 2:1 8:1 15:1 25:1 38:1 40:1 49:1 61:1 67:1 72:1 74:1 76:1 79:1 83:1 
1 3:1 6:1 14:1 20:1 37:1 40:1 47:1 63:1 67:1 73:1 74:1 76:1 82:1 83:1 
1 5:1 7:1 14:1 32:1 39:1 40:1 52:1 63:1 67:1 73:1 74:1 77:1 78:1 83:1 
1 4:1 6:1 14:1 22:1 36:1 40:1 57:1 63:1 67:1 73:1 74:1 76:1 80:1 83:1 
1 3:1 6:1 18:1 19:1 39:1 40:1 49:1 63:1 68:1 73:1 75:1 76:1 79:1 83:1 
1 2:1 6:1 17:1 22:1 36:1 40:1 53:1 63:1 67:1 73:1 74:1 76:1 80:1 83:1 
1 2:1 6:1 18:1 22:1 36:1 40:1 54:1 63:1 67:1 73:1 74:1 76:1 80:1 83:1 
1 5:1 7:1 16:1 19:1 39:1 40:1 52:1 63:1 67:1 73:1 74:1 76:1 82:1 83:1 
1 2:1 7:1 16:1 19:1 39:1 42:1 50:1 64:1 71:1 73:1 74:1 76:1 80:1 83:1 
1 2:1 6:1 14:1 19:1 39:1 40:1 52:1 63:1 67:1 73:1 74:1 76:1 80:1 83:1 
1 5:1 10:1 16:1 29:1 39:1 41:1 52:1 64:1 67:1 72:1 74:1 76:1 79:1 83:1 
1 4:1 6:1 18:1 22:1 36:1 40:1 48:1 63:1 67:1 73:1 74:1 76:1 80:1 83:1 
1 4:1 7:1 15:1 20:1 37:1 40:1 51:1 63:1 67:1 73:1 74:1 76:1 82:1 83:1 
1 5:1 6:1 15:1 20:1 37:1 40:1 51:1 63:1 67:1 73:1 74:1 76:1 82:1 83:1 
1 4:1 6:1 15:1 20:1 37:1 40:1 48:1 63:1 69:1 73:1 75:1 76:1 82:1 83:1 
1 2:1 6:1 18:1 19:1 39:1 40:1 51:1 65:1 68:1 72:1 74:1 76:1 80:1 94:1 
1 4:1 6:1 15:1 20:1 37:1 42:1 55:1 66:1 67:1 73:1 74:1 76:1 82:1 83:1 
1 5:1 8:1 16:1 22:1 36:1 40:1 50:1 63:1 67:1 73:1 74:1 76:1 82:1 83:1 
1 5:1 6:1 17:1 22:1 36:1 40:1 55:1 61:1 67:1 72:1 74:1 76:1 80:1 83:1 
1 2:1 6:1 14:1 25:1 38:1 40:1 52:1 61:1 67:1 72:1 74:1 76:1 79:1 83:1 
1 2:1 6:1 15:1 22:1 36:1 40:1 54:1 63:1 67:1 73:1 75:1 76:1 82:1 83:1 
1 5:1 11:1 18:1 29:1 39:1 40:1 52:1 61:1 67:1 72:1 74:1 76:1 78:1 83:1 
1 4:1 11:1 17:1 22:1 36:1 40:1 49:1 63:1 67:1 73:1 74:1 76:1 81:1 83:1 
1 5:1 6:1 18:1 29:1 39:1 40:1 55:1 63:1 67:1 73:1 74:1 76:1 82:1 83:1 
1 4:1 7:1 17:1 19:1 39:1 40:1 50:1 63:1 67:1 73:1 74:1 76:1 81:1 83:1 
1 3:1 6:1 14:1 22:1 36:1 40:1 57:1 63:1 67:1 73:1 75:1 76:1 82:1 83:1 
1 1:1 6:1 14:1 25:1 38:1 42:1 55:1 64:1 67:1 73:1 74:1 76:1 78:1 83:1 
1 5:1 6:1 14:1 22:1 36:1 41:1 57:1 66:1 67:1 73:1 74:1 76:1 81:1 83:1 
1 5:1 6:1 16:1 22:1 36:1 40:1 51:1 63:1 67:1 73:1 74:1 76:1 82:1 83:1 
1 5:1 6:1 15:1 27:1 35:1 40:1 57:1 63:1 67:1 73:1 74:1 76:1 82:1 83:1 
1 2:1 9:1 15:1 23:1 39:1 40:1 52:1 63:1 67:1 73:1 74:1 76:1 80:1 83:1 
1 1:1 6:1 17:1 20:1 37:1 40:1 50:1 63:1 67:1 73:1 74:1 76:1 81:1 83:1 
1 2:1 11:1 14:1 22:1 36:1 40:1 59:1 63:1 68:1 73:1 74:1 76:1 80:1 83:1 
1 4:1 11:1 17:1 19:1 39:1 40:1 55:1 63:1 67:1 73:1 74:1 76:1 80:1 83:1 
1 4:1 6:1 14:1 22:1 36:1 40:1 50:1 61:1 67:1 72:1 74:1 76:1 80:1 83:1 
1 2:1 6:1 18:1 20:1 37:1 43:1 47:1 66:1 67:1 73:1 74:1 76:1 80:1 83:1 
1 4:1 6:1 14:1 25:1 38:1 40:1 50:1 63:1 67:1 73:1 74:1 77:1 82:1 83:1 
1 5:1 11:1 17:1 22:1 36:1 40:1 48:1 63:1 71:1 73:1 74:1 76:1 80:1 83:1 
1 4:1 6:1 15:1 22:1 36:1 40:1 50:1 61:1 67:1 72:1 74:1 76:1 80:1 83:1 
1 5:1 6:1 14:1 20:1 37:1 40:1 57:1 63:1 67:1 73:1 75:1 76:1 82:1 83:1 
1 5:1 6:1 14:1 22:1 36:1 40:1 53:1 63:1 67:1 73:1 74:1 76:1 81:1 83:1 
1 4:1 6:1 15:1 33:1 35:1 40:1 54:1 61:1 68:1 72:1 74:1 76:1 80:1 102:1 
1 5:1 9:1 15:1 20:1 37:1 40:1 59:1 63:1 67:1 73:1 74:1 76:1 82:1 83:1 
1 5:1 6:1 17:1 20:1 37:1 40:1 51:1 63:1 67:1 73:1 74:1 76:1 80:1 83:1 
1 3:1 6:1 18:1 24:1 38:1 40:1 47:1 63:1 67:1 73:1 74:1 76:1 80:1 83:1 
1 2:1 14:1 19:1 39:1 40:1 61:1 67:1 72:1 74:1 76:1 78:1 83:1 
1 5:1 6:1 17:1 25:1 38:1 40:1 48:1 63:1 71:1 73:1 74:1 76:1 80:1 83:1 
1 3:1 6:1 16:1 22:1 36:1 40:1 50:1 63:1 67:1 73:1 75:1 76:1 82:1 83:1 
1 5:1 9:1 14:1 22:1 36:1 40:1 55:1 63:1 67:1 73:1 74:1 76:1 80:1 83:1 
1 5:1 16:1 20:1 37:1 40:1 61:1 67:1 72:1 74:1 76:1 81:1 83:1 
1 3:1 8:1 15:1 22:1 36:1 40:1 51:1 63:1 68:1 73:1 74:1 76:1 82:1 110:1 
1 5:1 6:1 16:1 22:1 36:1 40:1 48:1 63:1 67:1 73:1 74:1 76:1 80:1 83:1 
1 5:1 6:1 16:1 22:1 36:1 40:1 48:1 63:1 67:1 73:1 74:1 76:1 80:1 83:1 
1 5:1 6:1 18:1 20:1 37:1 41:1 52:1 64:1 67:1 73:1 74:1 76:1 80:1 83:1 
1 4:1 6:1 18:1 22:1 36:1 40:1 48:1 63:1 67:1 73:1 74:1 76:1 80:1 83:1 
1 2:1 10:1 15:1 22:1 36:1 40:1 48:1 63:1 67:1 73:1 74:1 76:1 80:1 83:1 
1 3:1 6:1 14:1 19:1 39:1 40:1 51:1 63:1 67:1 73:1 74:1 76:1 81:1 83:1 
1 2:1 6:1 16:1 20:1 37:1 40:1 47:1 63:1 67:1 73:1 74:1 76:1 82:1 83:1 
1 4:1 6:1 18:1 20:1 37:1 40:1 48:1 63:1 71:1 73:1 74:1 76:1 80:1 83:1 
1 3:1 6:1 15:1 20:1 37:1 40:1 48:1 63:1 67:1 73:1 74:1 76:1 82:1 83:1 
1 3:1 6:1 18:1 19:1 39:1 40:1 52:1 63:1 67:1 73:1 74:1 76:1 82:1 83:1 
1 5:1 15:1 24:1 38:1 40:1 63:1 71:1 73:1 74:1 76:1 78:1 83:1 
1 5:1 11:1 18:1 31:1 35:1 40:1 51:1 63:1 67:1 73:1 74:1 76:1 80:1 83:1 
1 5:1 6:1 16:1 22:1 36:1 40:1 54:1 63:1 67:1 73:1 74:1 76:1 80:1 83:1 
1 5:1 6:1 16:1 22:1 36:1 41:1 48:1 65:1 67:1 73:1 74:1 76:1 82:1 83:1 
1 4:1 6:1 16:1 23:1 39:1 42:1 52:1 64:1 67:1 72:1 74:1 76:1 80:1 83:1 
1 2:1 6:1 17:1 20:1 37:1 40:1 48:1 63:1 67:1 73:1 74:1 76:1 80:1 83:1 
1 3:1 6:1 15:1 19:1 39:1 42:1 50:1 64:1 68:1 73:1 74:1 76:1 82:1 
1 3:1 6:1 14:1 22:1 36:1 40:1 53:1 63:1 67:1 73:1 74:1 76:1 80:1 83:1 
1 5:1 15:1 32:1 39:1 40:1 63:1 67:1 73:1 74:1 77:1 78:1 83:1 
1 2:1 6:1 18:1 31:1 35:1 40:1 47:1 63:1 67:1 73:1 74:1 76:1 80:1 83:1 
1 3:1 6:1 16:1 22:1 36:1 40:1 52:1 63:1 67:1 73:1 74:1 77:1 80:1 83:1 
1 3:1 6:1 16:1 25:1 38:1 40:1 48:1 63:1 67:1 73:1 74:1 76:1 80:1 83:1 
1 3:1 7:1 18:1 23:1 39:1 43:1 52:1 66:1 67:1 73:1 74:1 76:1 82:1 83:1 
1 3:1 6:1 14:1 19:1 39:1 40:1 53:1 61:1 67:1 72:1 74:1 76:1 80:1 100:1 
1 2:1 6:1 17:1 19:1 39:1 40:1 48:1 63:1 67:1 73:1 74:1 76:1 81:1 83:1 
1 2:1 6:1 14:1 20:1 37:1 40:1 53:1 63:1 67:1 73:1 74:1 76:1 80:1 83:1 
1 4:1 6:1 16:1 24:1 38:1 40:1 48:1 63:1 67:1 73:1 74:1 76:1 80:1 83:1 
1 3:1 6:1 18:1 19:1 39:1 40:1 50:1 63:1 67:1 73:1 74:1 76:1 82:1 83:1 
1 3:1 6:1 15:1 19:1 39:1 40:1 52:1 63:1 67:1 73:1 74:1 76:1 82:1 83:1 
1 5:1 6:1 14:1 22:1 36:1 40:1 53:1 63:1 67:1 73:1 74:1 76:1 80:1 83:1 
1 3:1 11:1 14:1 20:1 37:1 41:1 59:1 66:1 69:1 72:1 74:1 76:1 80:1 83:1 
1 4:1 6:1 14:1 22:1 36:1 40:1 55:1 63:1 67:1 73:1 74:1 76:1 80:1 83:1 
1 5:1 6:1 15:1 22:1 36:1 40:1 48:1 63:1 67:1 73:1 74:1 76:1 82:1 83:1 
1 4:1 6:1 15:1 20:1 37:1 40:1 48:1 63:1 67:1 73:1 74:1 77:1 80:1 83:1 
1 2:1 6:1 17:1 22:1 36:1 40:1 51:1 63:1 67:1 73:1 74:1 76:1 80:1 83:1 
1 3:1 6:1 14:1 19:1 39:1 40:1 52:1 61:1 67:1 72:1 74:1 76:1 82:1 96:1 
1 5:1 6:1 18:1 25:1 38:1 40:1 49:1 61:1 67:1 72:1 74:1 76:1 78:1 83:1 
1 2:1 15:1 25:1 38:1 40:1 61:1 69:1 72:1 74:1 76:1 80:1 83:1 
1 5:1 10:1 15:1 22:1 36:1 40:1 48:1 63:1 67:1 73:1 74:1 76:1 80:1 83:1 
1 5:1 6:1 18:1 22:1 36:1 40:1 50:1 63:1 67:1 73:1 74:1 76:1 80:1 87:1 
1 4:1 10:1 15:1 29:1 39:1 42:1 52:1 64:1 67:1 72:1 74:1 76:1 81:1 83:1 
1 3:1 6:1 14:1 24:1 38:1 40:1 52:1 63:1 67:1 73:1 74:1 76:1 82:1 83:1 
1 5:1 15:1 29:1 39:1 42:1 64:1 67:1 72:1 75:1 76:1 79:1 83:1 
1 4:1 6:1 15:1 20:1 37:1 41:1 48:1 64:1 67:1 73:1 74:1 76:1 80:1 83:1 
1 5:1 6:1 16:1 26:1 35:1 40:1 51:1 63:1 67:1 73:1 74:1 76:1 81:1 83:1 
1 5:1 6:1 16:1 22:1 36:1 40:1 51:1 63:1 67:1 73:1 74:1 76:1 82:1 83:1 
1 4:1 6:1 17:1 22:1 36:1 40:1 47:1 63:1 67:1 73:1 74:1 76:1 81:1 83:1 
1 4:1 6:1 16:1 22:1 36:1 40:1 48:1 63:1 67:1 73:1 74:1 76:1 82:1 83:1 
1 2:1 7:1 14:1 24:1 38:1 40:1 57:1 63:1 67:1 73:1 75:1 76:1 82:1 83:1 
1 4:1 6:1 17:1 19:1 39:1 40:1 51:1 63:1 67:1 73:1 74:1 76:1 80:1 83:1 
1 2:1 6:1 14:1 22:1 36:1 40:1 51:1 63:1 67:1 73:1 75:1 76:1 82:1 83:1 
1 4:1 6:1 18:1 19:1 39:1 40:1 48:1 63:1 67:1 73:1 74:1 77:1 80:1 83:1 
1 4:1 6:1 18:1 22:1 36:1 40:1 51:1 63:1 67:1 73:1 74:1 76:1 82:1 83:1 
1 5:1 6:1 16:1 22:1 36:1 40:1 54:1 63:1 67:1 73:1 74:1 77:1 80:1 83:1 
1 3:1 10:1 17:1 29:1 39:1 40:1 51:1 63:1 67:1 73:1 74:1 76:1 80:1 83:1 
1 4:1 6:1 17:1 20:1 37:1 40:1 48:1 63:1 67:1 73:1 74:1 76:1 82:1 83:1 
1 2:1 6:1 14:1 22:1 36:1 40:1 47:1 63:1 67:1 73:1 74:1 76:1 80:1 83:1 
1 3:1 7:1 16:1 29:1 39:1 40:1 50:1 63:1 67:1 73:1 74:1 76:1 80:1 83:1 
1 4:1 6:1 17:1 25:1 38:1 40:1 51:1 63:1 67:1 73:1 74:1 76:1 82:1 83:1 
1 5:1 6:1 15:1 24:1 38:1 41:1 51:1 64:1 67:1 73:1 74:1 76:1 80:1 83:1 
1 5:1 10:1 17:1 22:1 36:1 40:1 59:1 63:1 67:1 73:1 74:1 76:1 80:1 83:1 
1 4:1 9:1 16:1 19:1 39:1 40:1 52:1 63:1 67:1 73:1 74:1 76:1 80:1 83:1 
1 3:1 6:1 16:1 22:1 36:1 40:1 48:1 63:1 67:1 73:1 74:1 76:1 82:1 83:1 
1 5:1 6:1 16:1 22:1 36:1 40:1 57:1 63:1 67:1 73:1 75:1 76:1 82:1 83:1 
1 3:1 6:1 16:1 22:1 36:1 40:1 54:1 63:1 67:1 73:1 74:1 76:1 80:1 83:1 
1 1:1 6:1 16:1 19:1 39:1 42:1 52:1 64:1 67:1 72:1 75:1 76:1 80:1 83:1 
1 2:1 6:1 16:1 19:1 39:1 40:1 50:1 63:1 67:1 73:1 74:1 76:1 80:1 83:1 
1 4:1 6:1 17:1 29:1 39:1 40:1 50:1 63:1 67:1 73:1 74:1 76:1 82:1 83:1 
1 2:1 6:1 15:1 20:1 37:1 40:1 51:1 61:1 67:1 72:1 74:1 76:1 80:1 83:1 
1 2:1 7:1 18:1 19:1 39:1 40:1 52:1 63:1 67:1 73:1 74:1 77:1 82:1 86:1 
1 4:1 6:1 16:1 26:1 35:1 40:1 54:1 61:1 67:1 72:1 74:1 76:1 80:1 83:1 
1 4:1 7:1 15:1 19:1 39:1 45:1 51:1 64:1 71:1 73:1 74:1 76:1 80:1 101:1 
1 2:1 8:1 14:1 22:1 36:1 40:1 48:1 63:1 67:1 73:1 75:1 76:1 80:1 83:1 
1 4:1 7:1 18:1 19:1 39:1 40:1 52:1 61:1 67:1 72:1 74:1 76:1 78:1 83:1 
1 4:1 6:1 18:1 20:1 37:1 40:1 48:1 63:1 67:1 73:1 74:1 76:1 80:1 83:1 
1 4:1 6:1 14:1 19:1 39:1 40:1 51:1 63:1 67:1 73:1 74:1 76:1 80:1 
1 3:1 8:1 17:1 22:1 36:1 40:1 55:1 63:1 67:1 73:1 74:1 76:1 82:1 83:1 
1 5:1 15:1 29:1 39:1 42:1 64:1 67:1 72:1 74:1 76:1 82:1 83:1 
1 4:1 6:1 15:1 22:1 36:1 40:1 50:1 63:1 67:1 73:1 74:1 76:1 80:1 83:1 
1 5:1 6:1 16:1 20:1 37:1 40:1 52:1 61:1 67:1 72:1 74:1 76:1 80:1 83:1 
1 4:1 6:1 17:1 31:1 35:1 40:1 57:1 63:1 71:1 73:1 74:1 76:1 80:1 83:1 
1 4:1 6:1 16:1 22:1 36:1 40:1 55:1 63:1 67:1 73:1 74:1 77:1 80:1 83:1 
1 5:1 6:1 16:1 31:1 35:1 40:1 57:1 63:1 67:1 73:1 74:1 76:1 80:1 83:1 
1 5:1 7:1 15:1 23:1 39:1 40:1 52:1 63:1 67:1 73:1 74:1 76:1 80:1 83:1 
1 5:1 11:1 15:1 29:1 39:1 40:1 52:1 63:1 67:1 73:1 74:1 76:1 79:1 83:1 
1 3:1 6:1 17:1 19:1 39:1 41:1 51:1 66:1 67:1 72:1 75:1 76:1 81:1 83:1 
1 3:1 9:1 14:1 23:1 39:1 42:1 52:1 64:1 67:1 73:1 74:1 76:1 82:1 83:1 
1 5:1 6:1 15:1 31:1 35:1 40:1 48:1 63:1 71:1 73:1 74:1 76:1 80:1 83:1 
1 5:1 6:1 15:1 21:1 35:1 40:1 50:1 63:1 67:1 73:1 74:1 76:1 80:1 83:1 
1 5:1 11:1 14:1 19:1 39:1 40:1 51:1 63:1 67:1 73:1 74:1 76:1 80:1 83:1 
1 4:1 6:1 15:1 19:1 39:1 40:1 51:1 63:1 67:1 73:1 74:1 76:1 80:1 83:1 
1 5:1 6:1 17:1 22:1 36:1 40:1 57:1 63:1 67:1 73:1 74:1 76:1 81:1 83:1 
1 3:1 7:1 17:1 22:1 36:1 42:1 54:1 62:1 67:1 73:1 75:1 76:1 80:1 83:1 
1 2:1 6:1 15:1 19:1 39:1 40:1 52:1 63:1 67:1 73:1 74:1 76:1 80:1 83:1 
1 5:1 11:1 14:1 29:1 39:1 40:1 52:1 63:1 67:1 73:1 74:1 76:1 82:1 83:1 
1 3:1 6:1 14:1 22:1 36:1 40:1 56:1 63:1 67:1 73:1 74:1 76:1 82:1 83:1 
1 5:1 6:1 15:1 24:1 38:1 40:1 51:1 61:1 71:1 72:1 74:1 76:1 80:1 83:1 
1 3:1 7:1 17:1 19:1 39:1 40:1 52:1 63:1 67:1 73:1 74:1 76:1 81:1 83:1 
1 3:1 7:1 15:1 20:1 37:1 40:1 54:1 63:1 67:1 73:1 75:1 76:1 80:1 83:1 
1 4:1 6:1 14:1 21:1 35:1 40:1 53:1 63:1 67:1 73:1 75:1 76:1 80:1 83:1 
1 4:1 7:1 15:1 22:1 36:1 40:1 51:1 63:1 67:1 73:1 74:1 77:1 82:1 83:1 
1 2:1 6:1 18:1 20:1 37:1 40:1 50:1 63:1 67:1 73:1 74:1 76:1 80:1 83:1 
1 5:1 6:1 17:1 20:1 37:1 40:1 50:1 63:1 67:1 73:1 74:1 76:1 80:1 83:1 
1 3:1 15:1 25:1 38:1 40:1 61:1 67:1 72:1 74:1 76:1 80:1 83:1 
1 4:1 6:1 17:1 22:1 36:1 40:1 50:1 63:1 71:1 73:1 74:1 76:1 80:1 83:1 
1 5:1 6:1 14:1 22:1 36:1 40:1 48:1 63:1 67:1 73:1 74:1 76:1 80:1 83:1 
1 4:1 6:1 16:1 20:1 37:1 40:1 48:1 63:1 67:1 73:1 75:1 76:1 80:1 83:1 
1 2:1 6:1 15:1 19:1 39:1 40:1 51:1 63:1 67:1 73:1 74:1 76:1 80:1 83:1 
1 4:1 6:1 16:1 20:1 37:1 40:1 55:1 61:1 67:1 72:1 74:1 76:1 78:1 87:1 
1 5:1 6:1 15:1 31:1 35:1 40:1 57:1 63:1 67:1 73:1 74:1 77:1 80:1 83:1 
1 4:1 6:1 14:1 24:1 38:1 40:1 48:1 63:1 67:1 73:1 74:1 76:1 80:1 83:1 
1 2:1 10:1 15:1 19:1 39:1 42:1 52:1 64:1 71:1 73:1 75:1 76:1 81:1 
1 4:1 6:1 16:1 26:1 35:1 40:1 55:1 63:1 71:1 73:1 75:1 76:1 80:1 83:1 
1 3:1 6:1 18:1 22:1 36:1 40:1 53:1 63:1 67:1 73:1 74:1 76:1 82:1 83:1 
1 3:1 6:1 15:1 20:1 37:1 40:1 57:1 63:1 67:1 73:1 75:1 76:1 82:1 83:1 
1 4:1 6:1 16:1 19:1 39:1 40:1 50:1 63:1 67:1 73:1 74:1 76:1 82:1 83:1 
1 3:1 10:1 14:1 19:1 39:1 40:1 52:1 63:1 67:1 73:1 74:1 76:1 82:1 83:1 
1 3:1 6:1 17:1 20:1 37:1 40:1 48:1 63:1 67:1 73:1 75:1 76:1 82:1 83:1 
1 2:1 6:1 16:1 22:1 36:1 40:1 47:1 63:1 67:1 73:1 74:1 76:1 82:1 83:1 
1 3:1 18:1 20:1 37:1 40:1 61:1 67:1 72:1 74:1 76:1 78:1 83:1 
1 5:1 7:1 16:1 20:1 37:1 41:1 47:1 64:1 67:1 72:1 74:1 76:1 78:1 83:1 
1 4:1 6:1 15:1 20:1 37:1 40:1 48:1 63:1 67:1 73:1 75:1 76:1 81:1 83:1 
1 5:1 7:1 14:1 25:1 38:1 40:1 57:1 61:1 67:1 72:1 74:1 76:1 78:1 88:1 
1 3:1 6:1 16:1 19:1 39:1 40:1 52:1 63:1 67:1 73:1 74:1 76:1 82:1 83:1 
1 3:1 6:1 15:1 22:1 36:1 40:1 48:1 63:1 67:1 73:1 74:1 77:1 82:1 83:1 
1 5:1 17:1 19:1 39:1 40:1 63:1 67:1 73:1 74:1 76:1 78:1 83:1 
1 2:1 6:1 15:1 19:1 39:1 40:1 52:1 63:1 67:1 73:1 74:1 76:1 80:1 83:1 
1 1:1 6:1 16:1 22:1 36:1 40:1 51:1 63:1 67:1 73:1 75:1 76:1 82:1 83:1 
1 3:1 6:1 15:1 19:1 39:1 42:1 52:1 64:1 67:1 73:1 74:1 76:1 80:1 83:1 
1 2:1 6:1 14:1 19:1 39:1 42:1 50:1 64:1 67:1 73:1 75:1 76:1 80:1 83:1 
1 4:1 6:1 15:1 29:1 39:1 40:1 52:1 63:1 67:1 73:1 74:1 76:1 80:1 83:1 
1 5:1 8:1 17:1 20:1 37:1 40:1 50:1 63:1 67:1 73:1 74:1 76:1 79:1 83:1 
1 4:1 6:1 18:1 27:1 35:1 40:1 48:1 63:1 71:1 73:1 74:1 76:1 82:1 83:1 
1 2:1 6:1 18:1 22:1 36:1 42:1 48:1 66:1 67:1 73:1 75:1 76:1 80:1 83:1 
1 2:1 9:1 15:1 19:1 39:1 40:1 52:1 63:1 67:1 73:1 74:1 76:1 80:1 83:1 
1 2:1 9:1 17:1 19:1 39:1 41:1 59:1 64:1 67:1 73:1 74:1 76:1 82:1 83:1 
1 2:1 6:1 15:1 22:1 36:1 40:1 54:1 63:1 67:1 73:1 74:1 76:1 82:1 105:1 
1 5:1 10:1 17:1 20:1 37:1 41:1 49:1 65:1 67:1 72:1 75:1 76:1 80:1 
1 2:1 6:1 16:1 20:1 37:1 40:1 52:1 63:1 67:1 73:1 74:1 76:1 82:1 83:1 
1 2:1 6:1 16:1 24:1 38:1 40:1 51:1 63:1 67:1 73:1 74:1 77:1 82:1 83:1 
1 5:1 6:1 16:1 22:1 36:1 40:1 53:1 63:1 71:1 73:1 74:1 76:1 78:1 83:1 
1 5:1 9:1 18:1 32:1 39:1 42:1 52:1 64:1 67:1 72:1 74:1 77:1 82:1 83:1 
1 3:1 6:1 16:1 22:1 36:1 41:1 57:1 64:1 67:1 73:1 75:1 76:1 81:1 83:1 
1 4:1 10:1 16:1 21:1 35:1 41:1 50:1 66:1 67:1 73:1 75:1 76:1 82:1 86:1 
1 4:1 11:1 14:1 19:1 39:1 40:1 55:1 63:1 67:1 73:1 74:1 76:1 80:1 83:1 
1 3:1 6:1 16:1 19:1 39:1 41:1 50:1 64:1 67:1 73:1 74:1 77:1 82:1 83:1 
1 5:1 16:1 22:1 36:1 41:1 64:1 67:1 72:1 74:1 76:1 80:1 83:1 
1 2:1 6:1 15:1 19:1 39:1 40:1 51:1 63:1 67:1 73:1 74:1 76:1 82:1 83:1 
1 4:1 6:1 16:1 20:1 37:1 40:1 55:1 63:1 67:1 73:1 74:1 76:1 81:1 83:1 
1 3:1 8:1 17:1 22:1 36:1 40:1 48:1 63:1 67:1 73:1 74:1 76:1 82:1 
1 5:1 6:1 14:1 22:1 36:1 40:1 48:1 63:1 67:1 73:1 74:1 76:1 80:1 83:1 
1 2:1 6:1 15:1 20:1 37:1 40:1 50:1 63:1 67:1 73:1 74:1 76:1 82:1 83:1 
1 5:1 9:1 14:1 20:1 37:1 41:1 52:1 64:1 67:1 73:1 74:1 76:1 82:1 83:1 
1 3:1 6:1 17:1 20:1 37:1 40:1 51:1 63:1 67:1 73:1 74:1 76:1 82:1 83:1 
1 5:1 7:1 18:1 22:1 36:1 40:1 48:1 63:1 67:1 73:1 74:1 76:1 81:1 83:1 
1 4:1 6:1 18:1 20:1 37:1 40:1 57:1 63:1 67:1 73:1 74:1 76:1 82:1 83:1 
1 3:1 6:1 14:1 22:1 36:1 40:1 57:1 63:1 67:1 73:1 75:1 76:1 82:1 83:1 
1 2:1 11:1 16:1 19:1 39:1 40:1 59:1 63:1 67:1 73:1 74:1 77:1 81:1 83:1 
1 4:1 7:1 16:1 23:1 39:1 40:1 52:1 63:1 67:1 73:1 74:1 76:1 79:1 83:1 
1 3:1 6:1 16:1 22:1 36:1 40:1 52:1 63:1 67:1 73:1 74:1 76:1 82:1 83:1 
1 3:1 6:1 16:1 19:1 39:1 40:1 50:1 63:1 67:1 73:1 74:1 76:1 81:1 83:1 
1 5:1 6:1 16:1 20:1 37:1 40:1 55:1 61:1 67:1 72:1 74:1 77:1 79:1 83:1 
1 4:1 6:1 14:1 20:1 37:1 40:1 51:1 61:1 67:1 72:1 74:1 76:1 80:1 83:1 
1 3:1 6:1 14:1 21:1 35:1 42:1 57:1 64:1 67:1 73:1 74:1 76:1 82:1 83:1 
1 4:1 6:1 14:1 19:1 39:1 40:1 51:1 63:1 67:1 73:1 74:1 76:1 80:1 83:1 
1 3:1 6:1 16:1 22:1 36:1 40:1 48:1 63:1 67:1 73:1 74:1 76:1 80:1 83:1 
1 5:1 6:1 14:1 22:1 36:1 40:1 48:1 63:1 68:1 73:1 74:1 77:1 80:1 83:1 
1 4:1 6:1 15:1 22:1 36:1 40:1 51:1 61:1 67:1 72:1 74:1 76:1 79:1 104:1 
1 4:1 6:1 15:1 19:1 39:1 44:1 52:1 64:1 67:1 72:1 75:1 76:1 82:1 83:1 
1 4:1 10:1 16:1 25:1 38:1 40:1 48:1 63:1 67:1 73:1 74:1 76:1 80:1 83:1 
1 3:1 6:1 18:1 22:1 36:1 40:1 48:1 63:1 67:1 73:1 75:1 76:1 80:1 83:1 
1 4:1 6:1 17:1 20:1 37:1 40:1 50:1 63:1 67:1 73:1 74:1 76:1 80:1 83:1 
1 4:1 11:1 16:1 29:1 39:1 41:1 52:1 64:1 67:1 73:1 74:1 76:1 80:1 83:1 
1 2:1 6:1 17:1 20:1 37:1 41:1 48:1 62:1 67:1 73:1 74:1 76:1 80:1 83:1 
1 4:1 9:1 14:1 22:1 36:1 40:1 55:1 63:1 71:1 73:1 74:1 76:1 80:1 83:1 
1 3:1 6:1 17:1 22:1 36:1 40:1 54:1 63:1 67:1 73:1 74:1 76:1 82:1 83:1 
1 3:1 8:1 15:1 22:1 36:1 40:1 48:1 63:1 67:1 73:1 74:1 76:1 80:1 83:1 
1 4:1 6:1 16:1 25:1 38:1 40:1 51:1 63:1 67:1 73:1 74:1 76:1 80:1 83:1 
1 4:1 6:1 16:1 22:1 36:1 40:1 54:1 63:1 67:1 73:1 74:1 76:1 80:1 83:1 
1 4:1 6:1 16:1 19:1 39:1 40:1 50:1 63:1 67:1 73:1 74:1 76:1 82:1 83:1 
1 5:1 8:1 18:1 25:1 38:1 40:1 51:1 63:1 67:1 73:1 74:1 76:1 80:1 83:1 
1 3:1 6:1 16:1 22:1 36:1 40:1 50:1 63:1 67:1 73:1 74:1 76:1 82:1 83:1 
1 4:1 8:1 17:1 20:1 37:1 40:1 51:1 63:1 67:1 73:1 74:1 76:1 82:1 83:1 
1 4:1 6:1 15:1 20:1 37:1 40:1 55:1 63:1 67:1 73:1 74:1 77:1 82:1 83:1 
1 2:1 6:1 14:1 24:1 38:1 40:1 51:1 61:1 67:1 72:1 74:1 76:1 78:1 83:1 
1 5:1 17:1 22:1 36:1 40:1 63:1 67:1 73:1 74:1 76:1 80:1 83:1 
1 4:1 7:1 15:1 29:1 39:1 40:1 48:1 63:1 67:1 73:1 74:1 76:1 82:1 83:1 
1 4:1 6:1 18:1 19:1 39:1 41:1 50:1 64:1 67:1 73:1 75:1 76:1 82:1 83:1 
1 4:1 8:1 15:1 20:1 37:1 40:1 51:1 63:1 67:1 73:1 74:1 76:1 82:1 83:1 
1 2:1 6:1 17:1 22:1 36:1 40:1 48:1 63:1 67:1 73:1 74:1 76:1 80:1 83:1 
1 4:1 8:1 17:1 22:1 36:1 40:1 48:1 63:1 67:1 73:1 74:1 76:1 80:1 83:1 
1 4:1 10:1 15:1 29:1 39:1 40:1 52:1 63:1 67:1 73:1 74:1 76:1 80:1 83:1 
1 5:1 6:1 15:1 20:1 37:1 41:1 57:1 64:1 67:1 73:1 74:1 76:1 80:1 83:1 
1 5:1 10:1 16:1 19:1 39:1 40:1 52:1 63:1 67:1 73:1 74:1 76:1 80:1 83:1 
1 3:1 9:1 18:1 20:1 37:1 40:1 51:1 61:1 71:1 72:1 74:1 76:1 80:1 83:1 
1 5:1 7:1 15:1 19:1 39:1 40:1 50:1 63:1 67:1 73:1 74:1 76:1 78:1 83:1 
1 4:1 7:1 15:1 20:1 37:1 40:1 52:1 63:1 67:1 73:1 74:1 76:1 79:1 83:1 
1 2:1 6:1 18:1 29:1 39:1 40:1 52:1 63:1 67:1 73:1 74:1 76:1 80:1 83:1 
1 5:1 6:1 14:1 22:1 36:1 40:1 50:1 63:1 67:1 73:1 75:1 76:1 82:1 83:1 
1 4:1 6:1 18:1 25:1 38:1 40:1 51:1 63:1 71:1 73:1 74:1 76:1 80:1 83:1 
1 5:1 6:1 16:1 22:1 36:1 40:1 48:1 63:1 67:1 73:1 74:1 76:1 81:1 83:1 
1 3:1 6:1 17:1 32:1 39:1 42:1 52:1 64:1 67:1 72:1 74:1 76:1 82:1 83:1 
1 5:1 6:1 15:1 27:1 35:1 40:1 50:1 63:1 67:1 73:1 74:1 76:1 82:1 83:1 
1 3:1 7:1 14:1 22:1 36:1 40:1 50:1 61:1 67:1 72:1 75:1 76:1 80:1 83:1 
1 5:1 7:1 16:1 22:1 36:1 40:1 56:1 63:1 67:1 73:1 74:1 76:1 82:1 83:1 
1 1:1 7:1 16:1 22:1 36:1 40:1 48:1 63:1 67:1 73:1 75:1 76:1 80:1 83:1 
1 4:1 10:1 17:1 20:1 37:1 40:1 59:1 63:1 67:1 73:1 74:1 76:1 80:1 83:1 
1 4:1 11:1 14:1 29:1 39:1 40:1 51:1 63:1 67:1 73:1 74:1 76:1 81:1 83:1 
1 4:1 8:1 16:1 20:1 37:1 40:1 50:1 63:1 67:1 73:1 74:1 76:1 82:1 83:1 
1 5:1 6:1 14:1 22:1 36:1 40:1 48:1 63:1 67:1 73:1 75:1 76:1 80:1 83:1 
1 4:1 8:1 16:1 22:1 36:1 40:1 55:1 61:1 67:1 72:1 74:1 77:1 80:1 83:1 
1 3:1 6:1 14:1 19:1 39:1 40:1 51:1 63:1 67:1 73:1 74:1 76:1 82:1 83:1 
1 4:1 6:1 17:1 22:1 36:1 40:1 54:1 63:1 67:1 73:1 75:1 76:1 82:1 83:1 
1 5:1 7:1 18:1 20:1 37:1 41:1 56:1 66:1 67:1 72:1 75:1 76:1 78:1 83:1 
1 2:1 6:1 17:1 22:1 36:1 40:1 48:1 63:1 67:1 73:1 74:1 76:1 80:1 83:1 
1 4:1 9:1 16:1 22:1 36:1 40:1 55:1 63:1 67:1 73:1 75:1 76:1 80:1 83:1 
1 4:1 10:1 16:1 20:1 37:1 40:1 53:1 63:1 67:1 73:1 75:1 76:1 80:1 83:1 
1 4:1 7:1 14:1 22:1 36:1 40:1 56:1 63:1 67:1 73:1 75:1 76:1 80:1 83:1 
1 2:1 15:1 22:1 36:1 40:1 61:1 67:1 72:1 74:1 76:1 78:1 83:1 
1 4:1 7:1 14:1 20:1 37:1 40:1 51:1 63:1 67:1 73:1 74:1 76:1 80:1 83:1 
1 1:1 6:1 16:1 22:1 36:1 40:1 50:1 62:1 67:1 73:1 74:1 76:1 78:1 83:1 
1 3:1 6:1 17:1 22:1 36:1 40:1 54:1 63:1 67:1 73:1 74:1 76:1 80:1 95:1 
1 3:1 11:1 18:1 32:1 39:1 40:1 52:1 63:1 68:1 73:1 74:1 76:1 80:1 110:1 
1 5:1 16:1 20:1 37:1 40:1 63:1 67:1 73:1 74:1 76:1 78:1 83:1 
1 4:1 9:1 15:1 19:1 39:1 42:1 51:1 64:1 67:1 73:1 74:1 76:1 80:1 83:1 
1 5:1 7:1 14:1 29:1 39:1 40:1 52:1 63:1 67:1 73:1 74:1 76:1 78:1 
1 4:1 6:1 16:1 31:1 35:1 40:1 54:1 63:1 67:1 73:1 74:1 76:1 80:1 83:1 
1 5:1 9:1 18:1 20:1 37:1 40:1 52:1 63:1 67:1 73:1 74:1 76:1 80:1 83:1 
1 5:1 10:1 16:1 22:1 36:1 40:1 51:1 61:1 71:1 72:1 74:1 76:1 80:1 83:1 
1 5:1 6:1 17:1 19:1 39:1 41:1 51:1 64:1 67:1 73:1 74:1 76:1 80:1 83:1 
1 3:1 6:1 16:1 20:1 37:1 40:1 47:1 63:1 67:1 73:1 74:1 76:1 80:1 83:1 
1 3:1 10:1 17:1 29:1 39:1 40:1 52:1 61:1 67:1 72:1 74:1 76:1 80:1 83:1 
1 5:1 6:1 17:1 20:1 37:1 40:1 50:1 63:1 67:1 73:1 74:1 76:1 80:1 83:1 
1 5:1 6:1 14:1 20:1 37:1 40:1 50:1 63:1 67:1 73:1 74:1 77:1 80:1 83:1 
1 5:1 6:1 14:1 26:1 35:1 40:1 57:1 63:1 67:1 73:1 74:1 76:1 82:1 83:1 
1 5:1 6:1 18:1 22:1 36:1 40:1 59:1 63:1 67:1 73:1 74:1 76:1 79:1 83:1 
1 5:1 6:1 16:1 20:1 37:1 40:1 51:1 63:1 67:1 73:1 74:1 76:1 80:1 83:1 
1 2:1 8:1 17:1 20:1 37:1 40:1 55:1 61:1 67:1 72:1 74:1 76:1 78:1 83:1 
1 3:1 6:1 15:1 19:1 39:1 40:1 51:1 61:1 67:1 72:1 74:1 76:1 78:1 83:1 
1 4:1 7:1 17:1 20:1 37:1 40:1 52:1 63:1 70:1 73:1 74:1 76:1 82:1 83:1 
1 5:1 6:1 18:1 19:1 39:1 40:1 54:1 63:1 67:1 73:1 74:1 76:1 80:1 100:1 
1 4:1 6:1 14:1 20:1 37:1 42:1 48:1 66:1 67:1 73:1 74:1 77:1 82:1 
1 3:1 7:1 16:1 32:1 39:1 42:1 52:1 64:1 67:1 73:1 74:1 76:1 80:1 83:1 
1 5:1 6:1 15:1 24:1 38:1 40:1 59:1 63:1 67:1 73:1 74:1 76:1 80:1 83:1 
1 4:1 10:1 14:1 19:1 39:1 40:1 52:1 63:1 67:1 73:1 74:1 76:1 81:1 83:1 
1 4:1 6:1 16:1 29:1 39:1 41:1 52:1 66:1 67:1 72:1 74:1 76:1 82:1 83:1 
1 3:1 6:1 14:1 27:1 35:1 40:1 54:1 63:1 67:1 73:1 74:1 76:1 80:1 
1 1:1 6:1 16:1 19:1 39:1 40:1 51:1 61:1 67:1 72:1 74:1 76:1 78:1 83:1 
1 2:1 6:1 15:1 29:1 39:1 42:1 52:1 64:1 67:1 73:1 74:1 76:1 81:1 83:1 
1 3:1 6:1 16:1 22:1 36:1 40:1 52:1 63:1 69:1 73:1 74:1 76:1 82:1 83:1 
1 5:1 6:1 15:1 20:1 37:1 40:1 59:1 63:1 71:1 73:1 74:1 76:1 80:1 
1 5:1 6:1 18:1 29:1 39:1 43:1 52:1 64:1 67:1 72:1 74:1 76:1 80:1 83:1 
1 5:1 6:1 16:1 26:1 35:1 41:1 53:1 64:1 67:1 73:1 74:1 76:1 80:1 86:1 
1 3:1 6:1 18:1 19:1 39:1 41:1 47:1 66:1 67:1 73:1 75:1 76:1 80:1 88:1 
1 1:1 7:1 17:1 19:1 39:1 42:1 55:1 62:1 67:1 73:1 74:1 77:1 80:1 83:1 
1 5:1 6:1 16:1 20:1 37:1 40:1 52:1 63:1 67:1 73:1 74:1 76:1 80:1 83:1 
1 5:1 6:1 14:1 29:1 39:1 42:1 51:1 64:1 71:1 73:1 74:1 76:1 82:1 83:1 
1 3:1 6:1 16:1 25:1 38:1 41:1 52:1 66:1 67:1 72:1 74:1 76:1 80:1 83:1 
1 2:1 7:1 17:1 20:1 37:1 40:1 50:1 63:1 71:1 73:1 74:1 76:1 82:1 83:1 
1 3:1 6:1 16:1 20:1 37:1 40:1 50:1 63:1 67:1 73:1 74:1 76:1 81:1 83:1 
1 5:1 6:1 14:1 20:1 37:1 40:1 48:1 63:1 67:1 73:1 74:1 76:1 81:1 83:1 
1 5:1 6:1 18:1 19:1 39:1 41:1 50:1 64:1 67:1 72:1 75:1 76:1 81:1 83:1 
1 5:1 6:1 15:1 20:1 37:1 40:1 49:1 61:1 67:1 72:1 74:1 76:1 80:1 83:1 
1 3:1 6:1 18:1 19:1 39:1 42:1 52:1 64:1 67:1 73:1 74:1 76:1 80:1 83:1 
1 5:1 6:1 16:1 22:1 36:1 40:1 52:1 63:1 67:1 73:1 74:1 76:1 80:1 83:1 
1 3:1 6:1 17:1 20:1 37:1 40:1 55:1 63:1 67:1 73:1 74:1 76:1 80:1 83:1 
1 3:1 6:1 16:1 29:1 39:1 40:1 52:1 63:1 67:1 73:1 74:1 76:1 80:1 83:1 
1 5:1 6:1 17:1 19:1 39:1 40:1 48:1 63:1 67:1 73:1 74:1 76:1 78:1 83:1 
1 5:1 6:1 14:1 20:1 37:1 40:1 47:1 63:1 67:1 73:1 75:1 76:1 78:1 83:1 
1 2:1 6:1 14:1 22:1 36:1 40:1 52:1 63:1 67:1 73:1 74:1 76:1 80:1 83:1 
1 5:1 6:1 15:1 25:1 38:1 40:1 48:1 63:1 67:1 73:1 74:1 76:1 81:1 83:1 
1 5:1 9:1 18:1 29:1 39:1 40:1 55:1 63:1 67:1 73:1 74:1 76:1 80:1 83:1 
1 1:1 6:1 15:1 22:1 36:1 40:1 48:1 63:1 67:1 73:1 74:1 76:1 82:1 83:1 
1 3:1 10:1 17:1 19:1 39:1 42:1 52:1 64:1 67:1 72:1 74:1 76:1 82:1 83:1 
1 3:1 10:1 15:1 19:1 39:1 40:1 52:1 63:1 67:1 73:1 74:1 76:1 79:1 83:1 
1 4:1 6:1 16:1 20:1 37:1 40:1 57:1 63:1 67:1 73:1 74:1 76:1 82:1 83:1 
1 3:1 6:1 16:1 22:1 36:1 40:1 55:1 61:1 67:1 72:1 74:1 76:1 80:1 83:1 
1 3:1 11:1 18:1 29:1 39:1 40:1 52:1 61:1 71:1 72:1 74:1 76:1 80:1 83:1 
1 4:1 11:1 15:1 32:1 39:1 41:1 52:1 64:1 67:1 72:1 75:1 76:1 82:1 83:1 
1 4:1 11:1 16:1 29:1 39:1 40:1 52:1 63:1 67:1 73:1 74:1 76:1 82:1 83:1 
1 3:1 8:1 16:1 24:1 38:1 40:1 51:1 61:1 67:1 72:1 74:1 76:1 80:1 83:1 
1 5:1 8:1 17:1 20:1 37:1 40:1 51:1 63:1 67:1 73:1 74:1 76:1 80:1 83:1 
1 2:1 6:1 18:1 20:1 37:1 40:1 52:1 63:1 68:1 73:1 74:1 76:1 80:1 84:1 
1 5:1 6:1 18:1 22:1 36:1 40:1 50:1 63:1 67:1 73:1 74:1 76:1 80:1 83:1 
1 4:1 6:1 16:1 20:1 37:1 40:1 48:1 63:1 71:1 73:1 75:1 76:1 80:1 83:1 
1 4:1 6:1 18:1 20:1 37:1 40:1 48:1 63:1 67:1 73:1 75:1 76:1 81:1 83:1 
1 5:1 6:1 17:1 19:1 39:1 42:1 51:1 64:1 67:1 73:1 74:1 76:1 82:1 83:1 
1 4:1 6:1 15:1 29:1 39:1 40:1 47:1 63:1 67:1 73:1 74:1 76:1 78:1 83:1 
1 4:1 6:1 16:1 22:1 36:1 40:1 48:1 63:1 67:1 73:1 74:1 76:1 80:1 83:1 
1 3:1 6:1 16:1 20:1 37:1 40:1 51:1 63:1 67:1 73:1 74:1 76:1 82:1 83:1 
1 2:1 6:1 15:1 19:1 39:1 40:1 51:1 63:1 67:1 73:1 74:1 76:1 81:1 83:1 
1 2:1 6:1 16:1 29:1 39:1 40:1 52:1 63:1 67:1 73:1 74:1 76:1 80:1 83:1 
1 5:1 6:1 18:1 22:1 36:1 40:1 48:1 63:1 67:1 73:1 74:1 76:1 81:1 83:1 
1 2:1 6:1 16:1 19:1 39:1 42:1 50:1 64:1 67:1 73:1 74:1 76:1 82:1 83:1 
1 4:1 6:1 18:1 22:1 36:1 40:1 47:1 63:1 67:1 73:1 74:1 76:1 81:1 83:1 
1 3:1 10:1 16:1 19:1 39:1 40:1 51:1 63:1 67:1 73:1 74:1 76:1 82:1 83:1 
1 3:1 8:1 15:1 22:1 36:1 40:1 51:1 63:1 67:1 73:1 74:1 76:1 80:1 83:1 
1 3:1 10:1 18:1 25:1 38:1 40:1 59:1 63:1 67:1 73:1 74:1 76:1 82:1 83:1 
1 4:1 6:1 16:1 22:1 36:1 40:1 50:1 62:1 67:1 72:1 74:1 76:1 79:1 83:1 
1 5:1 11:1 14:1 32:1 39:1 40:1 55:1 63:1 67:1 73:1 74:1 76:1 82:1 83:1 
1 3:1 6:1 17:1 29:1 39:1 42:1 48:1 64:1 67:1 73:1 74:1 76:1 82:1 83:1 
1 4:1 8:1 16:1 20:1 37:1 40:1 57:1 63:1 67:1 73:1 74:1 76:1 82:1 83:1 
1 1:1 6:1 17:1 24:1 38:1 40:1 55:1 61:1 69:1 72:1 74:1 76:1 81:1 83:1 
1 5:1 7:1 14:1 19:1 39:1 40:1 51:1 63:1 67:1 73:1 74:1 76:1 80:1 83:1 
1 2:1 6:1 15:1 20:1 37:1 40:1 56:1 63:1 67:1 73:1 74:1 76:1 82:1 83:1 
1 3:1 6:1 17:1 22:1 36:1 40:1 47:1 63:1 67:1 73:1 74:1 76:1 82:1 83:1 
1 2:1 7:1 16:1 19:1 39:1 40:1 52:1 63:1 67:1 73:1 74:1 76:1 82:1 83:1 
1 5:1 6:1 15:1 20:1 37:1 42:1 48:1 64:1 67:1 72:1 75:1 76:1 79:1 83:1 
1 3:1 6:1 18:1 20:1 37:1 40:1 48:1 63:1 67:1 73:1 74:1 76:1 81:1 83:1 
1 5:1 6:1 16:1 22:1 36:1 40:1 54:1 63:1 67:1 73:1 74:1 76:1 80:1 83:1 
1 5:1 10:1 17:1 22:1 36:1 41:1 48:1 64:1 70:1 73:1 74:1 76:1 80:1 
1 5:1 6:1 14:1 22:1 36:1 40:1 57:1 63:1 67:1 73:1 74:1 76:1 82:1 83:1 
1 5:1 6:1 18:1 32:1 39:1 42:1 52:1 64:1 67:1 73:1 74:1 76:1 80:1 83:1 
1 2:1 6:1 17:1 22:1 36:1 40:1 48:1 63:1 67:1 73:1 74:1 77:1 82:1 83:1 
1 2:1 6:1 17:1 20:1 37:1 42:1 50:1 64:1 67:1 73:1 74:1 76:1 82:1 83:1 
1 3:1 6:1 17:1 20:1 37:1 41:1 55:1 62:1 67:1 72:1 74:1 76:1 81:1 83:1 
1 4:1 6:1 14:1 22:1 36:1 40:1 55:1 61:1 67:1 72:1 74:1 76:1 80:1 83:1 
1 4:1 6:1 16:1 25:1 38:1 40:1 47:1 63:1 67:1 73:1 74:1 76:1 80:1 83:1 
1 2:1 10:1 18:1 20:1 37:1 40:1 59:1 63:1 67:1 73:1 75:1 76:1 82:1 83:1 
1 3:1 6:1 18:1 22:1 36:1 40:1 48:1 63:1 67:1 73:1 74:1 76:1 80:1 83:1 
1 4:1 7:1 15:1 23:1 39:1 40:1 52:1 63:1 67:1 73:1 74:1 76:1 78:1 83:1 
1 4:1 6:1 14:1 20:1 37:1 40:1 55:1 63:1 67:1 73:1 74:1 76:1 81:1 83:1 
1 4:1 6:1 16:1 22:1 36:1 40:1 55:1 63:1 67:1 73:1 74:1 76:1 80:1 83:1 
1 4:1 11:1 14:1 20:1 37:1 40:1 48:1 63:1 67:1 73:1 74:1 76:1 80:1 83:1 
1 3:1 7:1 16:1 23:1 39:1 42:1 52:1 64:1 67:1 73:1 74:1 77:1 81:1 83:1 
1 1:1 6:1 18:1 19:1 39:1 40:1 50:1 63:1 67:1 73:1 74:1 76:1 81:1 83:1 
1 4:1 6:1 18:1 29:1 39:1 41:1 57:1 64:1 67:1 73:1 75:1 76:1 82:1 83:1 
1 4:1 6:1 17:1 20:1 37:1 40:1 51:1 63:1 67:1 73:1 74:1 76:1 82:1 83:1 
1 4:1 6:1 16:1 22:1 36:1 41:1 51:1 66:1 71:1 72:1 74:1 76:1 80:1 83:1 
1 5:1 6:1 16:1 22:1 36:1 40:1 53:1 63:1 67:1 73:1 74:1 76:1 80:1 83:1 
1 5:1 6:1 14:1 25:1 38:1 40:1 57:1 63:1 67:1 73:1 75:1 76:1 82:1 83:1 
1 5:1 7:1 14:1 29:1 39:1 40:1 52:1 63:1 67:1 73:1 74:1 76:1 80:1 83:1 
1 5:1 6:1 15:1 20:1 37:1 40:1 48:1 63:1 67:1 73:1 74:1 76:1 80:1 83:1 
1 3:1 6:1 17:1 22:1 36:1 40:1 48:1 63:1 67:1 73:1 74:1 76:1 80:1 83:1 
1 4:1 10:1 17:1 22:1 36:1 40:1 51:1 63:1 67:1 73:1 74:1 76:1 80:1 83:1 
1 5:1 6:1 16:1 22:1 36:1 40:1 59:1 63:1 67:1 73:1 74:1 76:1 80:1 83:1 
1 4:1 9:1 14:1 19:1 39:1 40:1 55:1 63:1 67:1 73:1 74:1 76:1 81:1 88:1 
1 4:1 8:1 18:1 25:1 38:1 40:1 51:1 63:1 67:1 73:1 74:1 76:1 82:1 83:1 
1 5:1 6:1 18:1 25:1 38:1 40:1 51:1 63:1 67:1 73:1 74:1 76:1 80:1 83:1 
1 3:1 6:1 17:1 29:1 39:1 40:1 50:1 63:1 67:1 73:1 74:1 76:1 80:1 83:1 
1 5:1 6:1 15:1 24:1 38:1 40:1 54:1 63:1 67:1 73:1 74:1 76:1 80:1 83:1 
1 4:1 6:1 16:1 19:1 39:1 40:1 51:1 63:1 67:1 73:1 74:1 76:1 79:1 83:1 
1 4:1 6:1 14:1 29:1 39:1 40:1 52:1 63:1 67:1 73:1 74:1 76:1 79:1 83:1 
1 4:1 6:1 14:1 19:1 39:1 40:1 51:1 63:1 67:1 73:1 74:1 76:1 82:1 92:1 
1 5:1 7:1 16:1 19:1 39:1 40:1 51:1 63:1 67:1 73:1 74:1 76:1 78:1 83:1 
1 2:1 6:1 18:1 24:1 38:1 40:1 48:1 63:1 67:1 73:1 74:1 76:1 80:1 83:1 
1 1:1 6:1 16:1 19:1 39:1 40:1 48:1 63:1 67:1 73:1 74:1 76:1 82:1 83:1 
1 3:1 11:1 16:1 19:1 39:1 40:1 52:1 63:1 67:1 73:1 74:1 76:1 79:1 83:1 
1 4:1 7:1 15:1 20:1 37:1 40:1 54:1 63:1 67:1 73:1 75:1 76:1 80:1 83:1 
1 3:1 7:1 16:1 29:1 39:1 42:1 50:1 64:1 67:1 73:1 75:1 76:1 81:1 83:1 
1 3:1 6:1 15:1 19:1 39:1 40:1 52:1 61:1 67:1 72:1 74:1 76:1 78:1 83:1 
1 3:1 9:1 16:1 19:1 39:1 40:1 55:1 63:1 67:1 73:1 74:1 76:1 81:1 83:1 
1 5:1 7:1 15:1 22:1 36:1 41:1 48:1 66:1 67:1 73:1 75:1 76:1 82:1 83:1 
1 3:1 6:1 16:1 22:1 36:1 40:1 48:1 63:1 67:1 73:1 74:1 76:1 80:1 83:1 
1 5:1 6:1 18:1 22:1 36:1 41:1 54:1 64:1 67:1 72:1 74:1 76:1 80:1 83:1 
1 5:1 7:1 18:1 20:1 37:1 40:1 47:1 63:1 67:1 73:1 74:1 76:1 79:1 83:1 
1 4:1 7:1 15:1 19:1 39:1 40:1 50:1 63:1 67:1 73:1 74:1 76:1 82:1 83:1 
1 4:1 6:1 14:1 20:1 37:1 40:1 52:1 61:1 67:1 72:1 74:1 76:1 78:1 83:1 
1 5:1 6:1 17:1 20:1 37:1 45:1 55:1 64:1 67:1 72:1 75:1 76:1 78:1 83:1 
1 5:1 6:1 16:1 20:1 37:1 44:1 50:1 64:1 67:1 73:1 74:1 76:1 79:1 83:1 
1 5:1 6:1 15:1 20:1 37:1 41:1 48:1 64:1 67:1 73:1 74:1 76:1 82:1 83:1 
1 3:1 6:1 16:1 22:1 36:1 40:1 49:1 61:1 67:1 72:1 74:1 76:1 78:1 83:1 
1 3:1 6:1 17:1 19:1 39:1 40:1 52:1 63:1 67:1 73:1 74:1 76:1 82:1 83:1 
1 3:1 6:1 18:1 19:1 39:1 42:1 52:1 64:1 67:1 73:1 74:1 76:1 82:1 83:1 
1 3:1 6:1 18:1 19:1 39:1 40:1 52:1 61:1 67:1 72:1 74:1 76:1 79:1 83:1 
1 4:1 6:1 15:1 20:1 37:1 40:1 54:1 61:1 67:1 72:1 74:1 76:1 79:1 83:1 
1 4:1 6:1 17:1 19:1 39:1 42:1 52:1 64:1 67:1 73:1 74:1 76:1 80:1 83:1 
1 2:1 15:1 32:1 39:1 40:1 63:1 67:1 73:1 74:1 76:1 82:1 83:1 
1 3:1 8:1 15:1 31:1 35:1 42:1 57:1 64:1 67:1 73:1 74:1 77:1 82:1 83:1 
1 5:1 6:1 15:1 22:1 36:1 40:1 51:1 63:1 67:1 73:1 74:1 76:1 82:1 83:1 
1 1:1 6:1 17:1 22:1 36:1 40:1 48:1 63:1 67:1 73:1 74:1 76:1 82:1 103:1 
1 4:1 6:1 16:1 19:1 39:1 40:1 51:1 63:1 67:1 73:1 74:1 76:1 80:1 
1 5:1 6:1 14:1 19:1 39:1 41:1 51:1 66:1 67:1 73:1 74:1 76:1 81:1 83:1 
1 3:1 6:1 16:1 19:1 39:1 40:1 50:1 61:1 67:1 72:1 74:1 76:1 78:1 83:1 
1 5:1 6:1 16:1 22:1 36:1 40:1 50:1 63:1 67:1 73:1 75:1 76:1 80:1 83:1 
1 3:1 7:1 15:1 22:1 36:1 40:1 50:1 63:1 67:1 73:1 74:1 76:1 82:1 83:1 
1 5:1 7:1 16:1 31:1 35:1 41:1 51:1 62:1 67:1 73:1 74:1 76:1 82:1 83:1 
1 5:1 6:1 16:1 22:1 36:1 40:1 51:1 63:1 67:1 73:1 74:1 76:1 82:1 83:1 
1 2:1 6:1 17:1 22:1 36:1 40:1 52:1 63:1 67:1 73:1 74:1 76:1 80:1 83:1 
1 5:1 7:1 15:1 22:1 36:1 40:1 50:1 63:1 67:1 73:1 74:1 76:1 82:1 83:1 
1 3:1 6:1 14:1 24:1 38:1 42:1 55:1 64:1 68:1 72:1 75:1 76:1 82:1 83:1 
1 5:1 7:1 18:1 19:1 39:1 42:1 51:1 64:1 67:1 73:1 75:1 76:1 78:1 83:1 
1 3:1 6:1 16:1 22:1 36:1 40:1 57:1 63:1 67:1 73:1 74:1 76:1 80:1 83:1 
1 4:1 8:1 15:1 22:1 36:1 40:1 50:1 63:1 67:1 73:1 74:1 76:1 82:1 83:1 
1 5:1 7:1 18:1 22:1 36:1 40:1 48:1 63:1 67:1 73:1 74:1 76:1 82:1 83:1 
1 2:1 6:1 18:1 22:1 36:1 40:1 57:1 63:1 67:1 73:1 74:1 76:1 82:1 83:1 
1 1:1 10:1 14:1 19:1 39:1 40:1 52:1 63:1 67:1 73:1 74:1 77:1 80:1 83:1 
1 3:1 6:1 16:1 22:1 36:1 40:1 51:1 63:1 67:1 73:1 74:1 76:1 80:1 83:1 
1 3:1 6:1 14:1 29:1 39:1 40:1 51:1 63:1 67:1 73:1 74:1 76:1 80:1 83:1 
1 4:1 6:1 14:1 22:1 36:1 40:1 48:1 63:1 67:1 73:1 74:1 76:1 80:1 83:1 
1 3:1 10:1 14:1 20:1 37:1 40:1 59:1 63:1 67:1 73:1 74:1 76:1 80:1 83:1 
1 5:1 6:1 17:1 20:1 37:1 40:1 51:1 63:1 67:1 73:1 74:1 76:1 80:1 83:1 
1 4:1 8:1 15:1 22:1 36:1 40:1 48:1 63:1 67:1 73:1 74:1 76:1 82:1 83:1 
1 2:1 6:1 18:1 19:1 39:1 40:1 51:1 63:1 71:1 73:1 74:1 76:1 80:1 85:1 
1 3:1 6:1 17:1 25:1 38:1 40:1 50:1 63:1 67:1 73:1 74:1 76:1 82:1 83:1 
1 2:1 10:1 16:1 29:1 39:1 40:1 52:1 61:1 67:1 72:1 74:1 76:1 78:1 83:1 
1 5:1 7:1 17:1 20:1 37:1 40:1 51:1 63:1 67:1 73:1 74:1 76:1 82:1 83:1 
1 3:1 8:1 16:1 24:1 38:1 40:1 51:1 63:1 67:1 73:1 74:1 76:1 82:1 83:1 
1 4:1 7:1 17:1 27:1 35:1 40:1 51:1 63:1 67:1 73:1 74:1 76:1 82:1 83:1 
1 3:1 6:1 17:1 19:1 39:1 40:1 50:1 63:1 67:1 73:1 74:1 76:1 80:1 83:1 
1 5:1 6:1 16:1 22:1 36:1 40:1 48:1 63:1 67:1 73:1 74:1 76:1 80:1 83:1 
1 5:1 11:1 14:1 22:1 36:1 40:1 59:1 63:1 69:1 73:1 74:1 76:1 80:1 83:1 
1 4:1 6:1 16:1 19:1 39:1 40:1 49:1 61:1 67:1 72:1 74:1 76:1 79:1 
1 3:1 6:1 17:1 20:1 37:1 40:1 55:1 61:1 67:1 72:1 74:1 76:1 79:1 83:1 
1 4:1 6:1 17:1 20:1 37:1 40:1 47:1 63:1 67:1 73:1 74:1 76:1 78:1 83:1 
1 4:1 6:1 16:1 22:1 36:1 40:1 51:1 61:1 67:1 72:1 74:1 76:1 80:1 83:1 
1 2:1 6:1 17:1 20:1 37:1 41:1 51:1 64:1 67:1 72:1 74:1 76:1 82:1 83:1 
1 3:1 7:1 18:1 19:1 39:1 40:1 52:1 63:1 67:1 73:1 74:1 76:1 80:1 83:1 
1 3:1 6:1 15:1 29:1 39:1 40:1 51:1 63:1 67:1 73:1 74:1 76:1 80:1 83:1 
1 4:1 6:1 18:1 20:1 37:1 40:1 47:1 63:1 71:1 73:1 74:1 76:1 80:1 101:1 
1 3:1 7:1 18:1 22:1 36:1 40:1 56:1 63:1 67:1 73:1 74:1 77:1 82:1 83:1 
0.15553086520435788 4:1 6:1 15:1 19:1 39:1 40:1 52:1 63:1 67:1 73:1 74:1 76:1 82:1 83:1 
1 5:1 10:1 14:1 29:1 39:1 40:1 52:1 61:1 67:1 72:1 74:1 76:1 80:1 83:1 
1 4:1 8:1 18:1 22:1 36:1 40:1 48:1 63:1 67:1 73:1 74:1 76:1 82:1 83:1 
1 4:1 6:1 16:1 19:1 39:1 40:1 48:1 63:1 67:1 73:1 74:1 76:1 80:1 83:1 
1 3:1 6:1 14:1 22:1 36:1 40:1 48:1 63:1 67:1 73:1 74:1 76:1 80:1 83:1 
1 3:1 7:1 14:1 22:1 36:1 40:1 50:1 63:1 67:1 73:1 74:1 77:1 82:1 83:1 
1 5:1 6:1 14:1 22:1 36:1 40:1 55:1 63:1 67:1 73:1 75:1 76:1 81:1 83:1 
1 4:1 6:1 14:1 29:1 39:1 40:1 52:1 63:1 67:1 73:1 74:1 76:1 80:1 83:1 
1 5:1 6:1 18:1 20:1 37:1 40:1 50:1 63:1 67:1 73:1 74:1 77:1 82:1 83:1 
1 4:1 6:1 14:1 19:1 39:1 40:1 47:1 61:1 67:1 72:1 74:1 76:1 78:1 83:1 
1 5:1 6:1 18:1 19:1 39:1 41:1 51:1 64:1 67:1 73:1 74:1 76:1 82:1 83:1 
1 3:1 6:1 15:1 29:1 39:1 40:1 50:1 63:1 67:1 73:1 74:1 76:1 82:1 83:1 
1 4:1 6:1 14:1 24:1 38:1 40:1 52:1 63:1 67:1 73:1 74:1 76:1 82:1 83:1 
1 5:1 6:1 14:1 20:1 37:1 40:1 48:1 63:1 67:1 73:1 74:1 76:1 80:1 83:1 
1 3:1 6:1 17:1 20:1 37:1 40:1 51:1 61:1 67:1 72:1 74:1 76:1 79:1 86:1 
1 5:1 6:1 15:1 19:1 39:1 40:1 52:1 63:1 67:1 73:1 74:1 76:1 80:1 83:1 
1 3:1 6:1 18:1 19:1 39:1 41:1 52:1 64:1 67:1 73:1 75:1 76:1 80:1 83:1 
1 4:1 6:1 18:1 22:1 36:1 40:1 57:1 63:1 67:1 73:1 74:1 77:1 82:1 87:1 
1 4:1 9:1 14:1 22:1 36:1 40:1 55:1 63:1 67:1 73:1 74:1 76:1 80:1 88:1 
1 4:1 9:1 18:1 24:1 38:1 40:1 48:1 63:1 67:1 73:1 74:1 76:1 80:1 83:1 
1 5:1 11:1 15:1 32:1 39:1 40:1 52:1 63:1 71:1 73:1 74:1 76:1 78:1 83:1 
1 5:1 6:1 16:1 20:1 37:1 40:1 57:1 63:1 67:1 73:1 74:1 76:1 80:1 83:1 
1 4:1 7:1 16:1 22:1 36:1 40:1 56:1 63:1 67:1 73:1 75:1 76:1 82:1 83:1 
1 5:1 6:1 17:1 19:1 39:1 41:1 55:1 64:1 67:1 73:1 74:1 76:1 80:1 83:1 
1 5:1 8:1 16:1 20:1 37:1 40:1 51:1 63:1 67:1 73:1 74:1 76:1 82:1 83:1 
1 3:1 6:1 14:1 20:1 37:1 40:1 52:1 63:1 67:1 73:1 74:1 76:1 80:1 83:1 
1 4:1 11:1 14:1 19:1 39:1 40:1 52:1 61:1 69:1 72:1 74:1 76:1 82:1 83:1 
1 3:1 11:1 17:1 20:1 37:1 43:1 52:1 64:1 67:1 73:1 75:1 76:1 80:1 83:1 
1 3:1 6:1 14:1 22:1 36:1 40:1 50:1 63:1 67:1 73:1 74:1 76:1 82:1 83:1 
1 3:1 6:1 18:1 19:1 39:1 40:1 52:1 63:1 67:1 73:1 74:1 76:1 81:1 83:1 
1 4:1 9:1 18:1 20:1 37:1 40:1 51:1 63:1 67:1 73:1 74:1 76:1 80:1 83:1 
1 5:1 6:1 15:1 22:1 36:1 44:1 55:1 64:1 67:1 72:1 75:1 76:1 80:1 83:1 
1 3:1 6:1 15:1 22:1 36:1 40:1 51:1 61:1 67:1 72:1 74:1 76:1 79:1 83:1 
1 3:1 6:1 14:1 19:1 39:1 42:1 50:1 64:1 67:1 73:1 75:1 76:1 80:1 83:1 
1 4:1 6:1 15:1 20:1 37:1 40:1 50:1 63:1 67:1 73:1 74:1 76:1 78:1 83:1 
1 5:1 6:1 18:1 22:1 36:1 40:1 51:1 61:1 67:1 72:1 74:1 76:1 78:1 83:1 
1 5:1 6:1 16:1 29:1 39:1 40:1 52:1 63:1 67:1 73:1 74:1 76:1 80:1 83:1 
1 5:1 6:1 17:1 22:1 36:1 40:1 57:1 63:1 67:1 73:1 74:1 77:1 82:1 83:1 
1 3:1 6:1 16:1 31:1 35:1 42:1 52:1 64:1 67:1 73:1 74:1 77:1 82:1 83:1 
1 3:1 7:1 14:1 19:1 39:1 40:1 52:1 63:1 67:1 73:1 74:1 76:1 82:1 83:1 
1 4:1 6:1 16:1 20:1 37:1 40:1 51:1 63:1 67:1 73:1 74:1 76:1 82:1 83:1 
1 5:1 9:1 14:1 22:1 36:1 40:1 52:1 63:1 67:1 73:1 74:1 76:1 80:1 83:1 
1 5:1 8:1 17:1 33:1 35:1 40:1 50:1 63:1 67:1 73:1 74:1 76:1 80:1 103:1 
1 2:1 6:1 15:1 19:1 39:1 40:1 52:1 63:1 67:1 73:1 74:1 76:1 80:1 83:1 
1 3:1 6:1 18:1 19:1 39:1 40:1 48:1 63:1 67:1 73:1 74:1 76:1 81:1 83:1 
1 3:1 7:1 16:1 19:1 39:1 42:1 59:1 64:1 67:1 73:1 74:1 76:1 82:1 83:1 
1 2:1 6:1 18:1 19:1 39:1 40:1 50:1 63:1 67:1 73:1 74:1 76:1 80:1 83:1 
1 5:1 7:1 16:1 29:1 39:1 41:1 51:1 66:1 67:1 73:1 75:1 76:1 82:1 83:1 
0.914651673836825 4:1 8:1 18:1 29:1 39:1 41:1 52:1 66:1 67:1 73:1 75:1 76:1 82:1 103:1 
1 5:1 7:1 15:1 19:1 39:1 40:1 52:1 63:1 67:1 73:1 74:1 76:1 80:1 83:1 
1 3:1 6:1 18:1 22:1 36:1 40:1 50:1 63:1 67:1 73:1 74:1 76:1 80:1 83:1 
1 3:1 6:1 16:1 29:1 39:1 42:1 52:1 64:1 67:1 73:1 75:1 76:1 82:1 
1 1:1 6:1 16:1 25:1 38:1 42:1 50:1 64:1 67:1 73:1 75:1 76:1 80:1 83:1 
1 2:1 6:1 16:1 19:1 39:1 40:1 48:1 63:1 67:1 73:1 74:1 76:1 81:1 83:1 
1 2:1 10:1 16:1 24:1 38:1 40:1 59:1 63:1 67:1 73:1 74:1 76:1 81:1 83:1 
1 4:1 6:1 17:1 20:1 37:1 44:1 50:1 66:1 67:1 73:1 74:1 76:1 82:1 83:1 
1 2:1 11:1 16:1 29:1 39:1 40:1 51:1 63:1 67:1 73:1 74:1 76:1 82:1 83:1 
1 3:1 6:1 15:1 31:1 35:1 40:1 48:1 63:1 67:1 73:1 74:1 76:1 81:1 83:1 
1 2:1 6:1 16:1 19:1 39:1 40:1 52:1 63:1 67:1 73:1 74:1 76:1 82:1 83:1 
1 4:1 6:1 15:1 22:1 36:1 40:1 57:1 63:1 67:1 73:1 74:1 76:1 82:1 83:1 
1 5:1 6:1 17:1 25:1 38:1 40:1 47:1 63:1 67:1 73:1 74:1 76:1 80:1 83:1 
1 4:1 6:1 15:1 20:1 37:1 40:1 47:1 63:1 67:1 73:1 74:1 76:1 80:1 83:1 
1 3:1 6:1 17:1 19:1 39:1 40:1 50:1 63:1 67:1 73:1 74:1 76:1 82:1 83:1 
1 1:1 6:1 14:1 20:1 37:1 43:1 49:1 64:1 67:1 73:1 74:1 77:1 80:1 83:1 
1 5:1 7:1 14:1 27:1 35:1 45:1 55:1 64:1 67:1 73:1 74:1 76:1 78:1 99:1 
1 4:1 8:1 16:1 29:1 39:1 41:1 50:1 66:1 67:1 72:1 75:1 76:1 81:1 83:1 
1 4:1 6:1 18:1 22:1 36:1 40:1 54:1 63:1 71:1 73:1 75:1 76:1 80:1 83:1 
1 3:1 6:1 15:1 20:1 37:1 40:1 50:1 63:1 67:1 73:1 74:1 76:1 82:1 83:1 
1 4:1 6:1 17:1 22:1 36:1 40:1 48:1 63:1 67:1 73:1 74:1 76:1 80:1 99:1 
1 3:1 6:1 16:1 19:1 39:1 40:1 47:1 63:1 67:1 73:1 74:1 76:1 80:1 83:1 
1 5:1 8:1 18:1 20:1 37:1 40:1 51:1 63:1 67:1 73:1 74:1 76:1 78:1 83:1 
1 3:1 6:1 17:1 19:1 39:1 40:1 52:1 63:1 67:1 73:1 74:1 76:1 80:1 83:1 
1 4:1 9:1 14:1 32:1 39:1 42:1 52:1 64:1 67:1 72:1 74:1 77:1 82:1 83:1 
1 5:1 11:1 18:1 29:1 39:1 42:1 55:1 64:1 67:1 73:1 74:1 76:1 82:1 83:1 
1 3:1 6:1 18:1 25:1 38:1 40:1 48:1 63:1 67:1 73:1 74:1 76:1 78:1 83:1 
1 2:1 6:1 16:1 22:1 36:1 40:1 54:1 63:1 67:1 73:1 74:1 76:1 80:1 83:1 
1 3:1 6:1 18:1 20:1 37:1 40:1 48:1 63:1 71:1 73:1 74:1 76:1 82:1 101:1 
1 4:1 10:1 18:1 22:1 36:1 40:1 49:1 63:1 67:1 73:1 75:1 76:1 80:1 83:1 
1 4:1 6:1 15:1 19:1 39:1 40:1 50:1 63:1 67:1 73:1 74:1 76:1 80:1 83:1 
1 5:1 9:1 18:1 22:1 36:1 40:1 48:1 63:1 67:1 73:1 75:1 76:1 80:1 83:1 
1 3:1 10:1 16:1 22:1 36:1 40:1 59:1 63:1 67:1 73:1 74:1 77:1 80:1 83:1 
1 3:1 6:1 16:1 22:1 36:1 40:1 51:1 63:1 67:1 73:1 74:1 76:1 81:1 83:1 
1 4:1 6:1 15:1 19:1 39:1 40:1 47:1 61:1 67:1 72:1 74:1 76:1 78:1 83:1 
1 4:1 6:1 18:1 22:1 36:1 40:1 51:1 61:1 67:1 72:1 74:1 76:1 80:1 83:1 
1 3:1 6:1 15:1 22:1 36:1 40:1 49:1 63:1 67:1 73:1 74:1 76:1 82:1 83:1 
1 5:1 6:1 14:1 22:1 36:1 40:1 48:1 63:1 67:1 73:1 74:1 76:1 80:1 83:1 
1 3:1 10:1 14:1 19:1 39:1 40:1 52:1 63:1 67:1 73:1 74:1 76:1 80:1 83:1 
1 4:1 6:1 17:1 19:1 39:1 41:1 50:1 66:1 67:1 73:1 74:1 76:1 80:1 83:1 
1 5:1 8:1 15:1 22:1 36:1 40:1 51:1 61:1 67:1 72:1 74:1 76:1 78:1 83:1 
1 2:1 6:1 18:1 23:1 39:1 41:1 52:1 64:1 67:1 73:1 75:1 76:1 82:1 83:1 
1 2:1 6:1 15:1 25:1 38:1 40:1 48:1 63:1 67:1 73:1 74:1 76:1 82:1 83:1 
1 4:1 11:1 15:1 29:1 39:1 40:1 52:1 63:1 67:1 73:1 74:1 76:1 80:1 83:1 
1 5:1 7:1 15:1 19:1 39:1 44:1 52:1 66:1 67:1 73:1 74:1 76:1 82:1 83:1 
1 4:1 7:1 15:1 19:1 39:1 40:1 50:1 63:1 67:1 73:1 74:1 76:1 80:1 83:1 
0.71530971057591519 4:1 6:1 14:1 29:1 39:1 40:1 52:1 63:1 67:1 73:1 74:1 76:1 81:1 83:1 
1 3:1 6:1 17:1 22:1 36:1 40:1 48:1 63:1 67:1 73:1 74:1 76:1 81:1 83:1 
1 2:1 6:1 14:1 20:1 37:1 40:1 48:1 63:1 67:1 73:1 74:1 76:1 82:1 88:1 
1 4:1 10:1 17:1 20:1 37:1 40:1 48:1 63:1 67:1 73:1 74:1 76:1 80:1 83:1 
1 2:1 6:1 15:1 19:1 39:1 40:1 50:1 63:1 67:1 73:1 74:1 76:1 80:1 83:1 
1 4:1 9:1 16:1 24:1 38:1 40:1 55:1 63:1 67:1 73:1 74:1 76:1 80:1 83:1 
1 4:1 6:1 17:1 20:1 37:1 40:1 50:1 61:1 67:1 72:1 74:1 76:1 80:1 83:1 
1 3:1 7:1 17:1 22:1 36:1 40:1 52:1 63:1 67:1 73:1 74:1 76:1 82:1 83:1 
1 5:1 7:1 18:1 22:1 36:1 40:1 51:1 63:1 67:1 73:1 74:1 77:1 82:1 83:1 
1 5:1 6:1 18:1 20:1 37:1 40:1 51:1 61:1 67:1 72:1 74:1 76:1 80:1 83:1 
1 4:1 10:1 18:1 19:1 39:1 42:1 52:1 64:1 67:1 72:1 74:1 76:1 82:1 83:1 
1 3:1 6:1 15:1 19:1 39:1 40:1 50:1 63:1 67:1 73:1 74:1 76:1 82:1 83:1 
1 2:1 6:1 17:1 29:1 39:1 40:1 52:1 63:1 67:1 73:1 74:1 76:1 81:1 83:1 
1 5:1 15:1 20:1 37:1 40:1 63:1 67:1 73:1 74:1 76:1 79:1 83:1 
1 3:1 9:1 18:1 29:1 39:1 40:1 52:1 63:1 67:1 73:1 74:1 76:1 80:1 
1 1:1 10:1 17:1 20:1 37:1 40:1 59:1 63:1 67:1 73:1 74:1 76:1 82:1 83:1 
1 4:1 6:1 14:1 20:1 37:1 40:1 48:1 63:1 67:1 73:1 74:1 76:1 80:1 83:1 
1 5:1 14:1 25:1 38:1 40:1 63:1 67:1 73:1 74:1 76:1 82:1 83:1 
1 2:1 6:1 16:1 19:1 39:1 42:1 47:1 64:1 67:1 72:1 74:1 76:1 80:1 83:1 
1 4:1 10:1 16:1 29:1 39:1 40:1 52:1 63:1 67:1 73:1 74:1 76:1 80:1 83:1 
1 3:1 6:1 15:1 22:1 36:1 40:1 57:1 63:1 67:1 73:1 75:1 76:1 82:1 83:1 
1 5:1 6:1 15:1 22:1 36:1 40:1 59:1 63:1 67:1 73:1 74:1 76:1 80:1 83:1 
1 5:1 7:1 17:1 20:1 37:1 40:1 54:1 63:1 67:1 73:1 75:1 76:1 80:1 83:1 
1 3:1 6:1 15:1 19:1 39:1 40:1 50:1 63:1 67:1 73:1 74:1 76:1 80:1 83:1 
1 4:1 6:1 18:1 23:1 39:1 42:1 52:1 64:1 67:1 73:1 74:1 76:1 80:1 83:1 
1 5:1 16:1 22:1 36:1 40:1 63:1 67:1 73:1 74:1 77:1 80:1 83:1 
1 4:1 8:1 14:1 20:1 37:1 40:1 51:1 63:1 67:1 73:1 74:1 76:1 82:1 83:1 
1 5:1 15:1 20:1 37:1 41:1 64:1 67:1 72:1 74:1 76:1 80:1 83:1 
1 4:1 10:1 15:1 29:1 39:1 40:1 52:1 63:1 67:1 73:1 74:1 76:1 79:1 83:1 
1 4:1 9:1 18:1 24:1 38:1 40:1 55:1 63:1 71:1 73:1 74:1 76:1 80:1 83:1 
1 2:1 6:1 15:1 22:1 36:1 40:1 50:1 63:1 67:1 73:1 75:1 76:1 80:1 83:1 
1 3:1 6:1 18:1 22:1 36:1 40:1 50:1 63:1 67:1 73:1 74:1 76:1 80:1 83:1 
1 3:1 6:1 18:1 20:1 37:1 40:1 48:1 63:1 71:1 73:1 74:1 76:1 82:1 83:1 
1 3:1 6:1 17:1 22:1 36:1 40:1 53:1 61:1 67:1 72:1 74:1 76:1 80:1 83:1 
1 2:1 6:1 16:1 24:1 38:1 40:1 50:1 63:1 67:1 73:1 75:1 76:1 81:1 83:1 
1 5:1 6:1 16:1 22:1 36:1 40:1 48:1 63:1 67:1 73:1 75:1 76:1 80:1 83:1 
1 2:1 6:1 17:1 19:1 39:1 40:1 50:1 63:1 67:1 73:1 74:1 76:1 82:1 83:1 
1 3:1 6:1 18:1 20:1 37:1 40:1 51:1 63:1 67:1 73:1 74:1 76:1 82:1 83:1 
1 4:1 6:1 14:1 19:1 39:1 40:1 51:1 63:1 67:1 73:1 74:1 76:1 80:1 83:1 
1 5:1 7:1 18:1 20:1 37:1 40:1 50:1 63:1 71:1 73:1 74:1 76:1 82:1 83:1 
1 5:1 6:1 17:1 19:1 39:1 42:1 50:1 64:1 67:1 72:1 74:1 77:1 81:1 83:1 
1 4:1 6:1 14:1 32:1 39:1 41:1 50:1 66:1 67:1 72:1 74:1 76:1 82:1 83:1 
1 5:1 8:1 15:1 31:1 35:1 44:1 51:1 66:1 67:1 72:1 74:1 77:1 82:1 83:1 
1 4:1 7:1 15:1 20:1 37:1 40:1 48:1 63:1 67:1 73:1 74:1 76:1 82:1 83:1 
1 5:1 7:1 17:1 29:1 39:1 40:1 48:1 63:1 67:1 73:1 74:1 76:1 82:1 83:1 
1 5:1 6:1 18:1 19:1 39:1 40:1 55:1 63:1 67:1 73:1 74:1 76:1 81:1 83:1 
1 5:1 6:1 16:1 22:1 36:1 40:1 57:1 63:1 67:1 73:1 74:1 76:1 81:1 83:1 
1 2:1 7:1 17:1 22:1 36:1 40:1 48:1 63:1 67:1 73:1 74:1 76:1 80:1 83:1 
1 2:1 6:1 14:1 19:1 39:1 42:1 50:1 64:1 67:1 72:1 74:1 76:1 82:1 83:1 
1 4:1 10:1 17:1 29:1 39:1 40:1 52:1 63:1 67:1 73:1 74:1 76:1 80:1 83:1 
1 4:1 6:1 15:1 29:1 39:1 41:1 51:1 64:1 67:1 72:1 74:1 76:1 80:1 83:1 
1 3:1 6:1 14:1 19:1 39:1 40:1 47:1 61:1 67:1 72:1 74:1 76:1 80:1 83:1 
1 5:1 17:1 19:1 39:1 40:1 63:1 67:1 73:1 74:1 76:1 82:1 83:1 
1 2:1 6:1 15:1 20:1 37:1 40:1 50:1 63:1 67:1 73:1 74:1 76:1 80:1 83:1 
1 4:1 6:1 17:1 19:1 39:1 40:1 52:1 63:1 67:1 73:1 74:1 76:1 80:1 83:1 
1 3:1 10:1 16:1 20:1 37:1 42:1 59:1 64:1 67:1 73:1 74:1 76:1 82:1 83:1 
0.43377545242422849 4:1 7:1 15:1 32:1 39:1 40:1 52:1 63:1 67:1 73:1 74:1 76:1 79:1 83:1 
1 5:1 6:1 18:1 22:1 36:1 40:1 50:1 63:1 67:1 73:1 74:1 76:1 80:1 83:1 
1 2:1 6:1 17:1 19:1 39:1 40:1 52:1 61:1 67:1 72:1 74:1 76:1 81:1 83:1 
1 3:1 6:1 16:1 19:1 39:1 40:1 47:1 63:1 67:1 73:1 74:1 76:1 80:1 83:1 
1 3:1 6:1 15:1 25:1 38:1 40:1 49:1 63:1 67:1 73:1 74:1 76:1 80:1 83:1 
1 4:1 6:1 15:1 22:1 36:1 40:1 57:1 63:1 67:1 73:1 74:1 76:1 82:1 83:1 
1 4:1 6:1 16:1 29:1 39:1 40:1 52:1 63:1 67:1 73:1 74:1 76:1 80:1 83:1 
1 5:1 6:1 14:1 29:1 39:1 41:1 52:1 66:1 67:1 73:1 75:1 76:1 82:1 83:1 
1 3:1 6:1 18:1 22:1 36:1 42:1 50:1 66:1 67:1 73:1 74:1 76:1 82:1 83:1 
1 3:1 6:1 14:1 20:1 37:1 43:1 54:1 64:1 67:1 73:1 74:1 77:1 82:1 83:1 
1 4:1 6:1 16:1 19:1 39:1 40:1 51:1 63:1 67:1 73:1 74:1 76:1 80:1 83:1 
1 4:1 6:1 14:1 22:1 36:1 41:1 55:1 64:1 67:1 72:1 74:1 76:1 79:1 83:1 
1 5:1 7:1 14:1 19:1 39:1 40:1 52:1 63:1 68:1 73:1 74:1 77:1 78:1 94:1 
1 3:1 6:1 16:1 20:1 37:1 40:1 48:1 63:1 67:1 73:1 74:1 76:1 82:1 83:1 
1 4:1 8:1 14:1 19:1 39:1 40:1 51:1 63:1 67:1 73:1 74:1 76:1 79:1 83:1 
1 2:1 6:1 15:1 20:1 37:1 40:1 54:1 63:1 67:1 73:1 74:1 76:1 80:1 83:1 
1 3:1 11:1 18:1 19:1 39:1 41:1 59:1 64:1 67:1 73:1 74:1 76:1 80:1 103:1 
1 4:1 7:1 17:1 20:1 37:1 40:1 48:1 63:1 67:1 73:1 74:1 76:1 81:1 83:1 
1 2:1 6:1 15:1 22:1 36:1 40:1 50:1 61:1 67:1 72:1 74:1 76:1 80:1 83:1 
1 3:1 6:1 16:1 20:1 37:1 40:1 59:1 63:1 71:1 73:1 74:1 76:1 80:1 83:1 
1 4:1 6:1 16:1 19:1 39:1 40:1 55:1 63:1 67:1 73:1 74:1 76:1 81:1 
1 4:1 11:1 14:1 23:1 39:1 40:1 52:1 63:1 68:1 73:1 74:1 76:1 82:1 90:1 
1 3:1 6:1 15:1 24:1 38:1 40:1 50:1 63:1 67:1 73:1 74:1 76:1 82:1 83:1 
1 3:1 6:1 16:1 20:1 37:1 40:1 52:1 63:1 67:1 73:1 74:1 76:1 82:1 83:1 
1 4:1 6:1 17:1 19:1 39:1 40:1 52:1 63:1 67:1 73:1 74:1 76:1 80:1 83:1 
1 4:1 6:1 17:1 20:1 37:1 41:1 48:1 64:1 67:1 73:1 74:1 76:1 81:1 83:1 
1 3:1 6:1 14:1 23:1 39:1 42:1 52:1 64:1 67:1 72:1 74:1 76:1 82:1 83:1 
1 2:1 6:1 15:1 20:1 37:1 40:1 51:1 63:1 67:1 73:1 74:1 76:1 80:1 83:1 
1 4:1 11:1 14:1 32:1 39:1 42:1 51:1 64:1 67:1 72:1 74:1 76:1 80:1 99:1 
1 5:1 11:1 14:1 29:1 39:1 40:1 52:1 63:1 68:1 73:1 74:1 76:1 80:1 90:1 
1 4:1 8:1 15:1 22:1 36:1 40:1 51:1 63:1 67:1 73:1 74:1 76:1 81:1 83:1 
1 3:1 6:1 16:1 22:1 36:1 40:1 49:1 63:1 67:1 73:1 74:1 76:1 80:1 118:1 
1 5:1 6:1 15:1 22:1 36:1 40:1 57:1 63:1 67:1 73:1 74:1 76:1 80:1 83:1 
1 5:1 6:1 15:1 22:1 36:1 40:1 48:1 63:1 67:1 73:1 74:1 76:1 80:1 83:1 
1 4:1 6:1 16:1 25:1 38:1 40:1 51:1 61:1 67:1 72:1 74:1 76:1 80:1 83:1 
1 3:1 6:1 14:1 22:1 36:1 40:1 51:1 65:1 67:1 73:1 74:1 76:1 80:1 83:1 
1 5:1 11:1 14:1 32:1 39:1 40:1 52:1 63:1 67:1 73:1 74:1 76:1 80:1 
1 3:1 6:1 17:1 20:1 37:1 40:1 50:1 61:1 67:1 72:1 74:1 76:1 80:1 83:1 
1 3:1 7:1 14:1 20:1 37:1 40:1 48:1 63:1 67:1 73:1 74:1 76:1 82:1 83:1 
1 3:1 6:1 17:1 20:1 37:1 40:1 48:1 63:1 67:1 73:1 74:1 76:1 82:1 83:1 
1 5:1 6:1 16:1 31:1 35:1 40:1 57:1 63:1 67:1 73:1 74:1 76:1 78:1 83:1 
1 4:1 10:1 17:1 19:1 39:1 41:1 55:1 64:1 67:1 72:1 75:1 76:1 80:1 83:1 
1 3:1 6:1 18:1 22:1 36:1 41:1 48:1 64:1 67:1 73:1 75:1 76:1 80:1 83:1 
1 3:1 8:1 14:1 20:1 37:1 40:1 57:1 63:1 67:1 73:1 74:1 76:1 82:1 83:1 
1 4:1 10:1 17:1 29:1 39:1 40:1 52:1 63:1 67:1 73:1 74:1 76:1 79:1 83:1 
1 4:1 9:1 15:1 20:1 37:1 40:1 47:1 63:1 67:1 73:1 74:1 76:1 80:1 83:1 
1 4:1 6:1 15:1 22:1 36:1 40:1 51:1 63:1 67:1 73:1 74:1 76:1 79:1 83:1 
1 4:1 6:1 16:1 20:1 37:1 41:1 49:1 64:1 67:1 72:1 74:1 76:1 79:1 83:1 
1 3:1 10:1 16:1 20:1 37:1 40:1 59:1 63:1 67:1 73:1 74:1 76:1 82:1 83:1 
1 5:1 6:1 15:1 22:1 36:1 40:1 54:1 63:1 67:1 73:1 74:1 76:1 82:1 83:1 
1 1:1 6:1 14:1 19:1 39:1 42:1 56:1 62:1 67:1 73:1 75:1 76:1 82:1 83:1 
1 4:1 6:1 16:1 24:1 38:1 40:1 50:1 63:1 67:1 73:1 74:1 77:1 80:1 83:1 
1 5:1 6:1 15:1 20:1 37:1 40:1 51:1 63:1 67:1 73:1 74:1 76:1 80:1 83:1 
1 1:1 8:1 18:1 22:1 36:1 42:1 49:1 64:1 71:1 73:1 75:1 76:1 82:1 83:1 
1 5:1 7:1 16:1 29:1 39:1 40:1 52:1 63:1 67:1 73:1 74:1 76:1 82:1 83:1 
1 4:1 6:1 17:1 22:1 36:1 40:1 57:1 63:1 67:1 73:1 75:1 76:1 81:1 83:1 
1 4:1 6:1 17:1 20:1 37:1 40:1 49:1 63:1 67:1 73:1 74:1 76:1 80:1 83:1 
1 3:1 6:1 14:1 33:1 35:1 40:1 54:1 63:1 67:1 73:1 75:1 76:1 80:1 103:1 
1 3:1 6:1 17:1 22:1 36:1 40:1 57:1 63:1 67:1 73:1 75:1 76:1 82:1 83:1 
1 4:1 6:1 15:1 22:1 36:1 40:1 55:1 61:1 67:1 72:1 74:1 76:1 78:1 83:1 
1 3:1 6:1 18:1 19:1 39:1 40:1 48:1 63:1 67:1 73:1 74:1 76:1 81:1 83:1 
1 2:1 10:1 17:1 19:1 39:1 40:1 59:1 63:1 67:1 73:1 74:1 76:1 81:1 83:1 
1 5:1 6:1 16:1 20:1 37:1 42:1 51:1 64:1 67:1 73:1 74:1 76:1 80:1 83:1 
1 4:1 6:1 15:1 28:1 35:1 40:1 53:1 63:1 67:1 73:1 74:1 76:1 80:1 83:1 
1 5:1 6:1 15:1 22:1 36:1 41:1 57:1 64:1 67:1 73:1 74:1 76:1 80:1 83:1 
1 2:1 6:1 16:1 20:1 37:1 40:1 48:1 63:1 67:1 73:1 74:1 76:1 80:1 83:1 
1 5:1 6:1 17:1 22:1 36:1 40:1 51:1 63:1 67:1 73:1 74:1 76:1 80:1 83:1 
1 3:1 6:1 16:1 20:1 37:1 40:1 55:1 63:1 71:1 73:1 74:1 77:1 82:1 83:1 
1 4:1 10:1 15:1 19:1 39:1 40:1 52:1 63:1 67:1 73:1 74:1 76:1 81:1 83:1 
1 5:1 6:1 17:1 22:1 36:1 40:1 47:1 63:1 68:1 73:1 74:1 76:1 82:1 98:1 
1 3:1 6:1 17:1 19:1 39:1 40:1 52:1 63:1 67:1 73:1 74:1 76:1 80:1 83:1 
1 3:1 10:1 18:1 29:1 39:1 40:1 52:1 63:1 67:1 73:1 74:1 76:1 81:1 83:1 
1 4:1 6:1 15:1 22:1 36:1 40:1 48:1 63:1 67:1 73:1 74:1 76:1 80:1 83:1 
1 4:1 10:1 15:1 29:1 39:1 41:1 52:1 66:1 67:1 72:1 75:1 76:1 79:1 83:1 
1 3:1 6:1 15:1 22:1 36:1 40:1 55:1 61:1 67:1 72:1 74:1 76:1 80:1 83:1 
1 3:1 7:1 17:1 20:1 37:1 40:1 50:1 63:1 67:1 73:1 75:1 76:1 78:1 83:1 
1 2:1 7:1 16:1 22:1 36:1 40:1 50:1 63:1 67:1 73:1 74:1 76:1 82:1 83:1 
1 5:1 17:1 19:1 39:1 40:1 63:1 67:1 73:1 74:1 76:1 82:1 83:1 
1 3:1 6:1 16:1 19:1 39:1 40:1 50:1 63:1 67:1 73:1 74:1 76:1 82:1 83:1 
1 5:1 6:1 15:1 22:1 36:1 40:1 48:1 63:1 67:1 73:1 75:1 76:1 80:1 83:1 
1 4:1 18:1 19:1 39:1 40:1 61:1 67:1 72:1 74:1 76:1 78:1 83:1 
1 3:1 6:1 14:1 27:1 35:1 40:1 54:1 61:1 67:1 72:1 74:1 76:1 82:1 87:1 
1 3:1 6:1 16:1 22:1 36:1 40:1 54:1 63:1 67:1 73:1 74:1 76:1 81:1 83:1 
1 4:1 10:1 18:1 28:1 35:1 40:1 49:1 63:1 67:1 73:1 74:1 76:1 79:1 83:1 
1 2:1 6:1 18:1 22:1 36:1 40:1 48:1 63:1 67:1 73:1 74:1 77:1 80:1 83:1 
1 2:1 8:1 18:1 20:1 37:1 42:1 51:1 64:1 67:1 73:1 74:1 76:1 82:1 83:1 
1 5:1 7:1 15:1 20:1 37:1 40:1 51:1 63:1 67:1 73:1 74:1 77:1 78:1 83:1 
1 5:1 6:1 14:1 22:1 36:1 40:1 57:1 63:1 67:1 73:1 74:1 76:1 81:1 83:1 
1 5:1 6:1 16:1 22:1 36:1 40:1 54:1 63:1 67:1 73:1 74:1 76:1 80:1 83:1 
1 4:1 6:1 17:1 20:1 37:1 40:1 50:1 63:1 67:1 73:1 74:1 76:1 80:1 83:1 
1 5:1 8:1 14:1 22:1 36:1 40:1 52:1 63:1 71:1 73:1 74:1 76:1 82:1 83:1 
1 4:1 6:1 14:1 29:1 39:1 41:1 52:1 64:1 67:1 73:1 74:1 76:1 80:1 83:1 
1 2:1 6:1 16:1 19:1 39:1 43:1 52:1 64:1 68:1 73:1 74:1 76:1 80:1 98:1 
1 4:1 6:1 14:1 24:1 38:1 40:1 54:1 63:1 67:1 73:1 74:1 76:1 80:1 83:1 
1 3:1 6:1 17:1 20:1 37:1 40:1 48:1 63:1 67:1 73:1 74:1 76:1 81:1 83:1 
1 2:1 10:1 15:1 19:1 39:1 40:1 59:1 63:1 67:1 73:1 74:1 76:1 82:1 83:1 
1 3:1 6:1 15:1 25:1 38:1 40:1 55:1 63:1 67:1 73:1 75:1 76:1 80:1 83:1 
1 2:1 8:1 15:1 19:1 39:1 40:1 50:1 63:1 67:1 73:1 74:1 76:1 82:1 83:1 
1 5:1 6:1 17:1 20:1 37:1 41:1 51:1 64:1 67:1 72:1 74:1 76:1 82:1 83:1 
1 3:1 6:1 15:1 20:1 37:1 43:1 48:1 66:1 67:1 73:1 75:1 76:1 81:1 83:1 
1 2:1 6:1 15:1 19:1 39:1 40:1 47:1 63:1 67:1 73:1 74:1 76:1 80:1 83:1 
1 3:1 6:1 18:1 19:1 39:1 42:1 52:1 64:1 67:1 73:1 75:1 76:1 80:1 83:1 
1 5:1 7:1 17:1 22:1 36:1 40:1 49:1 63:1 67:1 73:1 75:1 76:1 82:1 83:1 
1 5:1 6:1 16:1 20:1 37:1 40:1 51:1 63:1 67:1 73:1 74:1 76:1 82:1 83:1 
1 4:1 6:1 18:1 23:1 39:1 43:1 47:1 64:1 67:1 73:1 74:1 76:1 82:1 112:1 
1 4:1 6:1 16:1 20:1 37:1 40:1 47:1 61:1 67:1 72:1 74:1 76:1 80:1 83:1 
1 1:1 6:1 18:1 27:1 35:1 42:1 49:1 64:1 67:1 73:1 74:1 76:1 82:1 83:1 
1 3:1 6:1 17:1 22:1 36:1 40:1 54:1 63:1 67:1 73:1 75:1 76:1 82:1 83:1 
1 5:1 6:1 16:1 20:1 37:1 40:1 47:1 63:1 67:1 73:1 74:1 76:1 82:1 83:1 
1 2:1 6:1 15:1 22:1 36:1 40:1 53:1 63:1 67:1 73:1 74:1 76:1 80:1 83:1 
1 4:1 10:1 16:1 29:1 39:1 40:1 59:1 63:1 67:1 73:1 74:1 76:1 80:1 83:1 
1 3:1 6:1 16:1 19:1 39:1 40:1 55:1 63:1 67:1 73:1 74:1 76:1 82:1 83:1 
1 2:1 6:1 17:1 19:1 39:1 40:1 51:1 63:1 67:1 73:1 74:1 76:1 80:1 83:1 
1 3:1 6:1 14:1 22:1 36:1 40:1 49:1 63:1 67:1 73:1 74:1 76:1 80:1 83:1 
1 5:1 8:1 14:1 20:1 37:1 40:1 50:1 63:1 67:1 73:1 74:1 76:1 82:1 83:1 
1 4:1 6:1 15:1 19:1 39:1 40:1 51:1 63:1 67:1 73:1 74:1 76:1 80:1 83:1 
1 1:1 6:1 17:1 19:1 39:1 40:1 52:1 63:1 67:1 73:1 74:1 76:1 81:1 83:1 
1 5:1 17:1 22:1 36:1 40:1 63:1 67:1 73:1 74:1 76:1 78:1 83:1 
1 2:1 6:1 15:1 22:1 36:1 40:1 48:1 63:1 67:1 73:1 74:1 76:1 81:1 83:1 
1 3:1 6:1 14:1 20:1 37:1 40:1 51:1 63:1 67:1 73:1 74:1 76:1 81:1 83:1 
1 4:1 6:1 14:1 20:1 37:1 40:1 50:1 63:1 67:1 73:1 74:1 76:1 81:1 83:1 
1 4:1 6:1 15:1 22:1 36:1 41:1 48:1 64:1 67:1 73:1 75:1 76:1 81:1 83:1 
1 4:1 6:1 14:1 20:1 37:1 40:1 51:1 63:1 67:1 73:1 74:1 76:1 80:1 83:1 
1 3:1 6:1 15:1 19:1 39:1 40:1 54:1 63:1 67:1 73:1 74:1 76:1 82:1 83:1 
1 4:1 10:1 17:1 22:1 36:1 40:1 48:1 63:1 67:1 73:1 74:1 76:1 80:1 83:1 
1 4:1 10:1 16:1 19:1 39:1 40:1 59:1 63:1 67:1 73:1 74:1 76:1 82:1 83:1 
1 3:1 10:1 14:1 22:1 36:1 40:1 52:1 63:1 67:1 73:1 75:1 76:1 80:1 83:1 
1 2:1 6:1 14:1 22:1 36:1 40:1 50:1 63:1 67:1 73:1 74:1 77:1 82:1 83:1 
1 4:1 11:1 15:1 20:1 37:1 40:1 54:1 63:1 67:1 73:1 74:1 76:1 80:1 83:1 
1 4:1 9:1 17:1 22:1 36:1 40:1 57:1 63:1 71:1 73:1 74:1 76:1 80:1 83:1 
1 5:1 6:1 16:1 19:1 39:1 40:1 50:1 63:1 67:1 73:1 74:1 76:1 80:1 83:1 
1 4:1 6:1 16:1 20:1 37:1 40:1 57:1 63:1 67:1 73:1 74:1 76:1 82:1 83:1 
1 3:1 7:1 14:1 22:1 36:1 40:1 51:1 63:1 67:1 73:1 74:1 76:1 82:1 83:1 
1 5:1 10:1 16:1 29:1 39:1 40:1 52:1 63:1 67:1 73:1 74:1 76:1 78:1 100:1 
1 3:1 7:1 15:1 20:1 37:1 40:1 54:1 63:1 67:1 73:1 74:1 76:1 81:1 83:1 
1 4:1 9:1 14:1 29:1 39:1 40:1 55:1 63:1 67:1 73:1 74:1 76:1 80:1 83:1 
