svm_type epsilon_svr
kernel_type linear
nr_class 2
total_sv 20520
rho 0.28075424915058589
SV
-10 3:1 11:1 14:1 19:1 39:1 42:1 55:1 64:1 67:1 73:1 75:1 76:1 80:1 83:1 
-10 5:1 7:1 14:1 19:1 39:1 40:1 51:1 63:1 67:1 73:1 74:1 76:1 78:1 83:1 
0.59717925718939002 3:1 6:1 17:1 22:1 36:1 41:1 53:1 64:1 67:1 73:1 74:1 76:1 80:1 83:1 
-10 2:1 6:1 18:1 19:1 39:1 40:1 52:1 61:1 71:1 72:1 74:1 76:1 80:1 95:1 
-10 3:1 6:1 18:1 29:1 39:1 40:1 51:1 61:1 67:1 72:1 74:1 76:1 80:1 83:1 
0.17573480013756532 4:1 6:1 16:1 26:1 35:1 45:1 49:1 64:1 71:1 72:1 74:1 76:1 78:1 101:1 
10 3:1 6:1 18:1 20:1 37:1 40:1 51:1 63:1 71:1 73:1 74:1 76:1 82:1 83:1 
0.014951117051759201 2:1 6:1 17:1 24:1 38:1 42:1 50:1 64:1 71:1 73:1 74:1 76:1 82:1 83:1 
10 3:1 6:1 15:1 25:1 38:1 40:1 48:1 63:1 68:1 73:1 74:1 76:1 80:1 
-7.8797037092898909 3:1 6:1 17:1 27:1 35:1 40:1 57:1 63:1 69:1 73:1 74:1 76:1 81:1 103:1 
10 1:1 7:1 16:1 22:1 36:1 42:1 56:1 62:1 67:1 73:1 74:1 76:1 79:1 83:1 
-10 3:1 6:1 14:1 21:1 35:1 40:1 50:1 63:1 67:1 73:1 74:1 76:1 82:1 83:1 
10 4:1 7:1 18:1 29:1 39:1 41:1 51:1 66:1 67:1 72:1 74:1 76:1 81:1 83:1 
0.19178547947351579 5:1 6:1 18:1 22:1 36:1 43:1 49:1 66:1 71:1 72:1 74:1 76:1 78:1 83:1 
-10 3:1 9:1 14:1 26:1 35:1 40:1 56:1 63:1 71:1 73:1 74:1 76:1 80:1 83:1 
-10 4:1 6:1 15:1 21:1 35:1 40:1 57:1 63:1 67:1 73:1 74:1 77:1 80:1 83:1 
10 5:1 10:1 17:1 19:1 39:1 40:1 47:1 63:1 67:1 73:1 74:1 76:1 80:1 83:1 
10 5:1 16:1 20:1 37:1 40:1 63:1 68:1 73:1 74:1 76:1 82:1 93:1 
-10 3:1 6:1 18:1 22:1 36:1 41:1 51:1 64:1 67:1 73:1 74:1 76:1 82:1 83:1 
-3.93507293766306 4:1 6:1 16:1 22:1 36:1 40:1 48:1 63:1 67:1 73:1 74:1 76:1 80:1 83:1 
0.15982755715486677 1:1 10:1 16:1 24:1 38:1 42:1 59:1 64:1 67:1 73:1 74:1 76:1 82:1 83:1 
0.1206662845808488 1:1 6:1 18:1 20:1 37:1 42:1 50:1 62:1 71:1 73:1 74:1 76:1 81:1 83:1 
-10 4:1 6:1 18:1 19:1 39:1 41:1 51:1 62:1 67:1 73:1 74:1 77:1 80:1 83:1 
-9.7885114769847608 2:1 9:1 14:1 20:1 37:1 40:1 55:1 62:1 67:1 73:1 74:1 76:1 80:1 83:1 
-2.4935754623531516 1:1 11:1 18:1 20:1 37:1 40:1 49:1 63:1 71:1 73:1 74:1 76:1 78:1 83:1 
0.072006187140329581 4:1 6:1 17:1 21:1 35:1 42:1 54:1 66:1 67:1 73:1 74:1 76:1 80:1 86:1 
10 2:1 6:1 14:1 20:1 37:1 40:1 50:1 63:1 67:1 73:1 74:1 76:1 79:1 
-10 4:1 7:1 18:1 24:1 38:1 40:1 52:1 63:1 67:1 73:1 74:1 76:1 80:1 83:1 
1.0540887608456377 1:1 6:1 18:1 22:1 36:1 42:1 53:1 64:1 67:1 73:1 74:1 76:1 79:1 83:1 
10 5:1 9:1 18:1 19:1 39:1 40:1 52:1 63:1 71:1 73:1 74:1 76:1 80:1 83:1 
-10 5:1 6:1 15:1 22:1 36:1 40:1 54:1 63:1 67:1 73:1 74:1 76:1 79:1 83:1 
-10 4:1 6:1 15:1 29:1 39:1 41:1 51:1 66:1 67:1 72:1 74:1 76:1 80:1 83:1 
0.016073149890241292 2:1 6:1 18:1 25:1 38:1 42:1 52:1 64:1 67:1 73:1 74:1 76:1 81:1 83:1 
-10 4:1 8:1 15:1 22:1 36:1 41:1 51:1 64:1 67:1 73:1 74:1 76:1 82:1 83:1 
10 4:1 6:1 17:1 20:1 37:1 40:1 47:1 63:1 67:1 73:1 74:1 76:1 80:1 83:1 
-0.26186992139453358 4:1 6:1 17:1 33:1 35:1 40:1 54:1 63:1 67:1 73:1 74:1 76:1 80:1 103:1 
-7.5834185372762848 3:1 6:1 14:1 25:1 38:1 40:1 49:1 63:1 67:1 73:1 74:1 76:1 80:1 86:1 
-10 2:1 6:1 16:1 22:1 36:1 40:1 54:1 63:1 67:1 73:1 75:1 76:1 80:1 83:1 
-10 2:1 6:1 14:1 19:1 39:1 40:1 50:1 63:1 67:1 73:1 75:1 76:1 80:1 83:1 
10 2:1 18:1 27:1 35:1 45:1 64:1 67:1 73:1 74:1 76:1 80:1 
-3.8185888436153577 4:1 6:1 15:1 22:1 36:1 40:1 57:1 63:1 67:1 73:1 74:1 76:1 80:1 83:1 
10 4:1 6:1 15:1 32:1 39:1 40:1 52:1 63:1 67:1 73:1 74:1 76:1 81:1 83:1 
0.021773932682225612 2:1 6:1 14:1 20:1 37:1 41:1 47:1 64:1 67:1 73:1 74:1 76:1 82:1 83:1 
2.0572415302815812 2:1 6:1 16:1 20:1 37:1 41:1 55:1 64:1 67:1 72:1 74:1 76:1 80:1 83:1 
10 5:1 6:1 16:1 22:1 36:1 40:1 55:1 61:1 67:1 72:1 74:1 76:1 80:1 83:1 
10 4:1 8:1 16:1 20:1 37:1 40:1 51:1 63:1 67:1 73:1 74:1 76:1 82:1 83:1 
10 2:1 7:1 16:1 19:1 39:1 40:1 50:1 63:1 67:1 73:1 74:1 76:1 82:1 83:1 
0.9105373125965428 2:1 6:1 17:1 22:1 36:1 42:1 49:1 62:1 67:1 73:1 74:1 76:1 80:1 103:1 
-10 3:1 6:1 14:1 24:1 38:1 40:1 55:1 63:1 67:1 73:1 74:1 76:1 80:1 83:1 
-0.095260241599217838 2:1 10:1 15:1 27:1 35:1 40:1 56:1 63:1 67:1 73:1 74:1 76:1 80:1 83:1 
0.42641710171943042 1:1 6:1 18:1 22:1 36:1 42:1 50:1 64:1 67:1 73:1 74:1 76:1 78:1 83:1 
-10 5:1 6:1 18:1 19:1 39:1 40:1 49:1 63:1 67:1 73:1 74:1 76:1 80:1 95:1 
-10 5:1 6:1 16:1 22:1 36:1 40:1 50:1 63:1 67:1 73:1 74:1 76:1 82:1 83:1 
10 4:1 6:1 18:1 22:1 36:1 41:1 48:1 64:1 67:1 72:1 75:1 76:1 80:1 83:1 
0.15085747787036732 5:1 6:1 18:1 22:1 36:1 41:1 50:1 62:1 67:1 72:1 74:1 76:1 79:1 83:1 
10 4:1 10:1 18:1 22:1 36:1 40:1 59:1 63:1 67:1 73:1 74:1 76:1 80:1 83:1 
-10 3:1 6:1 17:1 29:1 39:1 40:1 52:1 63:1 67:1 73:1 74:1 76:1 82:1 83:1 
10 2:1 6:1 14:1 26:1 35:1 42:1 50:1 64:1 67:1 73:1 74:1 76:1 80:1 83:1 
-10 5:1 6:1 17:1 25:1 38:1 40:1 52:1 63:1 67:1 73:1 74:1 76:1 80:1 83:1 
-10 2:1 6:1 15:1 22:1 36:1 40:1 50:1 61:1 68:1 72:1 74:1 77:1 79:1 
10 3:1 10:1 17:1 19:1 39:1 40:1 59:1 63:1 67:1 73:1 74:1 76:1 80:1 83:1 
0.2998476513757497 2:1 10:1 15:1 20:1 37:1 42:1 53:1 64:1 67:1 73:1 74:1 76:1 82:1 83:1 
10 3:1 6:1 17:1 20:1 37:1 40:1 50:1 63:1 67:1 73:1 74:1 76:1 82:1 83:1 
-1.0875720707343537 4:1 6:1 16:1 24:1 38:1 41:1 51:1 66:1 67:1 72:1 74:1 76:1 80:1 85:1 
10 5:1 6:1 15:1 29:1 39:1 40:1 51:1 63:1 67:1 73:1 74:1 76:1 80:1 83:1 
-10 4:1 7:1 15:1 29:1 39:1 42:1 52:1 64:1 67:1 72:1 74:1 76:1 82:1 83:1 
10 2:1 6:1 14:1 22:1 36:1 42:1 48:1 64:1 67:1 73:1 74:1 76:1 80:1 83:1 
10 2:1 8:1 18:1 22:1 36:1 40:1 48:1 63:1 67:1 73:1 75:1 76:1 80:1 83:1 
-10 1:1 18:1 31:1 35:1 42:1 62:1 67:1 72:1 75:1 76:1 78:1 83:1 
2.1997537504310709 2:1 6:1 16:1 21:1 35:1 42:1 53:1 62:1 67:1 73:1 74:1 76:1 80:1 83:1 
-10 4:1 6:1 15:1 22:1 36:1 40:1 53:1 63:1 67:1 73:1 74:1 76:1 80:1 83:1 
-7.7814676128422322 1:1 6:1 18:1 19:1 39:1 42:1 50:1 65:1 67:1 73:1 74:1 76:1 80:1 83:1 
-10 2:1 6:1 18:1 20:1 37:1 40:1 50:1 61:1 67:1 72:1 75:1 76:1 78:1 83:1 
1.281661419892133 3:1 6:1 14:1 22:1 36:1 42:1 54:1 62:1 67:1 72:1 74:1 76:1 80:1 83:1 
-10 5:1 6:1 14:1 26:1 35:1 40:1 53:1 63:1 67:1 73:1 74:1 76:1 82:1 83:1 
10 4:1 10:1 17:1 25:1 38:1 40:1 48:1 63:1 71:1 73:1 74:1 76:1 80:1 83:1 
-10 5:1 6:1 17:1 20:1 37:1 40:1 50:1 63:1 67:1 73:1 74:1 76:1 82:1 83:1 
-10 3:1 6:1 15:1 19:1 39:1 40:1 51:1 63:1 67:1 73:1 74:1 76:1 82:1 83:1 
-10 2:1 6:1 14:1 19:1 39:1 42:1 51:1 62:1 71:1 73:1 74:1 76:1 80:1 88:1 
10 2:1 11:1 18:1 19:1 39:1 40:1 52:1 63:1 67:1 73:1 74:1 76:1 82:1 83:1 
0.079333147590466557 1:1 6:1 18:1 20:1 37:1 42:1 49:1 62:1 71:1 73:1 74:1 76:1 79:1 83:1 
10 2:1 6:1 15:1 24:1 38:1 40:1 55:1 63:1 67:1 73:1 74:1 76:1 80:1 83:1 
-4.7156993204512068 3:1 15:1 22:1 36:1 40:1 63:1 67:1 73:1 74:1 76:1 80:1 83:1 
0.81762165188145353 3:1 6:1 18:1 20:1 37:1 41:1 48:1 64:1 67:1 73:1 74:1 76:1 80:1 83:1 
-10 1:1 6:1 14:1 22:1 36:1 42:1 49:1 64:1 67:1 72:1 74:1 77:1 80:1 83:1 
-10 3:1 7:1 15:1 22:1 36:1 40:1 48:1 63:1 67:1 73:1 75:1 76:1 79:1 83:1 
-10 3:1 6:1 17:1 19:1 39:1 40:1 50:1 63:1 67:1 73:1 74:1 76:1 82:1 83:1 
10 3:1 9:1 15:1 29:1 39:1 40:1 52:1 63:1 67:1 73:1 74:1 76:1 80:1 96:1 
10 4:1 6:1 14:1 20:1 37:1 40:1 48:1 63:1 68:1 73:1 74:1 76:1 80:1 83:1 
-10 5:1 8:1 14:1 22:1 36:1 40:1 48:1 63:1 67:1 73:1 74:1 76:1 80:1 83:1 
0.68385681542379495 2:1 6:1 17:1 20:1 37:1 42:1 50:1 62:1 67:1 72:1 74:1 76:1 80:1 83:1 
10 4:1 6:1 17:1 25:1 38:1 42:1 52:1 64:1 67:1 72:1 74:1 77:1 80:1 83:1 
10 2:1 6:1 16:1 22:1 36:1 42:1 57:1 66:1 71:1 72:1 74:1 76:1 78:1 83:1 
0.84127016282147449 3:1 6:1 15:1 22:1 36:1 44:1 49:1 66:1 67:1 72:1 74:1 76:1 78:1 83:1 
0.58474783202157887 4:1 16:1 20:1 37:1 41:1 64:1 67:1 72:1 74:1 76:1 80:1 83:1 
0.29811554809492241 4:1 10:1 16:1 20:1 37:1 41:1 55:1 66:1 67:1 72:1 74:1 76:1 79:1 103:1 
10 5:1 17:1 22:1 36:1 41:1 64:1 67:1 73:1 74:1 76:1 81:1 83:1 
-0.92457543253740104 1:1 6:1 17:1 19:1 39:1 42:1 53:1 64:1 67:1 73:1 74:1 76:1 80:1 83:1 
-10 4:1 6:1 17:1 19:1 39:1 43:1 49:1 65:1 71:1 73:1 74:1 76:1 82:1 83:1 
10 5:1 14:1 30:1 35:1 41:1 64:1 67:1 72:1 74:1 76:1 78:1 83:1 
-0.36549549327873371 2:1 6:1 14:1 22:1 36:1 42:1 51:1 64:1 68:1 72:1 74:1 76:1 80:1 85:1 
10 4:1 7:1 17:1 29:1 39:1 40:1 50:1 63:1 67:1 73:1 74:1 76:1 80:1 83:1 
0.8668355840608154 3:1 6:1 17:1 20:1 37:1 41:1 49:1 66:1 67:1 72:1 74:1 76:1 80:1 103:1 
-10 4:1 11:1 14:1 29:1 39:1 44:1 59:1 66:1 67:1 73:1 74:1 76:1 80:1 83:1 
-8.9116688710057286 2:1 6:1 15:1 22:1 36:1 42:1 49:1 64:1 67:1 73:1 74:1 77:1 80:1 83:1 
10 5:1 6:1 14:1 20:1 37:1 40:1 50:1 63:1 67:1 73:1 74:1 77:1 80:1 83:1 
-4.9744862198961348 2:1 6:1 18:1 19:1 39:1 42:1 48:1 64:1 67:1 73:1 74:1 76:1 82:1 83:1 
10 2:1 11:1 15:1 19:1 39:1 40:1 52:1 63:1 67:1 73:1 74:1 76:1 80:1 83:1 
10 4:1 10:1 16:1 20:1 37:1 40:1 51:1 63:1 71:1 73:1 74:1 76:1 79:1 83:1 
0.045081130658183061 4:1 6:1 15:1 20:1 37:1 41:1 55:1 64:1 67:1 72:1 74:1 76:1 80:1 83:1 
0.17734329564401152 2:1 6:1 18:1 20:1 37:1 42:1 48:1 64:1 71:1 73:1 74:1 76:1 81:1 83:1 
10 3:1 6:1 18:1 27:1 35:1 40:1 54:1 63:1 67:1 73:1 74:1 76:1 80:1 103:1 
-10 4:1 7:1 15:1 19:1 39:1 41:1 51:1 64:1 67:1 72:1 74:1 76:1 80:1 83:1 
-10 5:1 15:1 19:1 39:1 41:1 64:1 67:1 72:1 74:1 76:1 82:1 83:1 
-10 2:1 6:1 14:1 29:1 39:1 40:1 52:1 61:1 67:1 72:1 74:1 76:1 82:1 83:1 
10 5:1 11:1 15:1 32:1 39:1 40:1 52:1 63:1 67:1 73:1 74:1 76:1 78:1 83:1 
3.2532701705376059 3:1 6:1 15:1 20:1 37:1 41:1 54:1 64:1 71:1 72:1 74:1 76:1 78:1 83:1 
-1.7545253330006025 1:1 6:1 16:1 20:1 37:1 40:1 54:1 63:1 67:1 73:1 74:1 76:1 80:1 83:1 
-10 4:1 6:1 15:1 20:1 37:1 40:1 47:1 63:1 67:1 73:1 74:1 76:1 81:1 83:1 
-10 4:1 9:1 15:1 19:1 39:1 40:1 47:1 63:1 67:1 73:1 74:1 76:1 78:1 83:1 
3.4763434763767491 3:1 6:1 14:1 20:1 37:1 41:1 48:1 64:1 67:1 73:1 74:1 76:1 80:1 83:1 
10 3:1 6:1 15:1 29:1 39:1 40:1 52:1 65:1 67:1 73:1 75:1 76:1 80:1 83:1 
10 1:1 7:1 14:1 22:1 36:1 42:1 50:1 64:1 67:1 73:1 74:1 76:1 80:1 83:1 
-10 2:1 6:1 18:1 29:1 39:1 42:1 52:1 64:1 67:1 72:1 74:1 77:1 80:1 83:1 
1.4609962283163536 1:1 16:1 22:1 36:1 42:1 62:1 67:1 73:1 74:1 76:1 80:1 99:1 
10 5:1 6:1 17:1 19:1 39:1 40:1 51:1 63:1 67:1 73:1 74:1 76:1 82:1 83:1 
-10 4:1 10:1 17:1 20:1 37:1 42:1 52:1 64:1 67:1 72:1 74:1 77:1 80:1 83:1 
6.9252268098954159 3:1 11:1 14:1 22:1 36:1 41:1 55:1 66:1 67:1 72:1 74:1 76:1 79:1 83:1 
0.085331176070075426 1:1 6:1 15:1 21:1 35:1 42:1 50:1 62:1 67:1 72:1 74:1 76:1 80:1 83:1 
10 3:1 6:1 15:1 19:1 39:1 40:1 49:1 63:1 71:1 73:1 75:1 76:1 79:1 83:1 
10 5:1 8:1 17:1 22:1 36:1 40:1 50:1 61:1 67:1 72:1 75:1 76:1 79:1 83:1 
-10 4:1 10:1 16:1 22:1 36:1 40:1 57:1 63:1 71:1 73:1 74:1 76:1 80:1 83:1 
10 3:1 6:1 17:1 22:1 36:1 40:1 48:1 63:1 67:1 73:1 74:1 76:1 80:1 83:1 
1.1076878370528478 3:1 6:1 15:1 20:1 37:1 42:1 50:1 64:1 69:1 72:1 74:1 76:1 80:1 83:1 
10 5:1 8:1 15:1 27:1 35:1 40:1 54:1 63:1 67:1 73:1 74:1 76:1 80:1 83:1 
0.4753233392440504 5:1 6:1 18:1 24:1 38:1 41:1 50:1 64:1 67:1 72:1 74:1 76:1 80:1 83:1 
-10 3:1 6:1 16:1 19:1 39:1 40:1 50:1 63:1 67:1 73:1 74:1 76:1 82:1 100:1 
-10 4:1 6:1 15:1 19:1 39:1 40:1 52:1 63:1 67:1 73:1 74:1 76:1 82:1 83:1 
3.6526351107940229 1:1 6:1 17:1 31:1 35:1 42:1 48:1 64:1 67:1 73:1 74:1 76:1 80:1 83:1 
4.0811971056868028 5:1 16:1 30:1 35:1 41:1 64:1 67:1 73:1 74:1 76:1 80:1 83:1 
-4.4041650467315376 5:1 6:1 16:1 22:1 36:1 40:1 55:1 63:1 71:1 73:1 74:1 76:1 78:1 83:1 
4.5417454328828883 5:1 10:1 15:1 34:1 35:1 42:1 54:1 64:1 67:1 72:1 74:1 76:1 79:1 83:1 
10 5:1 14:1 31:1 35:1 41:1 64:1 69:1 72:1 74:1 76:1 78:1 83:1 
-10 5:1 7:1 16:1 22:1 36:1 40:1 56:1 63:1 67:1 73:1 75:1 76:1 82:1 83:1 
0.097664475771092552 5:1 6:1 18:1 25:1 38:1 44:1 55:1 64:1 67:1 72:1 74:1 76:1 78:1 112:1 
-10 3:1 6:1 18:1 21:1 35:1 43:1 57:1 64:1 71:1 73:1 75:1 76:1 80:1 83:1 
0.072499182635529194 4:1 6:1 15:1 22:1 36:1 41:1 50:1 66:1 71:1 72:1 74:1 76:1 79:1 83:1 
0.14308194344575109 1:1 6:1 16:1 20:1 37:1 42:1 55:1 64:1 67:1 73:1 74:1 76:1 81:1 83:1 
1.2099441192321947 3:1 6:1 15:1 20:1 37:1 41:1 48:1 65:1 70:1 72:1 74:1 76:1 80:1 83:1 
4.5246613997506078 3:1 11:1 16:1 20:1 37:1 42:1 55:1 64:1 67:1 72:1 74:1 76:1 79:1 83:1 
10 3:1 10:1 15:1 29:1 39:1 40:1 51:1 63:1 67:1 73:1 74:1 76:1 82:1 83:1 
5.0138282429219752 1:1 6:1 15:1 22:1 36:1 42:1 57:1 62:1 67:1 73:1 74:1 76:1 80:1 83:1 
10 3:1 6:1 18:1 19:1 39:1 40:1 52:1 63:1 67:1 73:1 74:1 76:1 80:1 83:1 
-10 1:1 11:1 18:1 24:1 38:1 40:1 59:1 63:1 67:1 73:1 74:1 76:1 82:1 83:1 
-10 3:1 6:1 16:1 20:1 37:1 41:1 48:1 64:1 67:1 73:1 74:1 77:1 80:1 83:1 
-4.1807641729756666 5:1 6:1 17:1 22:1 36:1 40:1 55:1 63:1 67:1 73:1 74:1 76:1 79:1 
10 5:1 6:1 17:1 22:1 36:1 40:1 55:1 63:1 67:1 73:1 74:1 76:1 81:1 83:1 
10 2:1 6:1 16:1 22:1 36:1 42:1 49:1 64:1 67:1 72:1 74:1 76:1 78:1 83:1 
10 3:1 6:1 17:1 24:1 38:1 40:1 47:1 63:1 67:1 73:1 74:1 77:1 82:1 83:1 
-10 4:1 6:1 15:1 22:1 36:1 40:1 55:1 63:1 67:1 73:1 74:1 76:1 80:1 
10 4:1 6:1 15:1 23:1 39:1 40:1 52:1 61:1 67:1 72:1 74:1 76:1 80:1 83:1 
-10 4:1 6:1 18:1 19:1 39:1 40:1 55:1 61:1 71:1 72:1 74:1 76:1 80:1 83:1 
0.96115663049439881 5:1 6:1 17:1 20:1 37:1 42:1 57:1 64:1 67:1 73:1 74:1 76:1 78:1 83:1 
10 4:1 7:1 18:1 22:1 36:1 40:1 56:1 63:1 68:1 73:1 74:1 76:1 80:1 84:1 
10 2:1 6:1 16:1 22:1 36:1 43:1 49:1 64:1 67:1 72:1 74:1 76:1 78:1 83:1 
-10 4:1 6:1 16:1 25:1 38:1 44:1 51:1 64:1 67:1 72:1 74:1 76:1 81:1 83:1 
-10 4:1 6:1 14:1 22:1 36:1 40:1 50:1 63:1 67:1 73:1 74:1 76:1 82:1 83:1 
-10 5:1 6:1 15:1 20:1 37:1 40:1 50:1 63:1 67:1 73:1 75:1 76:1 80:1 83:1 
-0.50520341938666002 2:1 6:1 18:1 21:1 35:1 40:1 48:1 63:1 67:1 73:1 74:1 76:1 80:1 83:1 
0.51468766088309847 1:1 17:1 20:1 37:1 42:1 62:1 67:1 73:1 74:1 76:1 78:1 87:1 
10 5:1 6:1 14:1 22:1 36:1 40:1 51:1 63:1 67:1 73:1 74:1 76:1 80:1 83:1 
-10 3:1 6:1 16:1 19:1 39:1 42:1 52:1 64:1 67:1 72:1 74:1 76:1 81:1 83:1 
10 3:1 6:1 17:1 22:1 36:1 40:1 48:1 61:1 67:1 72:1 74:1 76:1 80:1 83:1 
10 5:1 6:1 14:1 22:1 36:1 40:1 51:1 63:1 67:1 73:1 74:1 76:1 80:1 83:1 
4.0441867351601628 2:1 6:1 14:1 22:1 36:1 41:1 52:1 62:1 67:1 72:1 74:1 76:1 80:1 83:1 
-6.0104764740221075 4:1 6:1 18:1 22:1 36:1 40:1 53:1 63:1 71:1 73:1 74:1 76:1 80:1 83:1 
10 4:1 6:1 16:1 20:1 37:1 40:1 48:1 63:1 67:1 73:1 75:1 76:1 80:1 83:1 
-2.5106825720000501 3:1 6:1 16:1 20:1 37:1 42:1 51:1 64:1 67:1 72:1 74:1 76:1 80:1 83:1 
-2.2888295608087486 1:1 6:1 14:1 19:1 39:1 42:1 52:1 64:1 67:1 72:1 74:1 76:1 78:1 88:1 
10 4:1 10:1 14:1 20:1 37:1 40:1 48:1 63:1 67:1 73:1 75:1 76:1 80:1 83:1 
0.12425626401423494 3:1 6:1 16:1 24:1 38:1 41:1 50:1 66:1 71:1 72:1 74:1 76:1 81:1 83:1 
-10 5:1 6:1 16:1 19:1 39:1 41:1 52:1 64:1 67:1 72:1 74:1 76:1 81:1 83:1 
10 4:1 6:1 17:1 23:1 39:1 40:1 52:1 63:1 67:1 73:1 74:1 76:1 82:1 83:1 
0.034998069934474157 5:1 6:1 16:1 20:1 37:1 41:1 49:1 64:1 67:1 73:1 74:1 76:1 81:1 83:1 
-1.2708704815774887 5:1 6:1 16:1 27:1 35:1 40:1 48:1 63:1 67:1 73:1 74:1 76:1 80:1 109:1 
-10 2:1 6:1 17:1 19:1 39:1 42:1 47:1 66:1 71:1 72:1 74:1 76:1 80:1 83:1 
-10 3:1 8:1 14:1 19:1 39:1 41:1 50:1 64:1 67:1 72:1 74:1 76:1 82:1 83:1 
-10 3:1 15:1 29:1 39:1 40:1 61:1 68:1 72:1 75:1 76:1 80:1 
0.48296356148175085 3:1 6:1 16:1 22:1 36:1 41:1 50:1 64:1 67:1 73:1 74:1 76:1 82:1 83:1 
10 4:1 6:1 15:1 19:1 39:1 40:1 55:1 63:1 67:1 73:1 75:1 76:1 80:1 83:1 
10 2:1 6:1 17:1 22:1 36:1 40:1 57:1 63:1 67:1 73:1 74:1 76:1 81:1 83:1 
-1.1481463087940775 1:1 6:1 18:1 20:1 37:1 40:1 55:1 61:1 68:1 72:1 74:1 76:1 80:1 108:1 
0.021806776513612448 2:1 6:1 16:1 24:1 38:1 42:1 47:1 64:1 67:1 73:1 74:1 76:1 81:1 83:1 
0.44244507484461804 4:1 6:1 14:1 24:1 38:1 42:1 52:1 64:1 67:1 72:1 74:1 76:1 78:1 83:1 
10 3:1 6:1 16:1 24:1 38:1 40:1 55:1 63:1 67:1 73:1 74:1 76:1 80:1 83:1 
10 4:1 8:1 14:1 20:1 37:1 40:1 56:1 63:1 67:1 73:1 74:1 76:1 82:1 83:1 
0.63660822724006727 1:1 18:1 20:1 37:1 42:1 62:1 71:1 72:1 74:1 76:1 78:1 83:1 
10 3:1 7:1 17:1 19:1 39:1 41:1 52:1 64:1 71:1 72:1 74:1 76:1 80:1 83:1 
-10 5:1 7:1 15:1 20:1 37:1 40:1 50:1 63:1 67:1 73:1 74:1 76:1 80:1 83:1 
0.14079111022340091 2:1 6:1 18:1 20:1 37:1 42:1 47:1 64:1 67:1 72:1 74:1 76:1 80:1 83:1 
1.0122455189751054 5:1 6:1 16:1 22:1 36:1 44:1 49:1 64:1 67:1 72:1 74:1 76:1 78:1 83:1 
-10 3:1 7:1 16:1 22:1 36:1 40:1 51:1 63:1 67:1 73:1 74:1 76:1 80:1 83:1 
-10 4:1 6:1 14:1 20:1 37:1 40:1 48:1 63:1 67:1 73:1 74:1 77:1 82:1 83:1 
1.4161218331179684 3:1 6:1 16:1 22:1 36:1 41:1 57:1 64:1 67:1 73:1 74:1 76:1 81:1 83:1 
-1.2428146278577545 2:1 6:1 17:1 21:1 35:1 42:1 51:1 64:1 67:1 72:1 74:1 76:1 80:1 83:1 
-10 5:1 7:1 16:1 29:1 39:1 40:1 48:1 63:1 67:1 73:1 74:1 76:1 78:1 83:1 
0.93311911826793659 1:1 17:1 25:1 38:1 42:1 62:1 71:1 72:1 74:1 76:1 78:1 83:1 
10 4:1 6:1 16:1 20:1 37:1 40:1 52:1 61:1 67:1 72:1 74:1 77:1 82:1 83:1 
-10 5:1 6:1 15:1 22:1 36:1 42:1 57:1 64:1 67:1 73:1 75:1 76:1 82:1 83:1 
-0.19614759176207361 2:1 6:1 17:1 19:1 39:1 42:1 55:1 64:1 67:1 73:1 74:1 76:1 80:1 83:1 
0.022503388651134548 4:1 6:1 16:1 25:1 38:1 42:1 49:1 64:1 67:1 73:1 74:1 76:1 80:1 83:1 
-10 5:1 6:1 17:1 22:1 36:1 40:1 57:1 63:1 67:1 73:1 74:1 76:1 80:1 83:1 
-10 4:1 6:1 14:1 29:1 39:1 42:1 52:1 64:1 67:1 73:1 74:1 76:1 82:1 83:1 
2.1990446056947746 1:1 6:1 14:1 22:1 36:1 42:1 50:1 66:1 71:1 73:1 74:1 76:1 78:1 111:1 
-10 4:1 6:1 18:1 22:1 36:1 40:1 49:1 63:1 71:1 73:1 74:1 76:1 80:1 83:1 
1.25850948541924 2:1 6:1 14:1 24:1 38:1 42:1 50:1 64:1 67:1 73:1 74:1 76:1 80:1 83:1 
10 3:1 6:1 14:1 22:1 36:1 42:1 56:1 64:1 67:1 73:1 74:1 76:1 78:1 83:1 
0.68738518689000649 1:1 11:1 18:1 20:1 37:1 42:1 59:1 62:1 71:1 72:1 74:1 76:1 80:1 83:1 
-10 4:1 7:1 17:1 19:1 39:1 42:1 50:1 64:1 67:1 73:1 74:1 76:1 81:1 83:1 
-2.2395358113777233 5:1 14:1 21:1 35:1 40:1 63:1 67:1 73:1 74:1 76:1 78:1 83:1 
1.329178638098389 2:1 15:1 25:1 38:1 41:1 66:1 67:1 72:1 74:1 76:1 80:1 83:1 
2.0878136104467613 5:1 6:1 14:1 24:1 38:1 45:1 49:1 64:1 67:1 73:1 74:1 76:1 78:1 96:1 
-1.0822113337779744 2:1 6:1 16:1 22:1 36:1 40:1 49:1 63:1 67:1 73:1 74:1 76:1 80:1 83:1 
10 5:1 18:1 19:1 39:1 40:1 63:1 67:1 73:1 74:1 76:1 80:1 83:1 
10 3:1 9:1 14:1 22:1 36:1 40:1 55:1 63:1 67:1 73:1 74:1 76:1 80:1 83:1 
10 3:1 6:1 14:1 25:1 38:1 40:1 47:1 63:1 67:1 73:1 74:1 76:1 80:1 83:1 
-10 4:1 6:1 15:1 22:1 36:1 40:1 55:1 61:1 67:1 72:1 74:1 76:1 79:1 83:1 
-0.74406906326205702 2:1 7:1 15:1 26:1 35:1 40:1 48:1 63:1 67:1 73:1 74:1 76:1 80:1 104:1 
-10 3:1 6:1 18:1 31:1 35:1 40:1 49:1 61:1 67:1 72:1 74:1 76:1 78:1 83:1 
10 5:1 6:1 18:1 29:1 39:1 40:1 52:1 63:1 67:1 73:1 74:1 76:1 80:1 83:1 
-10 4:1 6:1 16:1 19:1 39:1 40:1 57:1 63:1 67:1 73:1 74:1 76:1 81:1 83:1 
10 4:1 6:1 16:1 19:1 39:1 41:1 51:1 64:1 67:1 73:1 74:1 77:1 81:1 83:1 
0.18991145021551706 1:1 6:1 18:1 22:1 36:1 45:1 50:1 64:1 67:1 73:1 74:1 76:1 82:1 83:1 
10 5:1 6:1 17:1 19:1 39:1 41:1 51:1 64:1 67:1 72:1 74:1 76:1 81:1 83:1 
0.58767357212368454 3:1 6:1 18:1 22:1 36:1 41:1 50:1 66:1 67:1 72:1 74:1 76:1 80:1 83:1 
10 3:1 11:1 16:1 25:1 38:1 40:1 54:1 63:1 67:1 73:1 74:1 76:1 79:1 83:1 
-4.0464458489347122 4:1 6:1 17:1 22:1 36:1 40:1 54:1 63:1 71:1 73:1 74:1 76:1 80:1 83:1 
0.2445151495776659 4:1 6:1 16:1 22:1 36:1 42:1 48:1 64:1 71:1 73:1 74:1 76:1 80:1 83:1 
1.5767099765367369 1:1 10:1 18:1 20:1 37:1 42:1 55:1 62:1 67:1 72:1 74:1 76:1 78:1 83:1 
-9.8339539935745943 3:1 6:1 18:1 22:1 36:1 40:1 48:1 61:1 67:1 72:1 74:1 76:1 80:1 83:1 
-10 4:1 7:1 14:1 29:1 39:1 41:1 51:1 64:1 67:1 73:1 74:1 76:1 78:1 83:1 
-10 3:1 6:1 16:1 22:1 36:1 40:1 50:1 63:1 67:1 73:1 74:1 76:1 82:1 83:1 
2.9122317954303347 5:1 6:1 16:1 22:1 36:1 41:1 57:1 64:1 67:1 73:1 74:1 76:1 80:1 83:1 
-10 4:1 6:1 17:1 33:1 35:1 41:1 48:1 64:1 67:1 72:1 74:1 77:1 81:1 83:1 
0.22917872458902494 4:1 6:1 15:1 20:1 37:1 41:1 50:1 64:1 67:1 72:1 74:1 76:1 80:1 83:1 
-6.7539178182474817 3:1 10:1 15:1 20:1 37:1 40:1 57:1 61:1 67:1 72:1 74:1 76:1 80:1 83:1 
2.2739094733787644 1:1 6:1 18:1 22:1 36:1 42:1 49:1 64:1 67:1 72:1 74:1 76:1 78:1 83:1 
10 4:1 6:1 16:1 20:1 37:1 40:1 55:1 61:1 67:1 72:1 74:1 77:1 78:1 83:1 
10 3:1 11:1 14:1 19:1 39:1 40:1 51:1 63:1 67:1 73:1 75:1 76:1 81:1 
0.64726901141583115 4:1 6:1 14:1 20:1 37:1 41:1 53:1 66:1 67:1 72:1 74:1 76:1 80:1 83:1 
10 1:1 6:1 14:1 19:1 39:1 40:1 51:1 63:1 67:1 73:1 74:1 76:1 82:1 83:1 
10 5:1 8:1 15:1 19:1 39:1 40:1 51:1 63:1 67:1 73:1 74:1 76:1 82:1 83:1 
0.043078764091349309 1:1 6:1 18:1 20:1 37:1 42:1 53:1 62:1 67:1 73:1 74:1 76:1 80:1 83:1 
10 5:1 11:1 18:1 19:1 39:1 40:1 59:1 63:1 67:1 73:1 74:1 76:1 80:1 83:1 
-10 2:1 6:1 16:1 27:1 35:1 40:1 53:1 63:1 70:1 73:1 74:1 77:1 80:1 86:1 
10 4:1 6:1 18:1 29:1 39:1 40:1 51:1 63:1 67:1 73:1 74:1 77:1 82:1 83:1 
-0.51146730118938244 2:1 6:1 15:1 22:1 36:1 40:1 55:1 63:1 67:1 73:1 74:1 76:1 80:1 83:1 
-1.4053069627898442 4:1 7:1 18:1 22:1 36:1 40:1 48:1 63:1 67:1 73:1 74:1 76:1 78:1 83:1 
-10 2:1 6:1 18:1 20:1 37:1 40:1 51:1 63:1 67:1 73:1 74:1 76:1 82:1 83:1 
2.8797365873652088 4:1 10:1 14:1 20:1 37:1 41:1 49:1 64:1 71:1 72:1 74:1 76:1 78:1 83:1 
2.5139355694672978 1:1 6:1 17:1 22:1 36:1 42:1 53:1 66:1 71:1 72:1 74:1 76:1 80:1 83:1 
-10 4:1 6:1 16:1 32:1 39:1 40:1 51:1 63:1 67:1 73:1 75:1 76:1 82:1 83:1 
-1.9277582004990996 2:1 11:1 18:1 20:1 37:1 40:1 54:1 63:1 67:1 73:1 74:1 76:1 80:1 83:1 
10 3:1 6:1 14:1 28:1 35:1 41:1 48:1 64:1 67:1 73:1 74:1 76:1 82:1 83:1 
-2.0539576586921058 5:1 6:1 16:1 30:1 35:1 40:1 54:1 63:1 67:1 73:1 74:1 76:1 80:1 103:1 
0.8813101118355221 3:1 10:1 17:1 21:1 35:1 43:1 54:1 64:1 71:1 73:1 74:1 76:1 80:1 83:1 
10 3:1 11:1 17:1 22:1 36:1 41:1 57:1 66:1 67:1 72:1 74:1 76:1 80:1 83:1 
10 2:1 11:1 14:1 19:1 39:1 40:1 51:1 61:1 67:1 72:1 74:1 76:1 80:1 83:1 
1.8011649544448323 3:1 6:1 17:1 31:1 35:1 42:1 48:1 66:1 67:1 72:1 74:1 76:1 79:1 83:1 
-8.0990425015519012 1:1 6:1 15:1 22:1 36:1 40:1 57:1 63:1 67:1 73:1 74:1 76:1 82:1 83:1 
-10 3:1 9:1 17:1 29:1 39:1 42:1 52:1 64:1 67:1 73:1 74:1 77:1 80:1 83:1 
0.68581756580597841 1:1 6:1 17:1 22:1 36:1 42:1 53:1 64:1 67:1 73:1 74:1 76:1 82:1 107:1 
10 5:1 8:1 17:1 22:1 36:1 40:1 51:1 63:1 67:1 73:1 74:1 76:1 80:1 83:1 
-10 3:1 7:1 17:1 19:1 39:1 45:1 52:1 64:1 67:1 72:1 75:1 76:1 80:1 83:1 
10 2:1 6:1 14:1 24:1 38:1 40:1 49:1 61:1 67:1 72:1 74:1 76:1 78:1 83:1 
-10 2:1 6:1 15:1 20:1 37:1 42:1 48:1 62:1 68:1 73:1 74:1 77:1 80:1 98:1 
-10 3:1 10:1 18:1 22:1 36:1 42:1 56:1 64:1 71:1 73:1 75:1 76:1 82:1 83:1 
-3.7718424004283437 1:1 6:1 14:1 20:1 37:1 40:1 55:1 63:1 67:1 73:1 74:1 76:1 80:1 83:1 
-0.39419907368168522 2:1 6:1 18:1 19:1 39:1 42:1 52:1 64:1 67:1 73:1 74:1 76:1 80:1 83:1 
10 4:1 6:1 15:1 20:1 37:1 40:1 52:1 63:1 67:1 73:1 74:1 76:1 80:1 83:1 
2.2138181591747657 2:1 6:1 18:1 26:1 35:1 42:1 48:1 65:1 67:1 73:1 74:1 76:1 80:1 103:1 
0.24778638686978963 1:1 6:1 18:1 20:1 37:1 42:1 50:1 64:1 67:1 73:1 74:1 76:1 79:1 83:1 
-5.3292859202162246 4:1 6:1 18:1 22:1 36:1 44:1 51:1 66:1 71:1 72:1 74:1 76:1 80:1 83:1 
-3.3958917401918516 5:1 6:1 14:1 22:1 36:1 40:1 48:1 63:1 69:1 73:1 74:1 76:1 80:1 83:1 
-0.15478489923043912 1:1 6:1 15:1 22:1 36:1 40:1 54:1 63:1 67:1 73:1 74:1 76:1 80:1 83:1 
10 4:1 8:1 17:1 20:1 37:1 40:1 48:1 63:1 67:1 73:1 74:1 76:1 82:1 83:1 
10 4:1 6:1 17:1 24:1 38:1 40:1 51:1 63:1 71:1 73:1 74:1 76:1 80:1 
10 4:1 7:1 17:1 22:1 36:1 40:1 50:1 61:1 67:1 72:1 74:1 76:1 80:1 83:1 
-10 2:1 6:1 16:1 22:1 36:1 40:1 51:1 61:1 67:1 72:1 74:1 76:1 80:1 83:1 
-10 3:1 6:1 18:1 20:1 37:1 40:1 57:1 63:1 71:1 73:1 74:1 76:1 82:1 83:1 
-1.7407579152974428 1:1 6:1 14:1 22:1 36:1 40:1 57:1 63:1 67:1 73:1 74:1 76:1 82:1 83:1 
-10 2:1 15:1 20:1 37:1 40:1 63:1 67:1 73:1 74:1 76:1 80:1 83:1 
-10 2:1 6:1 15:1 19:1 39:1 40:1 52:1 63:1 67:1 73:1 74:1 76:1 82:1 83:1 
-4.3464329554573418 1:1 6:1 16:1 19:1 39:1 42:1 47:1 64:1 67:1 72:1 74:1 76:1 78:1 83:1 
-10 3:1 6:1 14:1 20:1 37:1 40:1 57:1 63:1 67:1 73:1 74:1 76:1 80:1 83:1 
10 2:1 6:1 15:1 19:1 39:1 40:1 47:1 61:1 67:1 72:1 74:1 76:1 78:1 83:1 
10 5:1 6:1 17:1 20:1 37:1 42:1 52:1 66:1 67:1 73:1 74:1 76:1 80:1 83:1 
0.70314741702609718 2:1 6:1 18:1 22:1 36:1 42:1 57:1 64:1 67:1 73:1 74:1 76:1 82:1 83:1 
1.1242732090541085 5:1 6:1 14:1 25:1 38:1 41:1 49:1 64:1 67:1 72:1 74:1 76:1 78:1 83:1 
7.4373032242674526 1:1 6:1 17:1 26:1 35:1 42:1 49:1 64:1 67:1 73:1 74:1 76:1 78:1 83:1 
4.8021165759003717 2:1 6:1 16:1 31:1 35:1 42:1 49:1 64:1 67:1 73:1 74:1 76:1 80:1 83:1 
-10 3:1 6:1 15:1 24:1 38:1 40:1 48:1 63:1 67:1 73:1 74:1 76:1 81:1 104:1 
-7.198007622762864 4:1 7:1 16:1 20:1 37:1 40:1 48:1 63:1 67:1 73:1 74:1 76:1 78:1 83:1 
0.39750614674823881 4:1 6:1 16:1 22:1 36:1 45:1 48:1 66:1 67:1 72:1 74:1 76:1 80:1 83:1 
0.22277327122466795 1:1 6:1 16:1 20:1 37:1 45:1 55:1 62:1 71:1 72:1 74:1 76:1 78:1 83:1 
-6.0419558144227645 5:1 18:1 30:1 35:1 40:1 63:1 67:1 73:1 74:1 76:1 79:1 83:1 
-10 4:1 10:1 16:1 19:1 39:1 41:1 52:1 66:1 67:1 72:1 74:1 76:1 80:1 83:1 
-5.233532147843805 3:1 6:1 14:1 24:1 38:1 42:1 51:1 64:1 67:1 72:1 74:1 76:1 82:1 83:1 
1.07234176428332 3:1 6:1 16:1 22:1 36:1 41:1 52:1 66:1 67:1 72:1 74:1 76:1 78:1 83:1 
-1.38292217054067 3:1 6:1 16:1 19:1 39:1 42:1 48:1 62:1 67:1 73:1 74:1 76:1 78:1 83:1 
0.084024154391818567 1:1 6:1 18:1 20:1 37:1 42:1 54:1 62:1 67:1 73:1 74:1 76:1 80:1 83:1 
1.3715819062617183 1:1 6:1 18:1 33:1 35:1 42:1 49:1 62:1 67:1 73:1 74:1 76:1 80:1 119:1 
2.0866590655839539 2:1 6:1 14:1 20:1 37:1 42:1 52:1 64:1 67:1 72:1 74:1 76:1 79:1 83:1 
10 1:1 10:1 18:1 22:1 36:1 42:1 56:1 64:1 67:1 73:1 74:1 76:1 80:1 100:1 
-10 5:1 6:1 14:1 20:1 37:1 40:1 55:1 63:1 67:1 73:1 74:1 76:1 80:1 83:1 
0.015383498833411727 5:1 6:1 16:1 20:1 37:1 41:1 49:1 66:1 67:1 72:1 74:1 76:1 81:1 106:1 
-10 1:1 6:1 18:1 19:1 39:1 42:1 51:1 64:1 71:1 73:1 74:1 76:1 80:1 83:1 
0.05262303486418405 4:1 10:1 18:1 22:1 36:1 43:1 55:1 66:1 71:1 72:1 74:1 76:1 80:1 83:1 
-10 4:1 6:1 15:1 25:1 38:1 45:1 53:1 66:1 67:1 73:1 74:1 77:1 81:1 83:1 
2.2645093628836213 5:1 17:1 33:1 35:1 44:1 66:1 71:1 72:1 74:1 76:1 78:1 83:1 
10 3:1 6:1 18:1 20:1 37:1 40:1 52:1 63:1 67:1 73:1 74:1 76:1 82:1 83:1 
0.11700316414087376 5:1 17:1 25:1 38:1 44:1 66:1 67:1 72:1 74:1 76:1 79:1 83:1 
2.4562971873262667 1:1 6:1 18:1 20:1 37:1 42:1 55:1 64:1 69:1 72:1 74:1 76:1 78:1 83:1 
0.78768595971565436 1:1 17:1 20:1 37:1 42:1 66:1 67:1 72:1 74:1 76:1 79:1 83:1 
10 3:1 6:1 15:1 19:1 39:1 40:1 52:1 63:1 67:1 73:1 74:1 76:1 82:1 83:1 
10 5:1 6:1 16:1 22:1 36:1 40:1 51:1 63:1 67:1 73:1 75:1 76:1 82:1 83:1 
0.35819836891947754 1:1 10:1 17:1 20:1 37:1 41:1 53:1 64:1 71:1 73:1 74:1 76:1 82:1 83:1 
10 3:1 10:1 16:1 20:1 37:1 40:1 47:1 63:1 67:1 73:1 74:1 76:1 81:1 83:1 
10 4:1 6:1 16:1 20:1 37:1 41:1 54:1 66:1 67:1 73:1 74:1 76:1 82:1 83:1 
-9.577593242298942 2:1 6:1 14:1 20:1 37:1 40:1 50:1 61:1 67:1 72:1 74:1 76:1 80:1 83:1 
10 4:1 6:1 17:1 19:1 39:1 40:1 51:1 63:1 67:1 73:1 74:1 76:1 80:1 83:1 
-10 4:1 7:1 17:1 29:1 39:1 40:1 52:1 63:1 67:1 73:1 74:1 76:1 80:1 83:1 
0.060934823340700134 4:1 6:1 15:1 21:1 35:1 41:1 54:1 66:1 70:1 72:1 74:1 76:1 81:1 86:1 
-0.86815464838142598 3:1 6:1 17:1 22:1 36:1 40:1 49:1 63:1 71:1 73:1 74:1 76:1 80:1 83:1 
10 4:1 6:1 14:1 24:1 38:1 40:1 51:1 61:1 67:1 72:1 74:1 76:1 82:1 83:1 
-10 5:1 6:1 17:1 23:1 39:1 40:1 52:1 63:1 67:1 73:1 75:1 76:1 82:1 83:1 
-10 3:1 10:1 17:1 28:1 35:1 40:1 47:1 63:1 67:1 73:1 74:1 76:1 82:1 83:1 
3.0120800349607517 5:1 6:1 16:1 30:1 35:1 44:1 58:1 64:1 71:1 72:1 74:1 76:1 78:1 83:1 
1.3253929676993819 2:1 6:1 14:1 25:1 38:1 43:1 48:1 64:1 67:1 73:1 74:1 76:1 80:1 83:1 
-10 2:1 8:1 14:1 19:1 39:1 42:1 56:1 64:1 67:1 72:1 74:1 76:1 81:1 83:1 
1.1087284273457707 3:1 16:1 22:1 36:1 42:1 66:1 71:1 72:1 74:1 76:1 80:1 83:1 
-10 4:1 6:1 17:1 20:1 37:1 40:1 57:1 63:1 67:1 73:1 74:1 76:1 80:1 83:1 
-10 2:1 6:1 15:1 32:1 39:1 42:1 52:1 62:1 67:1 73:1 74:1 76:1 80:1 83:1 
2.1241277564794498 2:1 6:1 17:1 20:1 37:1 42:1 53:1 66:1 67:1 72:1 74:1 76:1 80:1 83:1 
-10 2:1 6:1 17:1 20:1 37:1 40:1 50:1 63:1 67:1 73:1 74:1 76:1 82:1 83:1 
5.7776099582869866 2:1 6:1 14:1 22:1 36:1 42:1 53:1 64:1 67:1 72:1 74:1 76:1 81:1 83:1 
-10 4:1 7:1 17:1 20:1 37:1 41:1 51:1 64:1 67:1 73:1 74:1 76:1 82:1 83:1 
0.28702361723261755 5:1 6:1 17:1 21:1 35:1 44:1 55:1 66:1 67:1 72:1 74:1 76:1 80:1 83:1 
-9.1510068612994573 3:1 6:1 17:1 22:1 36:1 40:1 54:1 61:1 71:1 72:1 74:1 76:1 80:1 83:1 
10 3:1 9:1 18:1 25:1 38:1 41:1 48:1 66:1 71:1 72:1 74:1 76:1 80:1 83:1 
-0.25073425190349469 3:1 6:1 14:1 22:1 36:1 40:1 54:1 63:1 67:1 73:1 74:1 76:1 80:1 83:1 
10 2:1 6:1 18:1 22:1 36:1 43:1 55:1 66:1 67:1 72:1 74:1 76:1 78:1 
-10 3:1 6:1 15:1 22:1 36:1 40:1 47:1 61:1 67:1 72:1 74:1 76:1 78:1 83:1 
-0.9958374250999279 2:1 6:1 15:1 21:1 35:1 40:1 49:1 63:1 67:1 73:1 74:1 76:1 80:1 103:1 
10 5:1 7:1 18:1 19:1 39:1 40:1 52:1 63:1 67:1 73:1 74:1 76:1 82:1 83:1 
0.21237858799884785 1:1 6:1 14:1 22:1 36:1 42:1 53:1 62:1 69:1 73:1 74:1 76:1 82:1 83:1 
0.065100637953290422 4:1 6:1 18:1 27:1 35:1 43:1 49:1 66:1 67:1 72:1 74:1 76:1 80:1 103:1 
10 2:1 7:1 15:1 22:1 36:1 43:1 48:1 64:1 67:1 73:1 74:1 76:1 79:1 83:1 
-10 4:1 6:1 14:1 29:1 39:1 41:1 51:1 66:1 67:1 73:1 74:1 76:1 81:1 83:1 
10 2:1 6:1 18:1 19:1 39:1 40:1 51:1 61:1 67:1 73:1 74:1 76:1 80:1 83:1 
1.1081041868886787 1:1 16:1 28:1 35:1 42:1 62:1 67:1 73:1 74:1 76:1 78:1 83:1 
2.9989801131812093 3:1 7:1 14:1 24:1 38:1 41:1 50:1 66:1 67:1 72:1 74:1 76:1 79:1 83:1 
-6.1994190185324287 5:1 10:1 18:1 19:1 39:1 42:1 52:1 64:1 67:1 72:1 74:1 76:1 80:1 83:1 
10 5:1 16:1 20:1 37:1 40:1 63:1 67:1 73:1 74:1 76:1 78:1 83:1 
10 5:1 6:1 14:1 22:1 36:1 40:1 50:1 63:1 67:1 73:1 74:1 76:1 80:1 83:1 
-0.14397426008667433 5:1 6:1 17:1 22:1 36:1 40:1 48:1 63:1 67:1 73:1 74:1 76:1 80:1 83:1 
-4.8010221155715662 2:1 7:1 18:1 19:1 39:1 42:1 47:1 64:1 67:1 73:1 74:1 76:1 80:1 83:1 
0.14901300010564478 1:1 6:1 15:1 21:1 35:1 42:1 49:1 62:1 67:1 73:1 74:1 76:1 80:1 83:1 
10 5:1 6:1 14:1 31:1 35:1 40:1 48:1 63:1 67:1 73:1 74:1 77:1 81:1 83:1 
-10 5:1 8:1 14:1 19:1 39:1 41:1 52:1 64:1 67:1 73:1 74:1 76:1 82:1 83:1 
-10 4:1 15:1 22:1 36:1 40:1 63:1 67:1 73:1 74:1 76:1 80:1 83:1 
-10 5:1 14:1 22:1 36:1 40:1 61:1 68:1 72:1 74:1 76:1 80:1 83:1 
10 5:1 6:1 14:1 27:1 35:1 42:1 57:1 64:1 67:1 73:1 74:1 76:1 82:1 83:1 
10 2:1 6:1 16:1 19:1 39:1 40:1 52:1 63:1 67:1 73:1 75:1 76:1 80:1 87:1 
-0.79148299579883497 1:1 6:1 15:1 19:1 39:1 42:1 55:1 62:1 67:1 72:1 74:1 76:1 80:1 83:1 
0.31993335612813312 2:1 6:1 18:1 22:1 36:1 42:1 50:1 62:1 67:1 73:1 74:1 76:1 80:1 83:1 
9.3338702599291388 1:1 14:1 20:1 37:1 42:1 66:1 69:1 72:1 74:1 76:1 78:1 83:1 
10 4:1 7:1 17:1 23:1 39:1 40:1 52:1 63:1 67:1 73:1 74:1 77:1 82:1 83:1 
-10 1:1 6:1 17:1 20:1 37:1 42:1 47:1 64:1 67:1 73:1 75:1 76:1 80:1 83:1 
-10 4:1 6:1 15:1 19:1 39:1 42:1 52:1 64:1 67:1 72:1 74:1 76:1 81:1 83:1 
9.8604010984364052 5:1 6:1 14:1 27:1 35:1 41:1 49:1 64:1 67:1 72:1 74:1 76:1 80:1 83:1 
-9.2517224664154671 4:1 10:1 16:1 26:1 35:1 40:1 49:1 63:1 67:1 73:1 74:1 76:1 80:1 83:1 
10 3:1 7:1 16:1 24:1 38:1 42:1 56:1 64:1 67:1 73:1 74:1 76:1 80:1 83:1 
10 5:1 6:1 18:1 29:1 39:1 40:1 48:1 63:1 67:1 73:1 74:1 76:1 80:1 83:1 
10 2:1 6:1 16:1 22:1 36:1 42:1 48:1 64:1 69:1 73:1 74:1 76:1 80:1 83:1 
-1.6365799656649982 3:1 10:1 18:1 22:1 36:1 43:1 51:1 64:1 71:1 73:1 74:1 76:1 80:1 83:1 
-10 5:1 6:1 17:1 29:1 39:1 41:1 52:1 64:1 67:1 72:1 75:1 76:1 82:1 83:1 
-10 2:1 10:1 17:1 19:1 39:1 42:1 52:1 62:1 67:1 73:1 75:1 76:1 80:1 83:1 
-0.93140698898545948 2:1 6:1 15:1 19:1 39:1 42:1 49:1 62:1 67:1 72:1 74:1 76:1 78:1 83:1 
0.025814610711003577 3:1 6:1 17:1 22:1 36:1 42:1 53:1 62:1 67:1 73:1 74:1 76:1 82:1 83:1 
-4.2917071306222034 2:1 6:1 18:1 22:1 36:1 40:1 57:1 63:1 71:1 73:1 74:1 76:1 81:1 83:1 
-10 5:1 7:1 15:1 22:1 36:1 40:1 51:1 63:1 67:1 73:1 74:1 76:1 78:1 83:1 
-10 5:1 8:1 14:1 19:1 39:1 40:1 50:1 63:1 67:1 73:1 74:1 76:1 82:1 83:1 
-1.2450301581130885 1:1 6:1 16:1 19:1 39:1 42:1 50:1 62:1 67:1 72:1 74:1 76:1 78:1 83:1 
0.1191502599794578 4:1 6:1 18:1 21:1 35:1 44:1 49:1 64:1 71:1 72:1 74:1 76:1 78:1 83:1 
0.46074324453285037 5:1 6:1 15:1 26:1 35:1 44:1 58:1 66:1 71:1 72:1 74:1 76:1 78:1 83:1 
0.3313839434631532 2:1 6:1 15:1 22:1 36:1 42:1 56:1 62:1 71:1 73:1 74:1 76:1 82:1 83:1 
10 3:1 6:1 15:1 22:1 36:1 40:1 50:1 63:1 67:1 73:1 74:1 76:1 81:1 83:1 
-10 3:1 7:1 18:1 22:1 36:1 40:1 50:1 63:1 67:1 73:1 74:1 76:1 82:1 83:1 
10 3:1 6:1 17:1 20:1 37:1 40:1 51:1 63:1 67:1 73:1 74:1 76:1 80:1 83:1 
10 4:1 6:1 18:1 19:1 39:1 40:1 50:1 63:1 67:1 73:1 74:1 76:1 78:1 83:1 
0.40303393374309898 4:1 7:1 16:1 20:1 37:1 42:1 49:1 66:1 71:1 72:1 74:1 76:1 80:1 83:1 
10 4:1 6:1 15:1 20:1 37:1 40:1 48:1 63:1 67:1 73:1 75:1 76:1 82:1 83:1 
10 2:1 6:1 14:1 19:1 39:1 40:1 55:1 61:1 71:1 72:1 74:1 76:1 80:1 83:1 
-10 4:1 8:1 17:1 33:1 35:1 40:1 57:1 63:1 67:1 73:1 74:1 76:1 82:1 95:1 
10 5:1 7:1 18:1 32:1 39:1 40:1 52:1 63:1 67:1 73:1 74:1 76:1 82:1 83:1 
-0.27712398052573939 5:1 6:1 17:1 22:1 36:1 40:1 48:1 63:1 67:1 73:1 74:1 76:1 80:1 83:1 
10 3:1 6:1 16:1 20:1 37:1 40:1 50:1 63:1 67:1 73:1 75:1 76:1 82:1 83:1 
-4.5958874425891851 2:1 6:1 14:1 20:1 37:1 40:1 48:1 63:1 67:1 73:1 74:1 76:1 81:1 83:1 
10 5:1 8:1 16:1 32:1 39:1 43:1 52:1 64:1 67:1 73:1 74:1 76:1 80:1 83:1 
10 2:1 10:1 18:1 22:1 36:1 41:1 55:1 66:1 67:1 72:1 74:1 76:1 80:1 83:1 
-2.3081085655584341 5:1 6:1 14:1 22:1 36:1 40:1 48:1 63:1 67:1 73:1 74:1 76:1 78:1 83:1 
-10 5:1 15:1 22:1 36:1 40:1 63:1 67:1 73:1 74:1 76:1 82:1 83:1 
10 2:1 11:1 16:1 19:1 39:1 40:1 47:1 63:1 67:1 73:1 74:1 76:1 80:1 83:1 
10 3:1 6:1 18:1 32:1 39:1 40:1 52:1 63:1 68:1 73:1 74:1 76:1 80:1 110:1 
10 2:1 6:1 18:1 22:1 36:1 42:1 54:1 62:1 67:1 72:1 74:1 76:1 78:1 83:1 
-10 3:1 6:1 15:1 22:1 36:1 40:1 48:1 63:1 67:1 73:1 74:1 76:1 81:1 83:1 
-10 4:1 6:1 17:1 27:1 35:1 40:1 48:1 63:1 67:1 73:1 74:1 76:1 79:1 83:1 
10 4:1 6:1 16:1 22:1 36:1 40:1 54:1 63:1 67:1 73:1 74:1 76:1 80:1 83:1 
-10 3:1 6:1 18:1 29:1 39:1 42:1 50:1 64:1 67:1 73:1 74:1 76:1 82:1 83:1 
0.64445033571495081 2:1 6:1 15:1 20:1 37:1 42:1 52:1 64:1 67:1 73:1 74:1 76:1 80:1 83:1 
-10 4:1 10:1 16:1 29:1 39:1 42:1 52:1 64:1 67:1 73:1 74:1 76:1 79:1 83:1 
-10 2:1 11:1 17:1 20:1 37:1 40:1 57:1 63:1 67:1 73:1 75:1 76:1 80:1 83:1 
10 4:1 6:1 17:1 22:1 36:1 40:1 48:1 63:1 71:1 73:1 74:1 76:1 80:1 83:1 
-4.209025649408118 1:1 15:1 21:1 35:1 45:1 62:1 68:1 72:1 74:1 77:1 80:1 93:1 
-2.7385802713429004 1:1 6:1 16:1 26:1 35:1 42:1 54:1 64:1 67:1 73:1 74:1 77:1 80:1 83:1 
-10 4:1 9:1 15:1 20:1 37:1 41:1 51:1 64:1 67:1 73:1 74:1 76:1 80:1 83:1 
10 3:1 6:1 16:1 19:1 39:1 40:1 51:1 63:1 67:1 73:1 74:1 76:1 80:1 83:1 
-10 1:1 6:1 17:1 22:1 36:1 42:1 50:1 62:1 67:1 72:1 75:1 76:1 80:1 83:1 
-4.2641637163064763 2:1 6:1 17:1 20:1 37:1 40:1 55:1 63:1 67:1 73:1 74:1 76:1 80:1 103:1 
-6.1017011293353809 5:1 7:1 17:1 22:1 36:1 44:1 51:1 64:1 67:1 73:1 74:1 76:1 82:1 83:1 
0.071268738295123729 2:1 10:1 14:1 22:1 36:1 42:1 59:1 62:1 67:1 73:1 74:1 76:1 82:1 83:1 
10 1:1 11:1 14:1 21:1 35:1 42:1 55:1 62:1 67:1 72:1 74:1 76:1 78:1 83:1 
-8.9218980633436011 5:1 10:1 15:1 20:1 37:1 40:1 56:1 63:1 67:1 73:1 74:1 76:1 80:1 83:1 
0.06356685384390949 1:1 6:1 15:1 20:1 37:1 42:1 54:1 62:1 71:1 72:1 74:1 76:1 81:1 83:1 
-10 4:1 6:1 18:1 20:1 37:1 40:1 52:1 63:1 67:1 73:1 74:1 76:1 82:1 83:1 
-1.1942509331702771 1:1 11:1 18:1 19:1 39:1 42:1 47:1 64:1 67:1 72:1 74:1 76:1 78:1 83:1 
10 2:1 6:1 15:1 29:1 39:1 40:1 47:1 63:1 67:1 73:1 74:1 77:1 80:1 83:1 
-10 3:1 10:1 15:1 19:1 39:1 42:1 52:1 64:1 67:1 73:1 74:1 76:1 82:1 83:1 
-0.95356460626032458 2:1 7:1 14:1 20:1 37:1 40:1 48:1 63:1 67:1 73:1 74:1 76:1 80:1 83:1 
10 4:1 6:1 14:1 19:1 39:1 41:1 51:1 62:1 67:1 72:1 74:1 76:1 82:1 83:1 
-10 3:1 6:1 17:1 28:1 35:1 40:1 49:1 63:1 71:1 73:1 74:1 76:1 80:1 101:1 
-7.5796902113457669 5:1 6:1 16:1 22:1 36:1 40:1 48:1 63:1 67:1 73:1 74:1 76:1 79:1 83:1 
1.0780596133433142 3:1 6:1 14:1 20:1 37:1 41:1 55:1 66:1 71:1 72:1 74:1 76:1 80:1 83:1 
-10 3:1 6:1 18:1 19:1 39:1 43:1 52:1 64:1 67:1 73:1 74:1 76:1 80:1 
-10 3:1 6:1 15:1 25:1 38:1 40:1 47:1 63:1 67:1 73:1 75:1 76:1 80:1 83:1 
-2.9045958464216581 3:1 10:1 18:1 19:1 39:1 41:1 55:1 66:1 67:1 72:1 74:1 76:1 79:1 97:1 
1.0695958976023858 2:1 6:1 18:1 22:1 36:1 43:1 49:1 66:1 71:1 72:1 74:1 76:1 80:1 83:1 
-0.82798609927179223 3:1 6:1 16:1 22:1 36:1 40:1 54:1 63:1 67:1 73:1 74:1 76:1 80:1 83:1 
0.50769223017184006 1:1 11:1 18:1 22:1 36:1 42:1 47:1 62:1 67:1 72:1 74:1 76:1 80:1 83:1 
10 3:1 6:1 17:1 19:1 39:1 40:1 51:1 63:1 67:1 73:1 74:1 76:1 81:1 83:1 
-10 2:1 6:1 18:1 19:1 39:1 42:1 52:1 64:1 67:1 73:1 75:1 76:1 80:1 83:1 
10 5:1 10:1 14:1 22:1 36:1 40:1 51:1 63:1 67:1 73:1 74:1 76:1 81:1 83:1 
10 4:1 6:1 16:1 19:1 39:1 40:1 51:1 63:1 67:1 73:1 75:1 76:1 81:1 83:1 
10 4:1 6:1 16:1 19:1 39:1 42:1 52:1 64:1 67:1 73:1 74:1 76:1 80:1 
-10 2:1 6:1 17:1 22:1 36:1 40:1 49:1 63:1 67:1 73:1 74:1 76:1 80:1 103:1 
0.60356937518384213 5:1 6:1 16:1 20:1 37:1 41:1 55:1 64:1 68:1 72:1 74:1 76:1 80:1 83:1 
-10 2:1 6:1 16:1 25:1 38:1 40:1 55:1 63:1 67:1 73:1 74:1 77:1 81:1 83:1 
0.16336390165121903 1:1 6:1 18:1 25:1 38:1 42:1 49:1 62:1 67:1 72:1 74:1 76:1 78:1 83:1 
-10 4:1 14:1 20:1 37:1 40:1 61:1 71:1 72:1 74:1 76:1 80:1 83:1 
-10 3:1 6:1 17:1 20:1 37:1 40:1 48:1 63:1 67:1 73:1 75:1 76:1 80:1 83:1 
0.45822028917759389 3:1 6:1 15:1 20:1 37:1 42:1 50:1 64:1 71:1 72:1 74:1 76:1 79:1 83:1 
-10 4:1 11:1 18:1 19:1 39:1 40:1 52:1 63:1 67:1 73:1 74:1 76:1 82:1 83:1 
-10 5:1 6:1 15:1 22:1 36:1 44:1 49:1 66:1 71:1 72:1 75:1 76:1 78:1 83:1 
10 4:1 6:1 18:1 19:1 39:1 40:1 47:1 63:1 67:1 73:1 74:1 76:1 80:1 83:1 
-5.9181042970194397 5:1 7:1 17:1 22:1 36:1 40:1 57:1 63:1 67:1 73:1 74:1 76:1 82:1 83:1 
9.8460130444660425 4:1 6:1 15:1 29:1 39:1 42:1 51:1 64:1 67:1 72:1 75:1 76:1 82:1 83:1 
10 4:1 10:1 15:1 19:1 39:1 40:1 52:1 61:1 67:1 72:1 74:1 76:1 80:1 83:1 
10 5:1 6:1 17:1 22:1 36:1 40:1 57:1 63:1 67:1 73:1 75:1 76:1 80:1 83:1 
4.4950078394013753 2:1 6:1 18:1 21:1 35:1 42:1 48:1 62:1 71:1 73:1 74:1 76:1 80:1 111:1 
-10 4:1 11:1 16:1 19:1 39:1 40:1 52:1 63:1 67:1 73:1 74:1 76:1 79:1 83:1 
-7.870064697613925 1:1 6:1 17:1 19:1 39:1 42:1 52:1 66:1 67:1 73:1 74:1 76:1 78:1 83:1 
-8.6572521113580194 5:1 7:1 14:1 31:1 35:1 40:1 48:1 63:1 67:1 73:1 74:1 76:1 80:1 83:1 
0.42390355268572338 1:1 6:1 15:1 22:1 36:1 42:1 57:1 66:1 67:1 73:1 74:1 76:1 82:1 83:1 
10 4:1 9:1 16:1 22:1 36:1 40:1 55:1 61:1 67:1 72:1 74:1 76:1 80:1 83:1 
10 3:1 6:1 14:1 22:1 36:1 42:1 49:1 64:1 67:1 72:1 74:1 76:1 78:1 83:1 
-10 1:1 6:1 15:1 20:1 37:1 40:1 50:1 61:1 67:1 72:1 74:1 76:1 78:1 88:1 
-10 4:1 7:1 14:1 19:1 39:1 41:1 50:1 64:1 67:1 72:1 74:1 76:1 82:1 83:1 
10 2:1 6:1 16:1 22:1 36:1 42:1 54:1 64:1 67:1 73:1 74:1 76:1 80:1 83:1 
10 2:1 6:1 16:1 20:1 37:1 42:1 56:1 64:1 67:1 72:1 74:1 76:1 79:1 83:1 
0.50755154973508199 2:1 6:1 17:1 22:1 36:1 41:1 48:1 66:1 67:1 73:1 74:1 76:1 82:1 83:1 
10 3:1 6:1 18:1 25:1 38:1 40:1 47:1 61:1 67:1 72:1 74:1 76:1 78:1 83:1 
0.4352736761482926 5:1 6:1 15:1 22:1 36:1 42:1 50:1 64:1 67:1 73:1 74:1 76:1 79:1 83:1 
0.014772415350910896 1:1 10:1 18:1 25:1 38:1 41:1 47:1 64:1 67:1 73:1 74:1 76:1 82:1 83:1 
-10 3:1 6:1 14:1 29:1 39:1 40:1 52:1 63:1 67:1 73:1 74:1 76:1 80:1 
10 4:1 6:1 17:1 19:1 39:1 40:1 50:1 63:1 67:1 73:1 74:1 76:1 82:1 83:1 
-9.2313977679782155 4:1 11:1 15:1 20:1 37:1 40:1 48:1 63:1 67:1 73:1 74:1 76:1 80:1 
10 3:1 6:1 15:1 25:1 38:1 40:1 51:1 63:1 67:1 73:1 74:1 76:1 82:1 83:1 
-10 4:1 7:1 14:1 20:1 37:1 40:1 51:1 63:1 67:1 73:1 74:1 76:1 82:1 83:1 
10 3:1 6:1 17:1 19:1 39:1 42:1 50:1 64:1 70:1 72:1 74:1 76:1 82:1 83:1 
0.067137858575542469 4:1 6:1 16:1 20:1 37:1 41:1 55:1 64:1 71:1 72:1 74:1 76:1 79:1 83:1 
-10 5:1 7:1 14:1 22:1 36:1 40:1 56:1 63:1 67:1 73:1 74:1 77:1 82:1 83:1 
-1.1146062944587105 5:1 16:1 22:1 36:1 40:1 63:1 67:1 73:1 74:1 76:1 78:1 83:1 
-10 1:1 15:1 22:1 36:1 42:1 64:1 67:1 72:1 75:1 76:1 80:1 83:1 
-10 4:1 8:1 14:1 19:1 39:1 40:1 47:1 63:1 67:1 73:1 74:1 76:1 80:1 83:1 
-10 1:1 6:1 17:1 22:1 36:1 42:1 50:1 64:1 67:1 72:1 75:1 76:1 80:1 83:1 
10 5:1 6:1 14:1 22:1 36:1 40:1 57:1 63:1 67:1 73:1 74:1 76:1 82:1 83:1 
0.095925727010558598 1:1 6:1 16:1 20:1 37:1 42:1 49:1 65:1 71:1 73:1 74:1 76:1 78:1 83:1 
10 4:1 6:1 14:1 29:1 39:1 42:1 47:1 64:1 67:1 73:1 74:1 76:1 79:1 83:1 
0.12633102975261779 4:1 6:1 15:1 24:1 38:1 41:1 48:1 64:1 67:1 73:1 74:1 76:1 80:1 83:1 
-6.0421740827839461 1:1 6:1 14:1 22:1 36:1 42:1 49:1 62:1 71:1 73:1 74:1 77:1 78:1 83:1 
10 5:1 7:1 18:1 21:1 35:1 42:1 56:1 66:1 67:1 73:1 74:1 76:1 78:1 83:1 
10 2:1 6:1 17:1 22:1 36:1 40:1 48:1 63:1 67:1 73:1 75:1 76:1 82:1 83:1 
-10 5:1 14:1 29:1 39:1 45:1 65:1 67:1 73:1 74:1 76:1 80:1 83:1 
10 5:1 6:1 18:1 19:1 39:1 40:1 52:1 63:1 67:1 73:1 74:1 76:1 80:1 83:1 
1.5478738407534027 2:1 6:1 16:1 22:1 36:1 43:1 49:1 62:1 67:1 72:1 74:1 76:1 79:1 83:1 
0.30856575746747589 1:1 17:1 20:1 37:1 42:1 62:1 71:1 73:1 74:1 76:1 80:1 83:1 
10 1:1 6:1 14:1 31:1 35:1 42:1 56:1 62:1 67:1 73:1 74:1 76:1 78:1 83:1 
-10 4:1 7:1 14:1 22:1 36:1 40:1 49:1 61:1 67:1 72:1 74:1 76:1 82:1 99:1 
10 4:1 6:1 16:1 22:1 36:1 40:1 57:1 63:1 67:1 73:1 74:1 76:1 82:1 83:1 
5.2908744155204177 2:1 6:1 15:1 22:1 36:1 44:1 55:1 64:1 67:1 72:1 74:1 76:1 80:1 83:1 
-10 2:1 6:1 15:1 22:1 36:1 40:1 51:1 63:1 67:1 73:1 74:1 77:1 82:1 83:1 
10 5:1 6:1 14:1 22:1 36:1 44:1 57:1 66:1 67:1 73:1 74:1 77:1 81:1 83:1 
0.33847420124854533 5:1 6:1 16:1 22:1 36:1 44:1 49:1 64:1 67:1 72:1 74:1 76:1 80:1 83:1 
0.026699101935214076 4:1 6:1 17:1 20:1 37:1 42:1 55:1 64:1 67:1 73:1 74:1 76:1 78:1 83:1 
-10 1:1 8:1 16:1 19:1 39:1 42:1 50:1 62:1 67:1 73:1 74:1 76:1 80:1 83:1 
-10 4:1 17:1 21:1 35:1 40:1 63:1 67:1 73:1 74:1 76:1 78:1 83:1 
0.042541575897515033 2:1 6:1 18:1 20:1 37:1 42:1 53:1 62:1 67:1 73:1 74:1 76:1 80:1 83:1 
7.6286313247700175 5:1 14:1 21:1 35:1 44:1 64:1 67:1 72:1 74:1 76:1 78:1 83:1 
5.7269129022341492 5:1 6:1 14:1 22:1 36:1 44:1 56:1 64:1 67:1 73:1 74:1 76:1 78:1 83:1 
10 5:1 6:1 15:1 20:1 37:1 40:1 52:1 63:1 67:1 73:1 74:1 76:1 80:1 83:1 
10 5:1 6:1 18:1 22:1 36:1 40:1 48:1 63:1 67:1 73:1 75:1 76:1 80:1 83:1 
2.5426354319028817 3:1 10:1 14:1 22:1 36:1 41:1 49:1 64:1 67:1 72:1 74:1 76:1 82:1 83:1 
5.7476603985058983 2:1 6:1 15:1 22:1 36:1 42:1 48:1 62:1 67:1 73:1 74:1 76:1 78:1 83:1 
10 5:1 6:1 14:1 29:1 39:1 44:1 52:1 64:1 67:1 72:1 74:1 76:1 80:1 83:1 
0.59863612740566075 2:1 6:1 14:1 25:1 38:1 41:1 55:1 64:1 67:1 72:1 74:1 76:1 82:1 83:1 
10 4:1 11:1 18:1 32:1 39:1 41:1 52:1 62:1 67:1 73:1 74:1 76:1 82:1 83:1 
2.1127353732878698 3:1 10:1 16:1 22:1 36:1 42:1 55:1 62:1 67:1 72:1 74:1 76:1 80:1 83:1 
10 5:1 6:1 15:1 22:1 36:1 40:1 49:1 63:1 67:1 73:1 74:1 76:1 80:1 83:1 
-8.9892794271934857 3:1 6:1 16:1 19:1 39:1 42:1 52:1 62:1 67:1 72:1 74:1 76:1 80:1 83:1 
10 4:1 6:1 14:1 19:1 39:1 42:1 51:1 64:1 67:1 72:1 74:1 76:1 82:1 83:1 
-1.7497455750853776 4:1 6:1 16:1 22:1 36:1 40:1 56:1 63:1 67:1 73:1 74:1 76:1 80:1 103:1 
-10 2:1 8:1 15:1 20:1 37:1 40:1 51:1 63:1 67:1 73:1 74:1 76:1 82:1 83:1 
0.2638318878539363 1:1 6:1 18:1 20:1 37:1 42:1 50:1 64:1 67:1 72:1 74:1 76:1 78:1 83:1 
7.0111647966050157 1:1 6:1 14:1 31:1 35:1 42:1 53:1 64:1 67:1 73:1 74:1 76:1 80:1 83:1 
10 3:1 6:1 16:1 20:1 37:1 40:1 56:1 63:1 67:1 73:1 74:1 76:1 82:1 83:1 
-6.792501378227775 2:1 7:1 18:1 19:1 39:1 43:1 52:1 62:1 67:1 73:1 74:1 76:1 80:1 83:1 
10 4:1 6:1 14:1 19:1 39:1 40:1 51:1 63:1 67:1 73:1 74:1 76:1 80:1 83:1 
0.032361005680449625 1:1 6:1 15:1 20:1 37:1 42:1 57:1 62:1 67:1 73:1 74:1 76:1 82:1 83:1 
10 5:1 7:1 16:1 19:1 39:1 40:1 50:1 63:1 68:1 73:1 74:1 77:1 80:1 94:1 
1.066799772534913 5:1 6:1 18:1 33:1 35:1 41:1 49:1 66:1 71:1 73:1 74:1 76:1 78:1 83:1 
10 4:1 6:1 16:1 19:1 39:1 40:1 51:1 63:1 67:1 73:1 74:1 76:1 82:1 83:1 
5.9232997682143598 1:1 6:1 15:1 22:1 36:1 42:1 53:1 66:1 71:1 72:1 74:1 76:1 78:1 83:1 
0.054155207255559487 3:1 6:1 18:1 25:1 38:1 41:1 55:1 66:1 67:1 72:1 74:1 76:1 80:1 83:1 
5.7455644182112824 1:1 6:1 18:1 22:1 36:1 42:1 55:1 64:1 67:1 72:1 74:1 76:1 78:1 83:1 
6.0339138999968025 4:1 6:1 14:1 26:1 35:1 41:1 54:1 64:1 67:1 72:1 74:1 76:1 80:1 83:1 
10 2:1 6:1 18:1 19:1 39:1 40:1 55:1 65:1 67:1 73:1 74:1 76:1 80:1 98:1 
-0.13611522542854898 2:1 6:1 14:1 22:1 36:1 40:1 48:1 63:1 67:1 73:1 74:1 76:1 82:1 83:1 
10 3:1 6:1 14:1 19:1 39:1 40:1 50:1 63:1 67:1 73:1 74:1 76:1 82:1 83:1 
-10 3:1 8:1 15:1 20:1 37:1 40:1 48:1 63:1 67:1 73:1 74:1 76:1 82:1 
-6.3547951107891851 5:1 7:1 18:1 22:1 36:1 40:1 50:1 63:1 71:1 73:1 74:1 76:1 80:1 83:1 
-10 2:1 6:1 16:1 25:1 38:1 41:1 47:1 64:1 67:1 72:1 75:1 76:1 81:1 83:1 
10 3:1 6:1 16:1 19:1 39:1 40:1 52:1 63:1 67:1 73:1 75:1 76:1 82:1 83:1 
10 4:1 7:1 16:1 23:1 39:1 40:1 56:1 63:1 67:1 73:1 74:1 76:1 82:1 83:1 
-10 3:1 6:1 16:1 29:1 39:1 40:1 52:1 63:1 67:1 73:1 74:1 76:1 80:1 83:1 
10 2:1 6:1 14:1 19:1 39:1 40:1 51:1 63:1 67:1 73:1 74:1 76:1 81:1 83:1 
-10 2:1 6:1 15:1 22:1 36:1 40:1 47:1 63:1 67:1 73:1 74:1 76:1 80:1 83:1 
8.3275331011132891 1:1 6:1 14:1 22:1 36:1 42:1 53:1 62:1 67:1 72:1 74:1 76:1 80:1 83:1 
0.59175103572608023 4:1 6:1 16:1 22:1 36:1 41:1 54:1 64:1 67:1 72:1 74:1 76:1 79:1 83:1 
0.11804891404934827 3:1 6:1 17:1 20:1 37:1 41:1 54:1 64:1 67:1 73:1 74:1 76:1 82:1 83:1 
-8.0274239014022744 1:1 6:1 17:1 19:1 39:1 42:1 52:1 62:1 71:1 73:1 74:1 76:1 78:1 83:1 
10 3:1 7:1 16:1 22:1 36:1 41:1 53:1 62:1 67:1 73:1 74:1 76:1 78:1 83:1 
-10 5:1 6:1 14:1 20:1 37:1 40:1 47:1 63:1 67:1 73:1 74:1 76:1 80:1 83:1 
10 2:1 6:1 14:1 22:1 36:1 42:1 50:1 64:1 67:1 73:1 74:1 76:1 78:1 83:1 
0.47382240158409439 3:1 6:1 18:1 20:1 37:1 41:1 48:1 64:1 67:1 73:1 74:1 76:1 81:1 83:1 
-10 5:1 7:1 18:1 31:1 35:1 40:1 56:1 63:1 67:1 73:1 74:1 76:1 82:1 83:1 
-10 4:1 6:1 16:1 29:1 39:1 40:1 52:1 61:1 68:1 72:1 74:1 76:1 82:1 93:1 
10 5:1 8:1 14:1 22:1 36:1 40:1 51:1 63:1 68:1 73:1 74:1 76:1 80:1 83:1 
-10 4:1 6:1 18:1 33:1 35:1 40:1 54:1 61:1 67:1 72:1 74:1 76:1 79:1 103:1 
-10 3:1 6:1 14:1 20:1 37:1 40:1 55:1 61:1 71:1 72:1 74:1 76:1 80:1 83:1 
-1.8335703810557191 5:1 14:1 22:1 36:1 40:1 63:1 67:1 73:1 74:1 76:1 78:1 83:1 
-2.2174784832154208 3:1 6:1 17:1 22:1 36:1 40:1 54:1 63:1 67:1 73:1 74:1 76:1 80:1 83:1 
10 5:1 6:1 15:1 29:1 39:1 40:1 51:1 63:1 67:1 73:1 74:1 76:1 82:1 83:1 
0.25464317441183182 3:1 6:1 18:1 30:1 35:1 45:1 58:1 64:1 67:1 72:1 74:1 76:1 80:1 114:1 
-4.9827096348664277 5:1 10:1 17:1 34:1 35:1 40:1 49:1 63:1 67:1 73:1 74:1 76:1 80:1 83:1 
-0.93040107449833942 1:1 6:1 18:1 22:1 36:1 40:1 55:1 61:1 67:1 72:1 74:1 76:1 80:1 103:1 
10 3:1 6:1 16:1 21:1 35:1 40:1 54:1 63:1 67:1 73:1 75:1 76:1 81:1 83:1 
-2.0710605578883339 3:1 6:1 15:1 22:1 36:1 40:1 48:1 63:1 67:1 73:1 74:1 76:1 78:1 83:1 
10 2:1 6:1 15:1 19:1 39:1 42:1 50:1 64:1 67:1 73:1 74:1 76:1 80:1 83:1 
3.9123105188625056 2:1 6:1 14:1 24:1 38:1 41:1 49:1 66:1 69:1 72:1 74:1 76:1 80:1 83:1 
10 3:1 8:1 17:1 22:1 36:1 40:1 51:1 63:1 67:1 73:1 74:1 76:1 80:1 83:1 
0.39273922585289683 1:1 6:1 18:1 22:1 36:1 42:1 49:1 64:1 67:1 72:1 74:1 76:1 81:1 83:1 
-1.1791423963716789 5:1 10:1 16:1 20:1 37:1 41:1 51:1 66:1 71:1 72:1 74:1 76:1 79:1 83:1 
0.18091259781786651 3:1 6:1 16:1 20:1 37:1 41:1 55:1 66:1 67:1 72:1 74:1 76:1 80:1 83:1 
10 3:1 8:1 15:1 19:1 39:1 40:1 51:1 61:1 67:1 72:1 74:1 77:1 81:1 83:1 
10 4:1 6:1 17:1 29:1 39:1 40:1 51:1 63:1 67:1 73:1 74:1 76:1 81:1 83:1 
0.45846270575981768 5:1 6:1 18:1 27:1 35:1 44:1 49:1 66:1 71:1 72:1 74:1 76:1 80:1 83:1 
10 4:1 8:1 18:1 20:1 37:1 40:1 50:1 63:1 67:1 73:1 74:1 76:1 82:1 83:1 
10 4:1 6:1 16:1 24:1 38:1 40:1 51:1 63:1 67:1 73:1 74:1 76:1 80:1 83:1 
-10 1:1 6:1 15:1 20:1 37:1 40:1 52:1 63:1 67:1 73:1 74:1 76:1 81:1 83:1 
10 2:1 6:1 16:1 22:1 36:1 41:1 54:1 64:1 67:1 72:1 74:1 76:1 79:1 83:1 
-10 2:1 6:1 18:1 19:1 39:1 40:1 48:1 63:1 67:1 73:1 74:1 76:1 82:1 103:1 
10 5:1 6:1 14:1 19:1 39:1 44:1 51:1 64:1 67:1 73:1 74:1 77:1 80:1 83:1 
0.051715863355508596 4:1 6:1 14:1 22:1 36:1 42:1 57:1 66:1 67:1 73:1 74:1 76:1 82:1 83:1 
1.4550714345373736 1:1 6:1 16:1 20:1 37:1 42:1 50:1 64:1 67:1 72:1 74:1 76:1 80:1 83:1 
-10 1:1 6:1 17:1 20:1 37:1 42:1 51:1 64:1 67:1 72:1 75:1 76:1 80:1 83:1 
0.36595889441663548 3:1 6:1 16:1 22:1 36:1 41:1 53:1 62:1 67:1 73:1 74:1 76:1 80:1 83:1 
0.71702415906926564 1:1 6:1 18:1 24:1 38:1 42:1 55:1 64:1 67:1 72:1 74:1 76:1 80:1 83:1 
4.2993472886795194 1:1 16:1 22:1 36:1 42:1 66:1 71:1 72:1 74:1 76:1 80:1 83:1 
0.68892094117739222 5:1 7:1 15:1 22:1 36:1 42:1 56:1 66:1 67:1 73:1 74:1 76:1 81:1 83:1 
10 4:1 10:1 18:1 22:1 36:1 44:1 59:1 64:1 67:1 73:1 74:1 76:1 80:1 83:1 
0.064449859760854267 5:1 6:1 17:1 25:1 38:1 41:1 49:1 64:1 67:1 72:1 74:1 76:1 78:1 83:1 
-10 5:1 6:1 15:1 20:1 37:1 44:1 52:1 64:1 67:1 72:1 75:1 76:1 80:1 83:1 
-10 4:1 6:1 16:1 19:1 39:1 42:1 50:1 64:1 67:1 73:1 74:1 77:1 80:1 83:1 
-10 4:1 6:1 16:1 25:1 38:1 40:1 54:1 63:1 67:1 73:1 74:1 76:1 80:1 83:1 
10 4:1 6:1 16:1 22:1 36:1 40:1 55:1 63:1 67:1 73:1 74:1 76:1 82:1 83:1 
-8.8456276575202111 3:1 6:1 18:1 22:1 36:1 42:1 51:1 64:1 67:1 73:1 74:1 76:1 81:1 83:1 
10 5:1 6:1 15:1 22:1 36:1 40:1 51:1 63:1 67:1 73:1 74:1 76:1 82:1 83:1 
-10 4:1 6:1 14:1 29:1 39:1 41:1 52:1 64:1 67:1 73:1 74:1 76:1 81:1 83:1 
-10 3:1 6:1 14:1 20:1 37:1 40:1 54:1 63:1 67:1 73:1 75:1 76:1 80:1 83:1 
10 3:1 8:1 18:1 19:1 39:1 40:1 51:1 63:1 67:1 73:1 75:1 76:1 82:1 83:1 
-10 1:1 10:1 15:1 19:1 39:1 42:1 52:1 62:1 67:1 72:1 74:1 76:1 82:1 83:1 
-10 5:1 6:1 18:1 19:1 39:1 40:1 55:1 63:1 67:1 73:1 74:1 76:1 80:1 83:1 
0.30391136144035763 5:1 6:1 18:1 22:1 36:1 43:1 54:1 64:1 71:1 73:1 74:1 76:1 80:1 83:1 
10 3:1 8:1 16:1 22:1 36:1 40:1 51:1 63:1 67:1 73:1 74:1 76:1 80:1 83:1 
10 5:1 7:1 15:1 22:1 36:1 40:1 48:1 63:1 67:1 73:1 75:1 76:1 82:1 83:1 
10 4:1 6:1 15:1 20:1 37:1 40:1 52:1 63:1 67:1 73:1 74:1 76:1 81:1 83:1 
-10 3:1 6:1 16:1 29:1 39:1 40:1 52:1 63:1 67:1 73:1 74:1 76:1 78:1 83:1 
-10 4:1 6:1 15:1 27:1 35:1 40:1 53:1 63:1 67:1 73:1 74:1 76:1 80:1 83:1 
10 3:1 6:1 14:1 25:1 38:1 40:1 47:1 61:1 67:1 72:1 74:1 76:1 80:1 83:1 
0.1990110544279039 5:1 6:1 16:1 22:1 36:1 44:1 49:1 66:1 67:1 72:1 74:1 76:1 78:1 83:1 
5.3382201734405097 1:1 6:1 15:1 22:1 36:1 41:1 48:1 64:1 67:1 73:1 74:1 76:1 80:1 83:1 
10 4:1 10:1 15:1 29:1 39:1 40:1 52:1 63:1 67:1 73:1 74:1 76:1 79:1 83:1 
0.11001900791152433 4:1 6:1 17:1 22:1 36:1 43:1 50:1 64:1 67:1 72:1 74:1 76:1 78:1 83:1 
2.1860967680327779 1:1 6:1 15:1 22:1 36:1 42:1 54:1 66:1 71:1 72:1 74:1 76:1 80:1 83:1 
5.5110970520440015 2:1 6:1 14:1 25:1 38:1 42:1 55:1 64:1 67:1 72:1 74:1 76:1 80:1 83:1 
-3.1908738310998905 1:1 11:1 17:1 24:1 38:1 42:1 49:1 62:1 67:1 73:1 74:1 77:1 78:1 83:1 
0.64677242897500542 2:1 6:1 18:1 20:1 37:1 42:1 50:1 64:1 67:1 73:1 74:1 76:1 80:1 83:1 
7.0757533104829076 2:1 6:1 17:1 22:1 36:1 42:1 49:1 64:1 71:1 72:1 74:1 76:1 80:1 83:1 
0.028300094508707609 3:1 6:1 15:1 22:1 36:1 42:1 49:1 64:1 67:1 73:1 74:1 76:1 82:1 83:1 
0.31548935803731282 3:1 6:1 18:1 22:1 36:1 41:1 58:1 66:1 71:1 72:1 74:1 76:1 78:1 83:1 
0.26678155271978504 1:1 6:1 14:1 20:1 37:1 42:1 47:1 64:1 67:1 72:1 74:1 76:1 79:1 83:1 
-10 2:1 6:1 16:1 23:1 39:1 41:1 52:1 66:1 67:1 73:1 74:1 76:1 82:1 83:1 
-1.4630737323442791 5:1 6:1 15:1 22:1 36:1 40:1 54:1 63:1 67:1 73:1 74:1 76:1 80:1 83:1 
10 5:1 7:1 18:1 19:1 39:1 40:1 50:1 63:1 67:1 73:1 74:1 76:1 80:1 87:1 
10 2:1 6:1 18:1 19:1 39:1 40:1 55:1 63:1 67:1 73:1 75:1 76:1 80:1 83:1 
10 5:1 7:1 14:1 20:1 37:1 40:1 50:1 63:1 67:1 73:1 74:1 76:1 82:1 83:1 
10 3:1 6:1 16:1 20:1 37:1 41:1 48:1 64:1 67:1 73:1 74:1 76:1 80:1 96:1 
-2.663286347754604 2:1 7:1 15:1 28:1 35:1 40:1 57:1 63:1 67:1 73:1 74:1 76:1 82:1 83:1 
0.22649617038970671 4:1 6:1 18:1 25:1 38:1 41:1 48:1 64:1 67:1 72:1 74:1 76:1 80:1 83:1 
-10 4:1 7:1 18:1 22:1 36:1 40:1 51:1 63:1 67:1 73:1 74:1 76:1 79:1 83:1 
-10 5:1 6:1 15:1 22:1 36:1 40:1 54:1 63:1 67:1 73:1 75:1 76:1 80:1 83:1 
0.027772863931825962 3:1 6:1 15:1 24:1 38:1 43:1 49:1 66:1 67:1 72:1 74:1 76:1 80:1 83:1 
10 4:1 6:1 16:1 20:1 37:1 40:1 50:1 63:1 67:1 73:1 74:1 76:1 82:1 83:1 
-2.7697249701957789 3:1 6:1 14:1 28:1 35:1 40:1 57:1 63:1 67:1 73:1 74:1 76:1 80:1 83:1 
-10 2:1 6:1 16:1 19:1 39:1 40:1 51:1 63:1 67:1 73:1 74:1 76:1 82:1 83:1 
10 3:1 6:1 15:1 22:1 36:1 40:1 48:1 63:1 67:1 73:1 74:1 77:1 80:1 83:1 
10 3:1 6:1 17:1 22:1 36:1 40:1 48:1 63:1 67:1 73:1 74:1 76:1 82:1 83:1 
0.41812181120366249 1:1 6:1 17:1 21:1 35:1 42:1 55:1 62:1 67:1 73:1 74:1 76:1 78:1 83:1 
10 1:1 7:1 14:1 20:1 37:1 42:1 48:1 62:1 67:1 73:1 74:1 76:1 78:1 83:1 
-10 2:1 6:1 15:1 19:1 39:1 42:1 50:1 64:1 71:1 72:1 74:1 77:1 80:1 83:1 
-1.4433919638477275 4:1 6:1 14:1 22:1 36:1 40:1 48:1 63:1 67:1 73:1 74:1 76:1 80:1 83:1 
10 4:1 11:1 17:1 25:1 38:1 40:1 52:1 61:1 67:1 72:1 74:1 76:1 80:1 83:1 
-10 4:1 6:1 16:1 19:1 39:1 43:1 52:1 66:1 67:1 72:1 74:1 76:1 80:1 83:1 
-2.0426535554378629 5:1 7:1 14:1 22:1 36:1 40:1 56:1 63:1 67:1 73:1 74:1 76:1 82:1 83:1 
-9.7769838031661109 2:1 6:1 17:1 20:1 37:1 40:1 55:1 63:1 67:1 73:1 74:1 76:1 80:1 83:1 
-10 2:1 6:1 17:1 19:1 39:1 42:1 51:1 64:1 67:1 73:1 74:1 76:1 79:1 83:1 
10 4:1 6:1 15:1 20:1 37:1 40:1 51:1 63:1 67:1 73:1 75:1 76:1 82:1 83:1 
0.48421770973833639 3:1 6:1 18:1 22:1 36:1 41:1 48:1 62:1 67:1 73:1 74:1 76:1 78:1 83:1 
10 4:1 9:1 15:1 24:1 38:1 40:1 52:1 63:1 67:1 73:1 74:1 76:1 80:1 83:1 
10 4:1 7:1 15:1 19:1 39:1 42:1 50:1 64:1 67:1 73:1 74:1 76:1 82:1 83:1 
-10 2:1 6:1 16:1 32:1 39:1 45:1 52:1 64:1 68:1 73:1 74:1 76:1 82:1 94:1 
-1.1465177331256713 1:1 7:1 18:1 19:1 39:1 42:1 52:1 62:1 68:1 73:1 74:1 76:1 78:1 90:1 
-8.7700159239087547 5:1 6:1 14:1 31:1 35:1 40:1 54:1 63:1 67:1 73:1 74:1 76:1 80:1 83:1 
8.053884380276715 1:1 14:1 22:1 36:1 42:1 62:1 67:1 72:1 74:1 76:1 80:1 83:1 
10 2:1 8:1 18:1 22:1 36:1 40:1 50:1 61:1 67:1 72:1 74:1 77:1 78:1 83:1 
0.24529161495615165 4:1 6:1 16:1 20:1 37:1 41:1 52:1 66:1 67:1 72:1 74:1 76:1 80:1 83:1 
10 4:1 8:1 15:1 19:1 39:1 40:1 54:1 63:1 67:1 73:1 74:1 76:1 82:1 83:1 
-10 4:1 6:1 15:1 19:1 39:1 40:1 51:1 63:1 71:1 73:1 74:1 76:1 82:1 83:1 
-10 2:1 6:1 14:1 19:1 39:1 42:1 52:1 64:1 67:1 73:1 74:1 76:1 81:1 83:1 
3.5013575645633499 2:1 6:1 15:1 22:1 36:1 42:1 53:1 62:1 67:1 73:1 74:1 76:1 78:1 83:1 
10 4:1 6:1 15:1 19:1 39:1 40:1 48:1 63:1 67:1 73:1 75:1 76:1 80:1 83:1 
-10 4:1 6:1 18:1 25:1 38:1 40:1 57:1 63:1 67:1 73:1 74:1 76:1 82:1 83:1 
10 3:1 6:1 14:1 19:1 39:1 40:1 50:1 61:1 67:1 72:1 74:1 76:1 81:1 83:1 
-9.909981575555129 5:1 6:1 16:1 22:1 36:1 40:1 50:1 61:1 67:1 72:1 74:1 76:1 80:1 83:1 
10 5:1 8:1 17:1 25:1 38:1 40:1 54:1 63:1 67:1 73:1 74:1 77:1 82:1 
-10 3:1 6:1 14:1 20:1 37:1 40:1 48:1 63:1 67:1 73:1 74:1 76:1 80:1 83:1 
-10 4:1 6:1 17:1 22:1 36:1 40:1 57:1 63:1 67:1 73:1 74:1 76:1 82:1 83:1 
10 5:1 10:1 17:1 19:1 39:1 40:1 52:1 61:1 67:1 72:1 74:1 76:1 80:1 83:1 
-10 2:1 6:1 15:1 20:1 37:1 40:1 47:1 63:1 67:1 73:1 74:1 76:1 80:1 83:1 
-10 3:1 11:1 14:1 20:1 37:1 40:1 51:1 63:1 67:1 73:1 74:1 76:1 79:1 83:1 
0.09602431354093284 4:1 6:1 14:1 20:1 37:1 41:1 49:1 66:1 71:1 72:1 74:1 76:1 79:1 83:1 
0.066536020009589067 1:1 6:1 15:1 25:1 38:1 42:1 55:1 62:1 67:1 72:1 74:1 76:1 80:1 83:1 
10 3:1 6:1 14:1 22:1 36:1 40:1 57:1 63:1 67:1 73:1 74:1 76:1 82:1 83:1 
0.023897039394380447 4:1 7:1 15:1 20:1 37:1 41:1 49:1 66:1 67:1 73:1 74:1 76:1 81:1 83:1 
5.9359382044849154 2:1 6:1 18:1 20:1 37:1 42:1 54:1 64:1 71:1 72:1 74:1 76:1 80:1 83:1 
10 3:1 16:1 22:1 36:1 41:1 64:1 67:1 72:1 74:1 76:1 80:1 83:1 
0.048152100887582455 3:1 6:1 16:1 25:1 38:1 42:1 55:1 62:1 67:1 72:1 74:1 76:1 79:1 83:1 
0.034400779580103014 4:1 16:1 20:1 37:1 41:1 66:1 67:1 73:1 74:1 76:1 80:1 83:1 
10 2:1 6:1 16:1 20:1 37:1 40:1 51:1 63:1 67:1 73:1 74:1 76:1 82:1 101:1 
10 4:1 7:1 17:1 29:1 39:1 40:1 51:1 63:1 67:1 73:1 74:1 76:1 81:1 83:1 
10 3:1 9:1 17:1 22:1 36:1 40:1 55:1 63:1 71:1 73:1 74:1 76:1 82:1 83:1 
-10 2:1 6:1 15:1 22:1 36:1 40:1 48:1 63:1 67:1 73:1 74:1 76:1 82:1 83:1 
-1.7535355200164968 3:1 6:1 17:1 19:1 39:1 42:1 49:1 64:1 67:1 73:1 74:1 76:1 79:1 83:1 
-10 5:1 7:1 17:1 20:1 37:1 40:1 50:1 63:1 67:1 73:1 74:1 76:1 82:1 83:1 
-10 4:1 6:1 16:1 22:1 36:1 40:1 54:1 63:1 67:1 73:1 74:1 76:1 82:1 83:1 
10 5:1 8:1 14:1 22:1 36:1 40:1 51:1 63:1 67:1 73:1 74:1 76:1 79:1 83:1 
10 5:1 8:1 18:1 22:1 36:1 40:1 51:1 63:1 67:1 73:1 75:1 76:1 80:1 83:1 
10 1:1 14:1 20:1 37:1 42:1 64:1 67:1 73:1 74:1 76:1 80:1 
-10 5:1 6:1 18:1 22:1 36:1 40:1 48:1 63:1 67:1 73:1 74:1 76:1 82:1 83:1 
-10 4:1 11:1 16:1 22:1 36:1 40:1 59:1 63:1 67:1 73:1 74:1 76:1 80:1 83:1 
-10 3:1 6:1 15:1 20:1 37:1 40:1 56:1 63:1 67:1 73:1 74:1 76:1 82:1 103:1 
-10 4:1 6:1 16:1 25:1 38:1 40:1 48:1 63:1 67:1 73:1 75:1 76:1 80:1 83:1 
0.55617172550779137 5:1 6:1 18:1 22:1 36:1 44:1 57:1 66:1 67:1 73:1 74:1 76:1 80:1 83:1 
10 3:1 6:1 15:1 19:1 39:1 40:1 50:1 63:1 67:1 73:1 74:1 76:1 82:1 83:1 
10 5:1 6:1 14:1 24:1 38:1 40:1 47:1 63:1 67:1 73:1 74:1 76:1 80:1 83:1 
10 5:1 6:1 15:1 19:1 39:1 40:1 52:1 61:1 67:1 72:1 74:1 77:1 80:1 83:1 
2.3056529052402381 3:1 6:1 16:1 22:1 36:1 41:1 55:1 64:1 71:1 72:1 74:1 76:1 80:1 83:1 
0.038820321574970805 5:1 6:1 17:1 22:1 36:1 41:1 55:1 64:1 67:1 72:1 74:1 76:1 81:1 83:1 
0.40582356606016956 5:1 6:1 15:1 21:1 35:1 41:1 49:1 64:1 71:1 72:1 74:1 76:1 80:1 83:1 
10 1:1 6:1 18:1 29:1 39:1 40:1 56:1 64:1 67:1 73:1 74:1 76:1 82:1 83:1 
0.089726214911385285 1:1 6:1 18:1 25:1 38:1 42:1 49:1 64:1 67:1 73:1 74:1 76:1 78:1 83:1 
10 5:1 16:1 20:1 37:1 40:1 63:1 67:1 73:1 74:1 76:1 80:1 83:1 
0.56889314400739244 1:1 6:1 16:1 25:1 38:1 42:1 55:1 62:1 67:1 72:1 74:1 76:1 78:1 83:1 
0.25320761063759789 1:1 10:1 18:1 21:1 35:1 42:1 49:1 64:1 68:1 73:1 74:1 76:1 81:1 83:1 
10 5:1 15:1 22:1 36:1 40:1 63:1 67:1 73:1 74:1 76:1 80:1 83:1 
10 3:1 6:1 17:1 19:1 39:1 41:1 51:1 64:1 67:1 72:1 74:1 76:1 81:1 83:1 
-0.85746869494203393 2:1 6:1 17:1 22:1 36:1 40:1 55:1 63:1 67:1 73:1 74:1 76:1 80:1 83:1 
-0.70622544129840581 4:1 6:1 16:1 22:1 36:1 40:1 48:1 63:1 67:1 73:1 74:1 76:1 80:1 83:1 
-10 5:1 9:1 14:1 20:1 37:1 42:1 51:1 62:1 71:1 72:1 74:1 76:1 80:1 83:1 
-0.14217683416741184 5:1 6:1 15:1 22:1 36:1 40:1 48:1 63:1 67:1 73:1 74:1 76:1 78:1 83:1 
-1.0556654805776533 1:1 11:1 16:1 19:1 39:1 42:1 55:1 64:1 67:1 72:1 74:1 76:1 82:1 83:1 
-4.8047832307308767 2:1 10:1 17:1 19:1 39:1 42:1 52:1 62:1 67:1 73:1 74:1 76:1 79:1 83:1 
0.10377301023791928 5:1 6:1 17:1 25:1 38:1 41:1 49:1 64:1 67:1 73:1 74:1 76:1 80:1 83:1 
10 4:1 6:1 16:1 20:1 37:1 40:1 48:1 63:1 67:1 73:1 74:1 76:1 80:1 83:1 
-2.1300786204647282 3:1 6:1 14:1 22:1 36:1 40:1 57:1 63:1 67:1 73:1 74:1 76:1 82:1 83:1 
-7.565034492396431 4:1 10:1 15:1 19:1 39:1 41:1 52:1 64:1 71:1 72:1 74:1 76:1 80:1 83:1 
-10 5:1 10:1 16:1 24:1 38:1 40:1 52:1 63:1 67:1 73:1 74:1 76:1 82:1 83:1 
-10 5:1 6:1 15:1 29:1 39:1 40:1 52:1 63:1 67:1 73:1 74:1 76:1 82:1 83:1 
7.9764060710302456 1:1 6:1 17:1 22:1 36:1 42:1 54:1 62:1 67:1 72:1 74:1 76:1 80:1 107:1 
-10 5:1 6:1 14:1 22:1 36:1 40:1 48:1 63:1 67:1 73:1 75:1 76:1 80:1 
10 4:1 9:1 18:1 22:1 36:1 40:1 55:1 63:1 71:1 73:1 74:1 76:1 82:1 83:1 
-1.6750389603612155 3:1 6:1 16:1 19:1 39:1 41:1 48:1 64:1 67:1 73:1 74:1 76:1 79:1 83:1 
10 4:1 6:1 18:1 19:1 39:1 42:1 49:1 64:1 67:1 73:1 74:1 76:1 80:1 83:1 
-10 3:1 6:1 17:1 20:1 37:1 40:1 48:1 63:1 71:1 73:1 74:1 76:1 80:1 83:1 
10 5:1 8:1 15:1 29:1 39:1 40:1 50:1 63:1 67:1 73:1 74:1 76:1 80:1 83:1 
10 3:1 6:1 14:1 19:1 39:1 40:1 50:1 63:1 67:1 73:1 74:1 76:1 81:1 83:1 
-10 5:1 6:1 14:1 32:1 39:1 40:1 52:1 63:1 67:1 73:1 75:1 76:1 81:1 83:1 
10 5:1 15:1 19:1 39:1 44:1 64:1 67:1 72:1 74:1 76:1 80:1 83:1 
-10 2:1 6:1 17:1 19:1 39:1 41:1 51:1 64:1 67:1 73:1 75:1 76:1 81:1 83:1 
10 4:1 7:1 17:1 22:1 36:1 40:1 48:1 63:1 67:1 73:1 74:1 76:1 80:1 83:1 
-10 4:1 6:1 18:1 22:1 36:1 40:1 48:1 63:1 67:1 73:1 74:1 76:1 80:1 83:1 
-10 5:1 6:1 14:1 20:1 37:1 40:1 48:1 63:1 67:1 73:1 74:1 76:1 80:1 83:1 
0.091913010857471458 5:1 6:1 16:1 22:1 36:1 44:1 55:1 62:1 67:1 72:1 74:1 76:1 80:1 83:1 
10 3:1 6:1 14:1 29:1 39:1 40:1 57:1 63:1 67:1 73:1 74:1 76:1 82:1 
10 3:1 6:1 18:1 19:1 39:1 40:1 52:1 63:1 67:1 73:1 74:1 76:1 82:1 83:1 
-10 4:1 7:1 16:1 20:1 37:1 40:1 56:1 63:1 67:1 73:1 74:1 76:1 82:1 83:1 
1.2583215714362295 5:1 6:1 18:1 22:1 36:1 41:1 55:1 66:1 67:1 72:1 74:1 76:1 80:1 85:1 
-10 4:1 6:1 18:1 22:1 36:1 40:1 48:1 63:1 67:1 73:1 74:1 76:1 81:1 83:1 
10 3:1 6:1 14:1 29:1 39:1 42:1 52:1 64:1 67:1 73:1 74:1 76:1 81:1 83:1 
0.4094389200325555 5:1 6:1 18:1 22:1 36:1 43:1 55:1 64:1 67:1 72:1 74:1 76:1 78:1 83:1 
-0.45778021013566417 3:1 11:1 16:1 22:1 36:1 44:1 51:1 64:1 67:1 72:1 74:1 76:1 80:1 83:1 
2.2302921623623089 3:1 10:1 16:1 20:1 37:1 42:1 49:1 64:1 67:1 73:1 74:1 76:1 78:1 83:1 
0.35385151072796461 5:1 6:1 16:1 20:1 37:1 44:1 49:1 64:1 67:1 72:1 74:1 76:1 78:1 83:1 
-10 5:1 8:1 16:1 23:1 39:1 40:1 52:1 63:1 67:1 73:1 75:1 76:1 82:1 83:1 
0.030105771951194349 4:1 6:1 15:1 22:1 36:1 41:1 55:1 64:1 67:1 73:1 74:1 76:1 80:1 83:1 
3.6926464119220102 2:1 6:1 17:1 22:1 36:1 42:1 53:1 62:1 67:1 72:1 74:1 76:1 80:1 83:1 
-10 5:1 8:1 17:1 29:1 39:1 40:1 51:1 63:1 67:1 73:1 75:1 76:1 82:1 83:1 
-10 4:1 7:1 18:1 20:1 37:1 40:1 51:1 63:1 67:1 73:1 74:1 76:1 82:1 83:1 
-0.53360194133632666 2:1 6:1 18:1 22:1 36:1 40:1 55:1 63:1 67:1 73:1 74:1 76:1 80:1 
-2.4681058926450516 2:1 7:1 17:1 20:1 37:1 42:1 57:1 64:1 67:1 73:1 74:1 77:1 80:1 83:1 
-0.11349983767152756 3:1 6:1 14:1 19:1 39:1 42:1 55:1 64:1 67:1 72:1 74:1 76:1 82:1 83:1 
10 5:1 6:1 15:1 22:1 36:1 40:1 50:1 63:1 67:1 73:1 74:1 76:1 82:1 83:1 
10 4:1 9:1 18:1 19:1 39:1 40:1 52:1 63:1 67:1 73:1 74:1 76:1 80:1 83:1 
-1.5354315959631895 2:1 6:1 17:1 22:1 36:1 40:1 48:1 63:1 67:1 73:1 74:1 76:1 80:1 83:1 
10 5:1 6:1 14:1 22:1 36:1 40:1 57:1 63:1 67:1 73:1 74:1 76:1 82:1 83:1 
1.0357769545931188 5:1 16:1 25:1 38:1 44:1 64:1 67:1 72:1 74:1 76:1 78:1 83:1 
0.57493627258469826 5:1 6:1 14:1 22:1 36:1 44:1 49:1 64:1 67:1 72:1 74:1 76:1 79:1 83:1 
-3.7150545916127404 1:1 8:1 15:1 20:1 37:1 42:1 48:1 62:1 67:1 73:1 74:1 76:1 79:1 83:1 
-10 3:1 6:1 18:1 20:1 37:1 40:1 55:1 63:1 67:1 73:1 74:1 76:1 79:1 83:1 
-10 4:1 10:1 18:1 19:1 39:1 41:1 59:1 64:1 67:1 73:1 74:1 76:1 80:1 83:1 
-10 4:1 6:1 17:1 19:1 39:1 42:1 51:1 66:1 71:1 72:1 74:1 76:1 81:1 83:1 
0.23819525538167119 1:1 6:1 18:1 22:1 36:1 42:1 47:1 64:1 71:1 72:1 74:1 76:1 80:1 83:1 
10 4:1 6:1 15:1 19:1 39:1 40:1 50:1 63:1 67:1 73:1 74:1 77:1 80:1 83:1 
10 5:1 6:1 16:1 19:1 39:1 40:1 59:1 63:1 67:1 73:1 75:1 76:1 78:1 83:1 
-10 4:1 6:1 18:1 22:1 36:1 40:1 57:1 63:1 67:1 73:1 74:1 76:1 79:1 83:1 
-10 4:1 6:1 18:1 22:1 36:1 40:1 50:1 63:1 67:1 73:1 74:1 76:1 80:1 83:1 
-10 5:1 6:1 16:1 22:1 36:1 42:1 50:1 64:1 67:1 73:1 74:1 77:1 82:1 83:1 
10 5:1 6:1 14:1 22:1 36:1 40:1 55:1 61:1 67:1 72:1 75:1 76:1 80:1 83:1 
-10 4:1 6:1 16:1 20:1 37:1 40:1 57:1 63:1 67:1 73:1 74:1 76:1 80:1 83:1 
10 4:1 7:1 18:1 19:1 39:1 40:1 50:1 63:1 67:1 73:1 75:1 76:1 82:1 83:1 
-10 5:1 6:1 16:1 31:1 35:1 40:1 49:1 63:1 67:1 73:1 74:1 76:1 80:1 83:1 
-10 3:1 6:1 14:1 19:1 39:1 42:1 51:1 64:1 67:1 73:1 74:1 76:1 81:1 83:1 
-10 5:1 6:1 18:1 22:1 36:1 40:1 48:1 63:1 67:1 73:1 74:1 76:1 80:1 83:1 
-10 5:1 16:1 28:1 35:1 40:1 63:1 67:1 73:1 74:1 76:1 80:1 83:1 
3.5722193777460736 5:1 7:1 18:1 30:1 35:1 44:1 49:1 66:1 67:1 72:1 74:1 76:1 78:1 119:1 
-10 3:1 6:1 18:1 22:1 36:1 40:1 57:1 63:1 67:1 73:1 74:1 76:1 82:1 83:1 
-10 4:1 6:1 18:1 29:1 39:1 40:1 52:1 63:1 71:1 73:1 74:1 76:1 79:1 83:1 
-10 2:1 6:1 18:1 33:1 35:1 40:1 48:1 63:1 67:1 73:1 74:1 77:1 82:1 83:1 
-10 4:1 6:1 18:1 24:1 38:1 40:1 47:1 63:1 67:1 73:1 74:1 76:1 80:1 83:1 
0.04647995436351246 4:1 10:1 14:1 20:1 37:1 42:1 49:1 62:1 71:1 73:1 74:1 76:1 80:1 83:1 
-0.54732421445158108 1:1 6:1 14:1 22:1 36:1 40:1 48:1 63:1 67:1 73:1 74:1 76:1 80:1 83:1 
-2.7568971592700371 2:1 6:1 18:1 22:1 36:1 42:1 49:1 66:1 71:1 72:1 74:1 76:1 80:1 91:1 
10 5:1 8:1 16:1 20:1 37:1 40:1 57:1 61:1 67:1 72:1 74:1 76:1 80:1 83:1 
-10 3:1 7:1 16:1 23:1 39:1 40:1 52:1 63:1 67:1 73:1 74:1 76:1 82:1 83:1 
-10 2:1 6:1 17:1 25:1 38:1 40:1 51:1 63:1 67:1 73:1 74:1 76:1 82:1 83:1 
10 3:1 6:1 14:1 19:1 39:1 40:1 54:1 63:1 67:1 73:1 74:1 76:1 81:1 83:1 
0.97568817740957503 2:1 6:1 17:1 25:1 38:1 42:1 54:1 64:1 67:1 73:1 74:1 76:1 80:1 83:1 
10 2:1 6:1 17:1 33:1 35:1 42:1 55:1 62:1 67:1 72:1 74:1 76:1 80:1 103:1 
-10 4:1 6:1 14:1 22:1 36:1 40:1 50:1 63:1 67:1 73:1 74:1 76:1 81:1 83:1 
10 4:1 6:1 15:1 22:1 36:1 40:1 48:1 61:1 67:1 72:1 74:1 76:1 80:1 83:1 
10 2:1 6:1 18:1 20:1 37:1 40:1 53:1 63:1 67:1 73:1 74:1 76:1 82:1 87:1 
9.8269750429439799 1:1 6:1 14:1 22:1 36:1 42:1 54:1 62:1 67:1 72:1 74:1 76:1 80:1 83:1 
0.30894965510153072 3:1 18:1 24:1 38:1 42:1 64:1 67:1 73:1 74:1 76:1 82:1 83:1 
-10 5:1 10:1 14:1 22:1 36:1 44:1 55:1 66:1 67:1 72:1 75:1 76:1 79:1 83:1 
10 2:1 6:1 16:1 22:1 36:1 42:1 50:1 64:1 67:1 73:1 74:1 76:1 82:1 83:1 
10 5:1 6:1 15:1 20:1 37:1 40:1 57:1 63:1 67:1 73:1 74:1 76:1 78:1 83:1 
1.2405881573093487 1:1 15:1 31:1 35:1 42:1 62:1 67:1 73:1 74:1 76:1 78:1 83:1 
-4.1483678104589155 4:1 6:1 17:1 22:1 36:1 40:1 53:1 63:1 67:1 73:1 74:1 76:1 80:1 
10 5:1 6:1 16:1 22:1 36:1 44:1 49:1 66:1 68:1 72:1 74:1 76:1 80:1 90:1 
0.46439288200051271 1:1 6:1 18:1 22:1 36:1 42:1 50:1 62:1 71:1 72:1 74:1 76:1 78:1 83:1 
3.1986632307724423 1:1 6:1 18:1 20:1 37:1 42:1 54:1 64:1 67:1 72:1 74:1 76:1 80:1 83:1 
10 5:1 6:1 15:1 25:1 38:1 40:1 52:1 63:1 67:1 73:1 74:1 76:1 80:1 83:1 
-10 3:1 6:1 14:1 20:1 37:1 42:1 52:1 64:1 67:1 72:1 75:1 76:1 78:1 83:1 
10 3:1 6:1 17:1 22:1 36:1 40:1 51:1 63:1 67:1 73:1 74:1 76:1 80:1 83:1 
-10 5:1 6:1 18:1 19:1 39:1 41:1 47:1 62:1 67:1 72:1 75:1 76:1 78:1 83:1 
-10 3:1 11:1 14:1 20:1 37:1 40:1 51:1 63:1 67:1 73:1 74:1 76:1 80:1 83:1 
-10 2:1 11:1 17:1 23:1 39:1 42:1 52:1 66:1 67:1 73:1 74:1 76:1 80:1 83:1 
-10 5:1 6:1 14:1 29:1 39:1 45:1 52:1 64:1 67:1 72:1 74:1 76:1 80:1 83:1 
0.20671030263568121 4:1 6:1 14:1 20:1 37:1 41:1 55:1 64:1 67:1 73:1 74:1 76:1 80:1 83:1 
2.277913428923934 5:1 11:1 14:1 22:1 36:1 42:1 55:1 62:1 67:1 73:1 74:1 76:1 80:1 83:1 
10 5:1 8:1 15:1 19:1 39:1 40:1 51:1 63:1 67:1 73:1 74:1 76:1 82:1 88:1 
10 3:1 6:1 15:1 19:1 39:1 40:1 51:1 63:1 68:1 73:1 74:1 76:1 82:1 
10 2:1 8:1 17:1 19:1 39:1 40:1 48:1 63:1 67:1 73:1 75:1 76:1 82:1 83:1 
0.034185684571452782 4:1 6:1 16:1 22:1 36:1 43:1 50:1 62:1 67:1 72:1 74:1 76:1 80:1 83:1 
-10 3:1 6:1 16:1 20:1 37:1 40:1 48:1 63:1 67:1 73:1 74:1 76:1 80:1 83:1 
2.8771153014696158 5:1 6:1 15:1 33:1 35:1 41:1 54:1 64:1 71:1 73:1 74:1 76:1 80:1 83:1 
-0.25139401221519903 2:1 6:1 14:1 19:1 39:1 42:1 47:1 64:1 67:1 73:1 74:1 76:1 79:1 83:1 
10 5:1 6:1 15:1 22:1 36:1 40:1 48:1 63:1 67:1 73:1 74:1 76:1 80:1 83:1 
10 1:1 6:1 14:1 22:1 36:1 42:1 49:1 64:1 67:1 72:1 74:1 76:1 78:1 83:1 
0.30298511445177762 5:1 6:1 17:1 20:1 37:1 41:1 50:1 66:1 67:1 72:1 74:1 76:1 80:1 99:1 
-10 2:1 9:1 16:1 25:1 38:1 42:1 51:1 64:1 67:1 72:1 74:1 76:1 80:1 83:1 
-10 4:1 8:1 17:1 22:1 36:1 41:1 51:1 66:1 67:1 72:1 74:1 76:1 80:1 83:1 
-10 4:1 6:1 16:1 22:1 36:1 40:1 54:1 61:1 71:1 72:1 74:1 76:1 80:1 83:1 
10 5:1 6:1 15:1 22:1 36:1 40:1 51:1 63:1 68:1 73:1 75:1 76:1 80:1 91:1 
0.42358677774519865 1:1 6:1 18:1 31:1 35:1 42:1 53:1 62:1 67:1 73:1 74:1 76:1 80:1 83:1 
0.16997210045804761 2:1 6:1 18:1 24:1 38:1 42:1 49:1 62:1 71:1 73:1 74:1 76:1 80:1 83:1 
-10 4:1 6:1 17:1 29:1 39:1 42:1 49:1 64:1 67:1 72:1 74:1 76:1 78:1 100:1 
-10 4:1 8:1 14:1 19:1 39:1 40:1 50:1 63:1 67:1 73:1 74:1 76:1 82:1 83:1 
0.22060209189463609 4:1 10:1 16:1 25:1 38:1 42:1 55:1 64:1 67:1 72:1 74:1 76:1 79:1 83:1 
0.23713682958677645 4:1 6:1 14:1 22:1 36:1 41:1 50:1 66:1 71:1 72:1 74:1 76:1 80:1 83:1 
-6.262451975401758 5:1 6:1 18:1 22:1 36:1 40:1 56:1 63:1 67:1 73:1 74:1 76:1 80:1 83:1 
-10 2:1 6:1 14:1 19:1 39:1 41:1 51:1 66:1 67:1 72:1 74:1 76:1 80:1 87:1 
-10 1:1 10:1 16:1 19:1 39:1 42:1 52:1 64:1 67:1 73:1 74:1 76:1 81:1 83:1 
-10 3:1 7:1 15:1 22:1 36:1 40:1 51:1 63:1 67:1 73:1 74:1 76:1 82:1 83:1 
0.21264174734095792 3:1 6:1 18:1 22:1 36:1 42:1 50:1 64:1 71:1 73:1 74:1 76:1 81:1 83:1 
-2.0555064365225792 2:1 6:1 14:1 19:1 39:1 42:1 47:1 64:1 67:1 72:1 74:1 76:1 80:1 83:1 
10 3:1 10:1 18:1 27:1 35:1 40:1 48:1 63:1 71:1 73:1 74:1 77:1 80:1 
-8.7645703662704708 5:1 6:1 17:1 22:1 36:1 41:1 50:1 66:1 67:1 72:1 74:1 77:1 78:1 83:1 
0.089147682261291564 4:1 6:1 17:1 31:1 35:1 42:1 54:1 64:1 71:1 73:1 74:1 76:1 80:1 83:1 
-10 5:1 6:1 18:1 22:1 36:1 40:1 57:1 63:1 71:1 73:1 75:1 76:1 80:1 83:1 
-10 5:1 6:1 17:1 31:1 35:1 40:1 53:1 63:1 67:1 73:1 75:1 76:1 81:1 83:1 
10 5:1 6:1 15:1 22:1 36:1 40:1 57:1 63:1 67:1 73:1 74:1 76:1 82:1 83:1 
0.59892933946307336 3:1 6:1 18:1 22:1 36:1 42:1 55:1 64:1 67:1 72:1 74:1 76:1 80:1 83:1 
-10 5:1 6:1 18:1 24:1 38:1 40:1 47:1 63:1 67:1 73:1 74:1 76:1 78:1 83:1 
-0.13711731169413482 2:1 6:1 14:1 22:1 36:1 40:1 48:1 63:1 67:1 73:1 74:1 76:1 82:1 83:1 
10 1:1 6:1 17:1 22:1 36:1 40:1 49:1 63:1 67:1 73:1 74:1 76:1 81:1 83:1 
10 3:1 10:1 18:1 24:1 38:1 40:1 48:1 61:1 67:1 72:1 74:1 76:1 82:1 83:1 
0.053868906557458476 4:1 6:1 18:1 22:1 36:1 44:1 49:1 66:1 67:1 72:1 74:1 76:1 80:1 83:1 
-10 4:1 8:1 17:1 22:1 36:1 40:1 49:1 63:1 68:1 73:1 74:1 76:1 82:1 117:1 
10 3:1 6:1 14:1 19:1 39:1 40:1 52:1 63:1 67:1 73:1 74:1 76:1 80:1 83:1 
10 5:1 6:1 14:1 20:1 37:1 40:1 51:1 63:1 67:1 73:1 74:1 76:1 81:1 83:1 
-10 5:1 7:1 16:1 31:1 35:1 40:1 51:1 63:1 67:1 73:1 74:1 76:1 82:1 83:1 
-1.2874241007284439 2:1 11:1 14:1 20:1 37:1 40:1 55:1 63:1 68:1 73:1 74:1 76:1 78:1 83:1 
10 2:1 6:1 16:1 19:1 39:1 40:1 50:1 63:1 71:1 73:1 74:1 76:1 82:1 83:1 
0.12189267237047566 3:1 6:1 17:1 24:1 38:1 42:1 55:1 62:1 67:1 72:1 74:1 76:1 81:1 83:1 
0.1337556986318762 4:1 6:1 16:1 21:1 35:1 41:1 49:1 64:1 67:1 73:1 74:1 76:1 80:1 83:1 
-10 5:1 9:1 15:1 22:1 36:1 40:1 55:1 63:1 71:1 73:1 74:1 76:1 80:1 83:1 
10 4:1 8:1 14:1 19:1 39:1 40:1 56:1 63:1 67:1 73:1 75:1 76:1 79:1 83:1 
-10 3:1 6:1 18:1 26:1 35:1 40:1 49:1 61:1 71:1 72:1 75:1 76:1 78:1 83:1 
10 2:1 6:1 16:1 25:1 38:1 41:1 50:1 64:1 67:1 73:1 74:1 76:1 82:1 83:1 
-10 1:1 16:1 20:1 37:1 42:1 62:1 67:1 72:1 75:1 76:1 78:1 83:1 
-10 5:1 8:1 16:1 31:1 35:1 40:1 57:1 61:1 67:1 72:1 74:1 76:1 80:1 83:1 
-3.5820354381021287 2:1 6:1 18:1 19:1 39:1 42:1 49:1 64:1 67:1 73:1 74:1 76:1 81:1 103:1 
10 3:1 9:1 17:1 24:1 38:1 40:1 55:1 61:1 67:1 72:1 74:1 76:1 80:1 83:1 
-10 4:1 7:1 15:1 29:1 39:1 41:1 52:1 66:1 67:1 72:1 74:1 76:1 79:1 83:1 
-10 5:1 8:1 16:1 22:1 36:1 40:1 48:1 63:1 67:1 73:1 74:1 77:1 82:1 83:1 
10 3:1 6:1 18:1 22:1 36:1 40:1 51:1 63:1 67:1 73:1 74:1 76:1 82:1 83:1 
10 5:1 7:1 15:1 22:1 36:1 40:1 49:1 63:1 67:1 73:1 74:1 77:1 82:1 83:1 
-10 5:1 6:1 14:1 25:1 38:1 40:1 57:1 63:1 67:1 73:1 74:1 76:1 81:1 83:1 
-10 4:1 7:1 17:1 20:1 37:1 40:1 50:1 63:1 67:1 73:1 75:1 76:1 80:1 83:1 
-10 4:1 7:1 15:1 22:1 36:1 40:1 51:1 63:1 67:1 73:1 74:1 76:1 82:1 83:1 
0.45145298726411115 1:1 6:1 18:1 22:1 36:1 41:1 48:1 64:1 67:1 73:1 74:1 76:1 82:1 83:1 
1.0455055400204278 5:1 6:1 16:1 21:1 35:1 44:1 57:1 66:1 71:1 73:1 74:1 76:1 80:1 83:1 
-10 1:1 18:1 31:1 35:1 42:1 62:1 67:1 73:1 75:1 76:1 78:1 83:1 
10 4:1 6:1 18:1 22:1 36:1 40:1 48:1 63:1 71:1 73:1 74:1 76:1 82:1 83:1 
0.077358741651507981 5:1 6:1 18:1 22:1 36:1 44:1 55:1 66:1 71:1 72:1 74:1 76:1 79:1 83:1 
2.5741945205919134 1:1 6:1 18:1 20:1 37:1 42:1 57:1 64:1 67:1 73:1 74:1 76:1 80:1 83:1 
10 4:1 8:1 14:1 23:1 39:1 40:1 52:1 63:1 67:1 73:1 74:1 76:1 82:1 83:1 
10 4:1 8:1 16:1 22:1 36:1 40:1 51:1 63:1 67:1 73:1 75:1 76:1 80:1 83:1 
0.36728231253773358 4:1 6:1 16:1 31:1 35:1 42:1 54:1 64:1 71:1 73:1 74:1 76:1 80:1 83:1 
10 2:1 6:1 16:1 20:1 37:1 42:1 48:1 64:1 67:1 73:1 74:1 76:1 80:1 83:1 
-10 5:1 9:1 16:1 22:1 36:1 40:1 55:1 63:1 71:1 73:1 74:1 76:1 80:1 83:1 
-10 3:1 6:1 14:1 20:1 37:1 40:1 48:1 63:1 67:1 73:1 74:1 77:1 81:1 83:1 
-10 4:1 6:1 14:1 29:1 39:1 41:1 51:1 64:1 67:1 72:1 74:1 76:1 82:1 83:1 
0.019298676322110905 1:1 6:1 14:1 25:1 38:1 42:1 59:1 64:1 67:1 73:1 74:1 76:1 82:1 83:1 
10 3:1 6:1 17:1 24:1 38:1 40:1 52:1 63:1 67:1 73:1 75:1 76:1 79:1 83:1 
10 5:1 6:1 15:1 23:1 39:1 40:1 57:1 63:1 67:1 73:1 74:1 76:1 78:1 83:1 
-10 5:1 11:1 17:1 29:1 39:1 40:1 52:1 63:1 67:1 73:1 74:1 76:1 78:1 83:1 
0.20718981044514218 1:1 6:1 17:1 20:1 37:1 42:1 53:1 62:1 67:1 72:1 74:1 76:1 79:1 83:1 
-10 4:1 6:1 14:1 22:1 36:1 40:1 55:1 63:1 67:1 73:1 74:1 76:1 79:1 83:1 
0.20060097954498612 3:1 6:1 14:1 22:1 36:1 41:1 49:1 66:1 67:1 72:1 74:1 76:1 82:1 83:1 
0.67385630146023479 1:1 6:1 17:1 21:1 35:1 42:1 55:1 62:1 68:1 72:1 74:1 76:1 78:1 83:1 
2.3682899544353377 3:1 7:1 17:1 20:1 37:1 42:1 49:1 64:1 67:1 73:1 74:1 76:1 79:1 83:1 
3.2138191887369025 4:1 7:1 14:1 22:1 36:1 45:1 48:1 64:1 67:1 73:1 74:1 76:1 80:1 83:1 
10 5:1 6:1 17:1 25:1 38:1 40:1 48:1 63:1 67:1 73:1 74:1 76:1 80:1 83:1 
10 5:1 8:1 18:1 22:1 36:1 40:1 50:1 63:1 67:1 73:1 75:1 76:1 80:1 83:1 
-10 2:1 6:1 17:1 31:1 35:1 40:1 56:1 63:1 67:1 73:1 75:1 76:1 80:1 103:1 
-10 2:1 6:1 14:1 22:1 36:1 42:1 55:1 66:1 67:1 73:1 74:1 77:1 81:1 83:1 
-10 2:1 6:1 18:1 20:1 37:1 40:1 50:1 63:1 67:1 73:1 74:1 76:1 82:1 83:1 
-0.79812987079918796 2:1 6:1 14:1 22:1 36:1 41:1 51:1 64:1 67:1 72:1 74:1 76:1 81:1 83:1 
10 4:1 6:1 14:1 22:1 36:1 40:1 55:1 63:1 67:1 73:1 74:1 76:1 80:1 83:1 
10 5:1 11:1 15:1 22:1 36:1 40:1 55:1 63:1 67:1 73:1 75:1 76:1 79:1 83:1 
2.0656908965670424 2:1 6:1 14:1 22:1 36:1 42:1 53:1 65:1 69:1 73:1 74:1 76:1 80:1 83:1 
10 2:1 6:1 14:1 21:1 35:1 41:1 50:1 64:1 67:1 73:1 74:1 76:1 81:1 83:1 
-10 3:1 6:1 16:1 19:1 39:1 41:1 50:1 64:1 67:1 72:1 74:1 77:1 82:1 83:1 
10 3:1 8:1 18:1 19:1 39:1 40:1 51:1 63:1 67:1 73:1 74:1 76:1 82:1 83:1 
-10 4:1 6:1 14:1 20:1 37:1 41:1 54:1 64:1 67:1 73:1 75:1 76:1 81:1 83:1 
10 5:1 8:1 16:1 19:1 39:1 40:1 51:1 63:1 67:1 73:1 75:1 76:1 82:1 83:1 
-10 5:1 18:1 29:1 39:1 40:1 63:1 67:1 73:1 74:1 76:1 80:1 83:1 
-10 2:1 6:1 15:1 24:1 38:1 40:1 48:1 63:1 67:1 73:1 74:1 76:1 81:1 83:1 
-10 5:1 11:1 14:1 22:1 36:1 40:1 51:1 63:1 67:1 73:1 74:1 76:1 80:1 83:1 
-10 4:1 6:1 17:1 22:1 36:1 40:1 50:1 63:1 67:1 73:1 74:1 76:1 82:1 83:1 
1.4060294796863821 1:1 6:1 18:1 20:1 37:1 42:1 55:1 64:1 71:1 72:1 74:1 76:1 78:1 83:1 
-10 4:1 11:1 18:1 20:1 37:1 40:1 55:1 63:1 71:1 73:1 74:1 76:1 80:1 83:1 
0.20300766139156193 1:1 6:1 17:1 20:1 37:1 45:1 52:1 66:1 71:1 73:1 74:1 76:1 80:1 83:1 
10 2:1 7:1 16:1 25:1 38:1 40:1 52:1 63:1 67:1 73:1 75:1 76:1 82:1 83:1 
10 3:1 8:1 17:1 19:1 39:1 40:1 52:1 63:1 67:1 73:1 74:1 76:1 79:1 83:1 
-10 5:1 7:1 18:1 25:1 38:1 40:1 52:1 63:1 67:1 73:1 74:1 76:1 82:1 83:1 
10 5:1 8:1 15:1 19:1 39:1 40:1 51:1 63:1 67:1 73:1 74:1 76:1 80:1 85:1 
10 4:1 6:1 15:1 22:1 36:1 40:1 55:1 63:1 67:1 73:1 74:1 76:1 82:1 83:1 
-10 1:1 6:1 17:1 19:1 39:1 42:1 51:1 62:1 67:1 73:1 74:1 77:1 80:1 83:1 
8.8176540988810483 1:1 10:1 14:1 26:1 35:1 42:1 49:1 62:1 71:1 73:1 74:1 76:1 78:1 83:1 
-10 4:1 10:1 17:1 19:1 39:1 40:1 59:1 63:1 67:1 73:1 74:1 76:1 80:1 83:1 
3.7853256026892868 4:1 11:1 15:1 26:1 35:1 41:1 49:1 64:1 67:1 72:1 74:1 76:1 80:1 83:1 
-4.2712287987730333 2:1 6:1 14:1 20:1 37:1 41:1 51:1 66:1 67:1 72:1 74:1 76:1 80:1 83:1 
10 1:1 6:1 16:1 20:1 37:1 42:1 56:1 62:1 67:1 72:1 74:1 76:1 80:1 83:1 
0.88920045376846624 1:1 6:1 17:1 20:1 37:1 42:1 53:1 64:1 71:1 73:1 74:1 76:1 78:1 83:1 
-1.2314140294322471 4:1 6:1 16:1 22:1 36:1 40:1 54:1 63:1 67:1 73:1 74:1 76:1 80:1 83:1 
-1.3829928609744597 3:1 6:1 14:1 22:1 36:1 41:1 51:1 66:1 67:1 72:1 74:1 76:1 78:1 83:1 
-10 4:1 6:1 17:1 22:1 36:1 40:1 48:1 63:1 71:1 73:1 74:1 76:1 80:1 83:1 
10 3:1 6:1 14:1 31:1 35:1 40:1 54:1 63:1 67:1 73:1 74:1 76:1 80:1 83:1 
10 4:1 6:1 15:1 29:1 39:1 41:1 51:1 66:1 67:1 72:1 74:1 76:1 80:1 83:1 
10 4:1 6:1 17:1 31:1 35:1 40:1 57:1 63:1 71:1 73:1 74:1 76:1 81:1 83:1 
-10 4:1 6:1 14:1 22:1 36:1 40:1 54:1 63:1 67:1 73:1 74:1 76:1 80:1 83:1 
-1.0902670958607734 1:1 6:1 17:1 31:1 35:1 40:1 54:1 61:1 67:1 72:1 74:1 76:1 80:1 83:1 
-10 5:1 6:1 16:1 23:1 39:1 40:1 52:1 63:1 67:1 73:1 74:1 77:1 82:1 83:1 
0.62184969150168456 3:1 10:1 17:1 22:1 36:1 43:1 59:1 64:1 67:1 73:1 74:1 76:1 80:1 83:1 
-10 2:1 6:1 16:1 19:1 39:1 40:1 48:1 63:1 67:1 73:1 74:1 76:1 80:1 83:1 
-10 3:1 6:1 16:1 19:1 39:1 40:1 55:1 63:1 67:1 73:1 74:1 76:1 80:1 83:1 
10 4:1 6:1 15:1 20:1 37:1 40:1 48:1 63:1 67:1 73:1 74:1 77:1 82:1 83:1 
8.5787328123953568 2:1 6:1 15:1 31:1 35:1 42:1 54:1 66:1 67:1 72:1 74:1 76:1 80:1 83:1 
-10 5:1 6:1 15:1 32:1 39:1 40:1 52:1 63:1 67:1 73:1 75:1 76:1 80:1 
0.43471537265239524 4:1 6:1 15:1 28:1 35:1 41:1 57:1 66:1 71:1 73:1 74:1 76:1 80:1 83:1 
-0.50248188383888681 1:1 6:1 18:1 19:1 39:1 42:1 55:1 64:1 67:1 73:1 74:1 76:1 78:1 83:1 
0.99385147628618231 4:1 7:1 16:1 22:1 36:1 42:1 50:1 64:1 67:1 73:1 74:1 76:1 82:1 
0.14457870987215612 1:1 6:1 17:1 20:1 37:1 42:1 49:1 65:1 71:1 72:1 74:1 76:1 78:1 83:1 
-10 4:1 6:1 15:1 20:1 37:1 40:1 48:1 63:1 67:1 73:1 74:1 76:1 80:1 83:1 
10 5:1 15:1 19:1 39:1 44:1 64:1 67:1 72:1 75:1 76:1 78:1 83:1 
-10 5:1 6:1 15:1 27:1 35:1 40:1 59:1 63:1 67:1 73:1 74:1 76:1 80:1 83:1 
-5.451380029138579 2:1 6:1 15:1 20:1 37:1 40:1 56:1 63:1 67:1 73:1 74:1 76:1 80:1 83:1 
-10 4:1 10:1 16:1 19:1 39:1 40:1 48:1 63:1 67:1 73:1 74:1 76:1 80:1 83:1 
-0.30697855914731598 1:1 14:1 19:1 39:1 42:1 62:1 71:1 72:1 74:1 76:1 80:1 101:1 
10 4:1 6:1 17:1 24:1 38:1 40:1 48:1 63:1 67:1 73:1 74:1 77:1 80:1 83:1 
-10 4:1 18:1 31:1 35:1 43:1 62:1 67:1 73:1 75:1 76:1 80:1 83:1 
-10 5:1 6:1 17:1 25:1 38:1 40:1 55:1 63:1 67:1 73:1 74:1 76:1 80:1 83:1 
-10 2:1 10:1 17:1 19:1 39:1 42:1 52:1 64:1 67:1 73:1 74:1 76:1 82:1 83:1 
10 2:1 6:1 18:1 22:1 36:1 40:1 50:1 63:1 67:1 73:1 74:1 76:1 82:1 83:1 
-1.2419642973905094 2:1 6:1 16:1 19:1 39:1 42:1 50:1 62:1 68:1 73:1 74:1 76:1 80:1 
-10 2:1 6:1 17:1 19:1 39:1 40:1 50:1 63:1 67:1 73:1 74:1 76:1 82:1 83:1 
10 3:1 6:1 14:1 20:1 37:1 40:1 48:1 63:1 67:1 73:1 74:1 76:1 81:1 83:1 
10 2:1 7:1 15:1 22:1 36:1 41:1 48:1 62:1 67:1 73:1 74:1 76:1 80:1 83:1 
-0.3094137031407041 1:1 6:1 15:1 19:1 39:1 42:1 55:1 64:1 67:1 72:1 74:1 76:1 80:1 83:1 
-10 5:1 6:1 17:1 20:1 37:1 40:1 59:1 63:1 67:1 73:1 74:1 76:1 78:1 83:1 
-10 1:1 17:1 20:1 37:1 42:1 62:1 67:1 73:1 75:1 76:1 82:1 83:1 
-10 3:1 7:1 18:1 19:1 39:1 40:1 49:1 63:1 67:1 73:1 74:1 76:1 78:1 83:1 
10 3:1 6:1 15:1 22:1 36:1 42:1 52:1 64:1 67:1 73:1 74:1 76:1 82:1 83:1 
-10 3:1 10:1 15:1 22:1 36:1 40:1 55:1 61:1 67:1 72:1 74:1 76:1 82:1 83:1 
-0.93227206458701306 3:1 6:1 18:1 19:1 39:1 42:1 50:1 64:1 71:1 72:1 74:1 76:1 80:1 83:1 
0.029990513755976705 1:1 6:1 16:1 21:1 35:1 42:1 54:1 62:1 67:1 73:1 74:1 76:1 82:1 83:1 
-1.5416540776344265 2:1 6:1 14:1 21:1 35:1 40:1 48:1 63:1 67:1 73:1 74:1 76:1 81:1 83:1 
-2.1058701069497281 5:1 11:1 14:1 22:1 36:1 41:1 51:1 64:1 67:1 72:1 74:1 76:1 82:1 83:1 
10 5:1 6:1 17:1 22:1 36:1 40:1 54:1 63:1 71:1 73:1 74:1 76:1 80:1 83:1 
-10 5:1 6:1 18:1 22:1 36:1 40:1 55:1 63:1 67:1 73:1 74:1 76:1 79:1 83:1 
1.3771720750511875 3:1 18:1 22:1 36:1 42:1 66:1 71:1 72:1 74:1 76:1 80:1 83:1 
0.12164664145955294 4:1 6:1 14:1 22:1 36:1 43:1 48:1 62:1 67:1 73:1 74:1 76:1 80:1 83:1 
-1.2926090596949034 3:1 6:1 18:1 31:1 35:1 40:1 48:1 63:1 67:1 73:1 74:1 76:1 80:1 83:1 
10 4:1 6:1 14:1 29:1 39:1 40:1 52:1 63:1 67:1 73:1 74:1 76:1 79:1 85:1 
10 5:1 6:1 14:1 22:1 36:1 40:1 54:1 63:1 67:1 73:1 74:1 76:1 80:1 83:1 
10 5:1 6:1 14:1 22:1 36:1 40:1 52:1 63:1 67:1 73:1 74:1 76:1 80:1 83:1 
-10 2:1 6:1 18:1 20:1 37:1 40:1 51:1 61:1 67:1 72:1 74:1 76:1 79:1 83:1 
0.96516460942856164 2:1 6:1 18:1 21:1 35:1 42:1 48:1 65:1 67:1 73:1 74:1 76:1 80:1 83:1 
-3.6115956596279828 3:1 10:1 15:1 22:1 36:1 40:1 57:1 63:1 67:1 73:1 74:1 76:1 80:1 83:1 
10 4:1 7:1 14:1 20:1 37:1 40:1 50:1 63:1 67:1 73:1 74:1 76:1 82:1 83:1 
10 4:1 7:1 16:1 22:1 36:1 40:1 51:1 63:1 67:1 73:1 74:1 77:1 81:1 83:1 
0.78029956200180894 3:1 6:1 14:1 22:1 36:1 42:1 49:1 62:1 68:1 72:1 74:1 76:1 80:1 98:1 
-10 4:1 6:1 15:1 20:1 37:1 40:1 51:1 63:1 67:1 73:1 74:1 76:1 80:1 83:1 
10 5:1 7:1 16:1 23:1 39:1 40:1 52:1 63:1 67:1 73:1 74:1 76:1 79:1 83:1 
10 5:1 6:1 15:1 19:1 39:1 40:1 50:1 61:1 67:1 72:1 75:1 76:1 82:1 83:1 
-10 4:1 6:1 18:1 22:1 36:1 40:1 54:1 61:1 67:1 72:1 74:1 77:1 80:1 83:1 
10 2:1 6:1 15:1 33:1 35:1 42:1 56:1 64:1 67:1 73:1 74:1 76:1 79:1 103:1 
-1.9145539271979404 3:1 6:1 18:1 30:1 35:1 40:1 54:1 63:1 67:1 73:1 74:1 76:1 80:1 103:1 
10 5:1 6:1 16:1 20:1 37:1 40:1 51:1 63:1 67:1 73:1 74:1 76:1 82:1 83:1 
-10 2:1 6:1 14:1 22:1 36:1 42:1 50:1 64:1 67:1 72:1 75:1 76:1 82:1 83:1 
10 5:1 6:1 17:1 22:1 36:1 40:1 54:1 63:1 67:1 73:1 75:1 76:1 82:1 83:1 
10 4:1 6:1 18:1 19:1 39:1 40:1 52:1 63:1 67:1 73:1 74:1 76:1 81:1 83:1 
10 5:1 8:1 15:1 22:1 36:1 40:1 55:1 61:1 67:1 72:1 74:1 76:1 78:1 83:1 
-10 3:1 6:1 17:1 20:1 37:1 40:1 54:1 63:1 71:1 73:1 74:1 76:1 80:1 83:1 
-1.6860568989661835 2:1 6:1 14:1 22:1 36:1 40:1 50:1 63:1 67:1 73:1 74:1 76:1 80:1 83:1 
10 3:1 6:1 15:1 19:1 39:1 40:1 51:1 63:1 67:1 73:1 74:1 76:1 82:1 83:1 
0.57070010903435964 5:1 6:1 15:1 31:1 35:1 41:1 55:1 64:1 71:1 72:1 74:1 76:1 80:1 83:1 
10 4:1 6:1 18:1 22:1 36:1 40:1 48:1 63:1 71:1 73:1 74:1 76:1 80:1 83:1 
2.5894319666047956 2:1 17:1 22:1 36:1 43:1 66:1 67:1 72:1 74:1 76:1 80:1 83:1 
-10 4:1 6:1 17:1 22:1 36:1 40:1 48:1 63:1 67:1 73:1 74:1 76:1 82:1 83:1 
-1.562212364672825 5:1 7:1 16:1 31:1 35:1 40:1 48:1 63:1 67:1 73:1 74:1 76:1 78:1 83:1 
-10 4:1 6:1 16:1 19:1 39:1 42:1 52:1 64:1 67:1 73:1 74:1 76:1 80:1 83:1 
-10 5:1 6:1 18:1 27:1 35:1 40:1 59:1 63:1 67:1 73:1 74:1 76:1 80:1 95:1 
-7.7395634748000424 4:1 6:1 18:1 22:1 36:1 40:1 53:1 63:1 71:1 73:1 74:1 76:1 80:1 83:1 
4.1661758143664622 3:1 14:1 22:1 36:1 41:1 66:1 67:1 72:1 74:1 76:1 80:1 83:1 
10 5:1 8:1 16:1 20:1 37:1 40:1 50:1 63:1 67:1 73:1 74:1 76:1 82:1 83:1 
-5.4582705421775914 5:1 6:1 14:1 22:1 36:1 40:1 55:1 63:1 67:1 73:1 74:1 76:1 80:1 83:1 
10 4:1 6:1 14:1 23:1 39:1 40:1 52:1 63:1 67:1 73:1 74:1 76:1 82:1 83:1 
10 4:1 6:1 14:1 24:1 38:1 40:1 50:1 63:1 67:1 73:1 75:1 76:1 80:1 83:1 
-10 5:1 6:1 15:1 27:1 35:1 40:1 48:1 63:1 67:1 73:1 75:1 76:1 80:1 83:1 
10 4:1 6:1 16:1 24:1 38:1 40:1 55:1 61:1 67:1 72:1 74:1 76:1 80:1 99:1 
-10 4:1 6:1 14:1 29:1 39:1 41:1 51:1 66:1 67:1 73:1 74:1 76:1 82:1 83:1 
-10 2:1 9:1 15:1 20:1 37:1 40:1 48:1 63:1 67:1 73:1 74:1 76:1 82:1 83:1 
1.5830242095900449 3:1 6:1 16:1 22:1 36:1 41:1 49:1 66:1 67:1 72:1 74:1 76:1 78:1 83:1 
-10 2:1 6:1 17:1 22:1 36:1 40:1 54:1 63:1 67:1 73:1 74:1 76:1 82:1 83:1 
3.9367630492203007 1:1 7:1 17:1 22:1 36:1 42:1 57:1 62:1 67:1 73:1 74:1 76:1 82:1 83:1 
0.075972312276934878 4:1 6:1 14:1 22:1 36:1 42:1 49:1 64:1 71:1 72:1 74:1 76:1 81:1 83:1 
0.68324848823360251 5:1 6:1 15:1 26:1 35:1 41:1 49:1 64:1 67:1 72:1 74:1 76:1 79:1 87:1 
10 4:1 6:1 15:1 32:1 39:1 40:1 52:1 63:1 67:1 73:1 74:1 76:1 80:1 83:1 
5.6924532375385306 1:1 6:1 14:1 22:1 36:1 42:1 49:1 64:1 67:1 72:1 74:1 76:1 80:1 83:1 
-10 1:1 6:1 14:1 21:1 35:1 42:1 55:1 62:1 67:1 72:1 75:1 76:1 78:1 83:1 
0.048072097283299621 1:1 6:1 18:1 22:1 36:1 42:1 50:1 62:1 67:1 73:1 74:1 76:1 82:1 83:1 
10 5:1 11:1 18:1 22:1 36:1 40:1 51:1 61:1 67:1 72:1 75:1 76:1 80:1 83:1 
-10 4:1 6:1 15:1 20:1 37:1 40:1 50:1 63:1 67:1 73:1 74:1 76:1 82:1 83:1 
10 5:1 6:1 18:1 22:1 36:1 40:1 54:1 63:1 71:1 73:1 74:1 77:1 80:1 83:1 
-10 4:1 6:1 14:1 22:1 36:1 40:1 51:1 61:1 67:1 72:1 74:1 76:1 81:1 83:1 
-10 3:1 6:1 15:1 20:1 37:1 40:1 53:1 63:1 67:1 73:1 74:1 76:1 80:1 83:1 
0.028666591706836376 4:1 6:1 17:1 22:1 36:1 41:1 48:1 64:1 67:1 73:1 74:1 76:1 81:1 83:1 
-10 5:1 6:1 16:1 29:1 39:1 40:1 52:1 63:1 67:1 73:1 74:1 76:1 82:1 83:1 
0.28332685093452392 3:1 6:1 17:1 20:1 37:1 41:1 55:1 66:1 71:1 72:1 74:1 76:1 79:1 83:1 
-2.3236694276637504 1:1 6:1 18:1 20:1 37:1 40:1 53:1 63:1 67:1 73:1 74:1 76:1 80:1 83:1 
3.9016834265564002 2:1 6:1 15:1 22:1 36:1 41:1 48:1 64:1 67:1 72:1 74:1 76:1 82:1 83:1 
10 5:1 6:1 16:1 22:1 36:1 40:1 48:1 63:1 67:1 73:1 74:1 76:1 82:1 83:1 
10 2:1 16:1 27:1 35:1 44:1 64:1 67:1 72:1 74:1 76:1 80:1 83:1 
10 4:1 6:1 17:1 29:1 39:1 40:1 51:1 63:1 67:1 73:1 74:1 77:1 80:1 83:1 
0.086937919438566713 5:1 6:1 18:1 22:1 36:1 44:1 50:1 65:1 67:1 72:1 74:1 76:1 78:1 83:1 
-10 4:1 9:1 16:1 20:1 37:1 40:1 48:1 63:1 67:1 73:1 74:1 76:1 80:1 
-10 4:1 6:1 14:1 28:1 35:1 40:1 54:1 63:1 67:1 73:1 74:1 76:1 79:1 83:1 
1.139356016533414 3:1 6:1 14:1 20:1 37:1 41:1 55:1 66:1 69:1 72:1 74:1 76:1 80:1 83:1 
10 4:1 6:1 17:1 29:1 39:1 40:1 52:1 63:1 68:1 73:1 74:1 76:1 81:1 94:1 
10 3:1 6:1 14:1 19:1 39:1 40:1 50:1 63:1 67:1 73:1 74:1 76:1 81:1 83:1 
-2.7015428675576154 3:1 6:1 16:1 22:1 36:1 40:1 57:1 63:1 67:1 73:1 74:1 76:1 81:1 83:1 
10 3:1 6:1 14:1 19:1 39:1 41:1 50:1 64:1 67:1 73:1 74:1 76:1 82:1 83:1 
10 3:1 10:1 17:1 20:1 37:1 40:1 51:1 63:1 67:1 73:1 74:1 76:1 81:1 83:1 
10 5:1 6:1 17:1 22:1 36:1 40:1 48:1 63:1 67:1 73:1 74:1 76:1 80:1 83:1 
10 4:1 6:1 16:1 29:1 39:1 40:1 52:1 61:1 67:1 72:1 74:1 76:1 82:1 83:1 
-10 2:1 6:1 14:1 25:1 38:1 40:1 49:1 63:1 67:1 73:1 74:1 76:1 81:1 83:1 
-10 1:1 6:1 16:1 29:1 39:1 42:1 51:1 62:1 67:1 73:1 75:1 76:1 82:1 83:1 
-6.3996503678672427 4:1 6:1 14:1 20:1 37:1 42:1 51:1 64:1 71:1 73:1 74:1 76:1 80:1 83:1 
0.31668537344535741 2:1 6:1 18:1 22:1 36:1 42:1 50:1 64:1 71:1 73:1 74:1 76:1 80:1 83:1 
-1.1887295329501859 3:1 6:1 17:1 19:1 39:1 42:1 49:1 64:1 67:1 73:1 74:1 76:1 79:1 83:1 
10 5:1 7:1 15:1 19:1 39:1 40:1 51:1 63:1 67:1 73:1 75:1 76:1 79:1 83:1 
10 4:1 6:1 16:1 19:1 39:1 41:1 49:1 64:1 67:1 73:1 74:1 76:1 81:1 
-10 5:1 10:1 14:1 22:1 36:1 40:1 57:1 63:1 67:1 73:1 74:1 76:1 82:1 83:1 
10 2:1 6:1 15:1 19:1 39:1 40:1 55:1 63:1 67:1 73:1 74:1 76:1 80:1 83:1 
-10 4:1 6:1 14:1 21:1 35:1 40:1 49:1 61:1 67:1 72:1 74:1 76:1 78:1 83:1 
10 5:1 6:1 17:1 27:1 35:1 41:1 48:1 64:1 67:1 72:1 74:1 76:1 78:1 83:1 
-0.66802083152065783 3:1 6:1 16:1 19:1 39:1 42:1 55:1 62:1 67:1 72:1 74:1 76:1 80:1 83:1 
-10 4:1 7:1 16:1 20:1 37:1 40:1 48:1 63:1 67:1 73:1 74:1 76:1 82:1 83:1 
-10 4:1 6:1 16:1 20:1 37:1 44:1 51:1 64:1 67:1 72:1 74:1 76:1 82:1 83:1 
5.112684423967627 2:1 6:1 17:1 22:1 36:1 42:1 49:1 64:1 67:1 72:1 74:1 76:1 79:1 83:1 
0.092138382045338058 4:1 6:1 14:1 21:1 35:1 44:1 55:1 66:1 67:1 72:1 74:1 76:1 80:1 83:1 
3.0983369262360978 3:1 6:1 17:1 22:1 36:1 42:1 54:1 64:1 67:1 72:1 74:1 76:1 80:1 83:1 
0.049294125692475918 3:1 6:1 18:1 22:1 36:1 41:1 57:1 64:1 67:1 73:1 74:1 76:1 82:1 83:1 
0.39297345721855748 3:1 6:1 18:1 22:1 36:1 41:1 55:1 66:1 67:1 72:1 74:1 76:1 80:1 83:1 
1.1158578426133074 5:1 6:1 15:1 31:1 35:1 41:1 54:1 64:1 67:1 72:1 74:1 76:1 80:1 83:1 
-10 1:1 6:1 16:1 19:1 39:1 40:1 51:1 62:1 67:1 72:1 74:1 76:1 80:1 83:1 
-10 4:1 7:1 16:1 19:1 39:1 41:1 51:1 64:1 68:1 73:1 74:1 76:1 82:1 91:1 
10 3:1 7:1 14:1 22:1 36:1 42:1 56:1 64:1 67:1 73:1 74:1 76:1 82:1 83:1 
10 4:1 6:1 17:1 20:1 37:1 40:1 52:1 61:1 67:1 72:1 74:1 76:1 82:1 83:1 
-5.4320020740960802 4:1 6:1 16:1 19:1 39:1 41:1 55:1 66:1 67:1 72:1 74:1 76:1 80:1 83:1 
0.04940592658774505 2:1 6:1 17:1 31:1 35:1 42:1 54:1 62:1 71:1 73:1 74:1 76:1 81:1 83:1 
9.5575483767566691 4:1 6:1 15:1 29:1 39:1 41:1 51:1 64:1 67:1 72:1 75:1 76:1 82:1 83:1 
10 4:1 6:1 16:1 19:1 39:1 40:1 52:1 61:1 67:1 72:1 75:1 76:1 78:1 83:1 
-10 5:1 6:1 14:1 22:1 36:1 40:1 59:1 63:1 67:1 73:1 75:1 76:1 78:1 83:1 
10 2:1 6:1 16:1 20:1 37:1 40:1 47:1 63:1 67:1 73:1 75:1 76:1 80:1 83:1 
1.1529869496058069 2:1 6:1 14:1 22:1 36:1 45:1 59:1 64:1 67:1 73:1 74:1 76:1 80:1 83:1 
10 5:1 6:1 15:1 25:1 38:1 40:1 48:1 63:1 67:1 73:1 75:1 76:1 82:1 83:1 
10 4:1 6:1 16:1 22:1 36:1 40:1 49:1 61:1 71:1 72:1 74:1 76:1 80:1 83:1 
-0.10265061552385256 2:1 6:1 18:1 31:1 35:1 40:1 54:1 63:1 67:1 73:1 74:1 76:1 80:1 83:1 
-4.1452488380719519 5:1 10:1 15:1 22:1 36:1 44:1 56:1 66:1 67:1 73:1 74:1 77:1 80:1 83:1 
10 4:1 6:1 16:1 20:1 37:1 40:1 50:1 63:1 67:1 73:1 75:1 76:1 80:1 83:1 
-10 3:1 6:1 18:1 22:1 36:1 40:1 51:1 63:1 67:1 73:1 74:1 76:1 80:1 83:1 
1.1419558512654595 2:1 6:1 16:1 31:1 35:1 42:1 49:1 62:1 67:1 73:1 74:1 76:1 80:1 83:1 
10 3:1 6:1 17:1 19:1 39:1 40:1 51:1 63:1 67:1 73:1 74:1 76:1 82:1 83:1 
-10 2:1 6:1 14:1 24:1 38:1 42:1 55:1 64:1 67:1 73:1 75:1 76:1 79:1 83:1 
10 4:1 10:1 18:1 19:1 39:1 45:1 52:1 64:1 67:1 72:1 75:1 76:1 81:1 83:1 
10 3:1 10:1 14:1 29:1 39:1 40:1 52:1 61:1 67:1 72:1 74:1 76:1 79:1 83:1 
-10 3:1 6:1 14:1 29:1 39:1 40:1 51:1 63:1 68:1 73:1 75:1 76:1 80:1 83:1 
1.4690550023698865 5:1 6:1 15:1 33:1 35:1 45:1 53:1 66:1 67:1 72:1 74:1 76:1 80:1 86:1 
0.44873776440280422 4:1 6:1 14:1 24:1 38:1 41:1 48:1 64:1 67:1 73:1 74:1 76:1 80:1 83:1 
0.057481839107325766 4:1 6:1 16:1 26:1 35:1 42:1 49:1 66:1 67:1 72:1 74:1 76:1 82:1 83:1 
-10 4:1 6:1 16:1 29:1 39:1 42:1 55:1 64:1 68:1 72:1 74:1 76:1 80:1 98:1 
-0.0013544061276121121 2:1 6:1 14:1 20:1 37:1 40:1 54:1 63:1 71:1 73:1 74:1 76:1 80:1 120:1 
10 3:1 6:1 15:1 22:1 36:1 40:1 50:1 63:1 67:1 73:1 75:1 76:1 80:1 83:1 
-0.3589474466047739 2:1 6:1 14:1 19:1 39:1 42:1 55:1 64:1 67:1 73:1 74:1 76:1 80:1 83:1 
10 5:1 9:1 16:1 22:1 36:1 40:1 55:1 63:1 67:1 73:1 74:1 76:1 80:1 83:1 
2.0215918168206133 5:1 6:1 15:1 27:1 35:1 41:1 50:1 64:1 67:1 72:1 74:1 76:1 80:1 83:1 
-10 2:1 6:1 16:1 19:1 39:1 40:1 55:1 63:1 67:1 73:1 74:1 76:1 80:1 83:1 
10 3:1 8:1 15:1 23:1 39:1 40:1 52:1 63:1 68:1 73:1 74:1 76:1 80:1 83:1 
-10 4:1 6:1 15:1 22:1 36:1 42:1 51:1 64:1 67:1 73:1 75:1 76:1 80:1 83:1 
-0.11170076396692843 5:1 6:1 16:1 21:1 35:1 40:1 54:1 63:1 67:1 73:1 74:1 76:1 80:1 83:1 
-10 2:1 6:1 17:1 22:1 36:1 40:1 50:1 63:1 67:1 73:1 74:1 76:1 82:1 83:1 
-10 5:1 10:1 17:1 27:1 35:1 40:1 59:1 63:1 67:1 73:1 75:1 76:1 78:1 83:1 
-10 5:1 8:1 14:1 22:1 36:1 41:1 51:1 66:1 67:1 73:1 74:1 76:1 79:1 83:1 
-10 5:1 6:1 15:1 22:1 36:1 40:1 51:1 63:1 67:1 73:1 74:1 76:1 82:1 83:1 
10 3:1 6:1 16:1 25:1 38:1 40:1 51:1 63:1 67:1 73:1 75:1 76:1 82:1 83:1 
0.11646624366694154 1:1 6:1 18:1 21:1 35:1 44:1 50:1 62:1 71:1 72:1 74:1 76:1 79:1 83:1 
10 4:1 11:1 17:1 19:1 39:1 40:1 55:1 63:1 67:1 73:1 74:1 76:1 82:1 83:1 
-0.61519924225954392 1:1 6:1 18:1 27:1 35:1 40:1 53:1 63:1 67:1 73:1 74:1 76:1 80:1 103:1 
0.087513722049004886 1:1 18:1 20:1 37:1 42:1 62:1 67:1 73:1 74:1 76:1 81:1 83:1 
10 5:1 6:1 17:1 19:1 39:1 41:1 51:1 66:1 67:1 73:1 74:1 76:1 80:1 83:1 
10 1:1 7:1 17:1 22:1 36:1 42:1 52:1 66:1 67:1 72:1 75:1 76:1 80:1 107:1 
0.32094513363306532 4:1 6:1 16:1 22:1 36:1 41:1 57:1 66:1 67:1 72:1 74:1 76:1 82:1 83:1 
0.86330303321564128 5:1 6:1 17:1 22:1 36:1 44:1 50:1 64:1 67:1 72:1 74:1 76:1 80:1 83:1 
-10 4:1 10:1 18:1 20:1 37:1 40:1 52:1 63:1 67:1 73:1 74:1 76:1 78:1 83:1 
0.35293355081180428 5:1 6:1 18:1 22:1 36:1 42:1 48:1 64:1 67:1 73:1 74:1 76:1 80:1 83:1 
-10 5:1 6:1 18:1 29:1 39:1 40:1 50:1 63:1 67:1 73:1 74:1 76:1 80:1 83:1 
-1.5482586543006411 5:1 6:1 14:1 22:1 36:1 40:1 56:1 63:1 67:1 73:1 74:1 76:1 78:1 83:1 
0.40750049097331204 2:1 6:1 17:1 20:1 37:1 41:1 55:1 66:1 67:1 73:1 74:1 76:1 80:1 83:1 
-10 4:1 6:1 18:1 19:1 39:1 40:1 55:1 63:1 68:1 73:1 74:1 76:1 80:1 98:1 
0.22609732390444379 1:1 6:1 17:1 20:1 37:1 42:1 48:1 64:1 67:1 73:1 74:1 76:1 81:1 83:1 
-10 3:1 10:1 14:1 20:1 37:1 40:1 57:1 63:1 67:1 73:1 74:1 77:1 80:1 83:1 
-10 3:1 6:1 14:1 19:1 39:1 40:1 48:1 61:1 67:1 72:1 74:1 76:1 80:1 83:1 
-4.5767882045244228 1:1 6:1 16:1 25:1 38:1 40:1 48:1 63:1 67:1 73:1 74:1 76:1 80:1 83:1 
4.3515783480739323 5:1 6:1 15:1 27:1 35:1 42:1 57:1 64:1 69:1 73:1 74:1 76:1 80:1 83:1 
-10 4:1 9:1 18:1 22:1 36:1 42:1 57:1 64:1 71:1 73:1 75:1 76:1 80:1 83:1 
-0.31942239396276867 3:1 6:1 17:1 19:1 39:1 42:1 52:1 64:1 67:1 72:1 74:1 76:1 80:1 83:1 
10 2:1 8:1 17:1 22:1 36:1 40:1 48:1 63:1 67:1 73:1 75:1 76:1 81:1 83:1 
-10 5:1 17:1 29:1 39:1 40:1 63:1 67:1 73:1 74:1 76:1 78:1 83:1 
0.6589416800867347 1:1 6:1 15:1 26:1 35:1 42:1 53:1 62:1 71:1 73:1 74:1 76:1 79:1 83:1 
4.1799367897789343 2:1 7:1 17:1 22:1 36:1 42:1 57:1 66:1 71:1 73:1 74:1 76:1 81:1 83:1 
-10 4:1 11:1 14:1 29:1 39:1 42:1 52:1 64:1 67:1 72:1 74:1 76:1 82:1 83:1 
10 4:1 10:1 16:1 24:1 38:1 40:1 55:1 61:1 67:1 72:1 74:1 76:1 79:1 83:1 
-10 4:1 6:1 15:1 20:1 37:1 40:1 54:1 63:1 67:1 73:1 74:1 76:1 80:1 83:1 
0.57839803546898017 1:1 6:1 16:1 22:1 36:1 42:1 48:1 65:1 67:1 73:1 74:1 76:1 80:1 83:1 
-3.5273808120436181 5:1 18:1 19:1 39:1 45:1 66:1 71:1 72:1 74:1 76:1 78:1 83:1 
0.72516733994569438 4:1 6:1 16:1 26:1 35:1 41:1 49:1 64:1 67:1 73:1 74:1 76:1 78:1 83:1 
10 2:1 7:1 18:1 19:1 39:1 40:1 52:1 63:1 67:1 73:1 74:1 76:1 81:1 83:1 
10 2:1 6:1 15:1 20:1 37:1 40:1 51:1 63:1 67:1 73:1 74:1 76:1 82:1 83:1 
-0.41120873942389791 2:1 11:1 16:1 19:1 39:1 42:1 55:1 64:1 67:1 73:1 74:1 76:1 79:1 83:1 
10 5:1 6:1 16:1 20:1 37:1 40:1 50:1 63:1 71:1 73:1 74:1 76:1 80:1 83:1 
10 4:1 6:1 15:1 20:1 37:1 43:1 51:1 64:1 67:1 73:1 74:1 76:1 81:1 83:1 
-10 4:1 7:1 17:1 19:1 39:1 40:1 50:1 63:1 67:1 73:1 74:1 76:1 82:1 83:1 
0.151542573566945 2:1 6:1 18:1 20:1 37:1 41:1 55:1 64:1 67:1 72:1 74:1 76:1 81:1 83:1 
0.55419270610734295 1:1 6:1 18:1 22:1 36:1 42:1 49:1 66:1 67:1 73:1 74:1 76:1 80:1 119:1 
10 4:1 6:1 14:1 19:1 39:1 40:1 47:1 63:1 67:1 73:1 74:1 76:1 80:1 83:1 
-10 2:1 9:1 18:1 19:1 39:1 42:1 51:1 64:1 71:1 73:1 74:1 76:1 82:1 83:1 
10 5:1 7:1 16:1 20:1 37:1 40:1 56:1 63:1 67:1 73:1 74:1 76:1 82:1 83:1 
10 1:1 7:1 15:1 22:1 36:1 42:1 49:1 62:1 67:1 73:1 74:1 76:1 80:1 92:1 
-10 1:1 6:1 17:1 20:1 37:1 40:1 51:1 61:1 67:1 72:1 74:1 76:1 78:1 83:1 
-10 5:1 7:1 17:1 22:1 36:1 40:1 56:1 63:1 67:1 73:1 74:1 76:1 81:1 83:1 
-1.9607194220440398 5:1 6:1 15:1 20:1 37:1 44:1 51:1 64:1 67:1 72:1 74:1 76:1 78:1 83:1 
2.1210990567333403 2:1 6:1 14:1 22:1 36:1 41:1 49:1 65:1 67:1 73:1 74:1 76:1 80:1 83:1 
10 3:1 6:1 16:1 29:1 39:1 40:1 52:1 63:1 67:1 73:1 74:1 76:1 82:1 83:1 
0.43311500693429084 5:1 6:1 14:1 20:1 37:1 44:1 50:1 64:1 67:1 73:1 74:1 76:1 80:1 83:1 
10 4:1 10:1 18:1 19:1 39:1 43:1 51:1 64:1 67:1 73:1 74:1 76:1 81:1 83:1 
-10 4:1 6:1 15:1 19:1 39:1 40:1 50:1 63:1 67:1 73:1 74:1 76:1 82:1 83:1 
-2.0743298317159358 2:1 6:1 15:1 20:1 37:1 42:1 49:1 64:1 70:1 73:1 74:1 77:1 80:1 
10 5:1 12:1 14:1 27:1 35:1 44:1 56:1 66:1 67:1 72:1 74:1 76:1 82:1 83:1 
3.8378904618258338 2:1 6:1 14:1 22:1 36:1 42:1 57:1 64:1 67:1 73:1 74:1 76:1 82:1 83:1 
-10 4:1 10:1 18:1 29:1 39:1 41:1 52:1 66:1 67:1 72:1 75:1 76:1 81:1 83:1 
-10 2:1 7:1 17:1 29:1 39:1 42:1 52:1 64:1 67:1 72:1 74:1 76:1 82:1 83:1 
-10 3:1 6:1 16:1 26:1 35:1 40:1 57:1 63:1 67:1 73:1 74:1 76:1 82:1 83:1 
-10 3:1 6:1 16:1 21:1 35:1 40:1 48:1 63:1 67:1 73:1 74:1 76:1 81:1 83:1 
0.10100195325579821 3:1 6:1 16:1 22:1 36:1 42:1 54:1 66:1 67:1 73:1 74:1 76:1 82:1 83:1 
-10 3:1 6:1 18:1 30:1 35:1 40:1 48:1 63:1 67:1 73:1 74:1 76:1 81:1 103:1 
10 4:1 10:1 15:1 29:1 39:1 40:1 51:1 63:1 67:1 73:1 74:1 77:1 82:1 83:1 
-10 4:1 6:1 16:1 19:1 39:1 40:1 50:1 63:1 67:1 73:1 74:1 76:1 82:1 83:1 
-10 2:1 10:1 17:1 25:1 38:1 40:1 59:1 63:1 71:1 73:1 74:1 76:1 81:1 83:1 
-7.6688432236725692 1:1 10:1 15:1 19:1 39:1 42:1 52:1 62:1 67:1 73:1 74:1 76:1 79:1 83:1 
0.89821631082519682 2:1 6:1 15:1 22:1 36:1 43:1 55:1 66:1 67:1 72:1 74:1 76:1 80:1 83:1 
10 3:1 6:1 15:1 29:1 39:1 40:1 48:1 63:1 71:1 73:1 74:1 76:1 80:1 83:1 
10 4:1 6:1 14:1 20:1 37:1 40:1 47:1 63:1 67:1 73:1 74:1 76:1 78:1 83:1 
10 2:1 6:1 17:1 19:1 39:1 42:1 51:1 64:1 67:1 73:1 74:1 76:1 82:1 83:1 
-10 2:1 6:1 17:1 19:1 39:1 42:1 50:1 64:1 67:1 73:1 74:1 77:1 82:1 83:1 
-10 4:1 6:1 16:1 22:1 36:1 40:1 53:1 63:1 67:1 73:1 74:1 77:1 81:1 83:1 
10 1:1 6:1 17:1 22:1 36:1 40:1 47:1 65:1 67:1 72:1 74:1 76:1 82:1 83:1 
-10 3:1 10:1 17:1 19:1 39:1 43:1 52:1 66:1 71:1 73:1 74:1 76:1 80:1 83:1 
10 2:1 10:1 14:1 22:1 36:1 42:1 55:1 64:1 67:1 72:1 74:1 76:1 80:1 83:1 
-10 5:1 6:1 14:1 31:1 35:1 40:1 50:1 63:1 67:1 73:1 74:1 76:1 80:1 83:1 
1.659490466805996 1:1 10:1 17:1 22:1 36:1 41:1 59:1 66:1 71:1 72:1 74:1 76:1 80:1 83:1 
10 4:1 6:1 17:1 22:1 36:1 40:1 55:1 61:1 67:1 72:1 75:1 76:1 80:1 83:1 
0.23240040526610906 4:1 11:1 17:1 22:1 36:1 42:1 55:1 66:1 71:1 72:1 74:1 76:1 80:1 83:1 
-10 2:1 11:1 18:1 19:1 39:1 40:1 52:1 63:1 67:1 73:1 74:1 76:1 78:1 115:1 
10 3:1 6:1 14:1 29:1 39:1 40:1 51:1 63:1 67:1 73:1 74:1 76:1 80:1 83:1 
-10 4:1 7:1 18:1 19:1 39:1 40:1 51:1 63:1 67:1 73:1 74:1 76:1 80:1 83:1 
-10 5:1 10:1 15:1 22:1 36:1 40:1 51:1 63:1 67:1 73:1 74:1 76:1 78:1 83:1 
-0.31475620401457283 1:1 6:1 16:1 22:1 36:1 40:1 54:1 63:1 67:1 73:1 74:1 76:1 80:1 83:1 
-10 5:1 6:1 18:1 31:1 35:1 40:1 59:1 63:1 67:1 73:1 74:1 76:1 80:1 83:1 
0.76934715151138022 3:1 6:1 17:1 21:1 35:1 42:1 57:1 62:1 67:1 73:1 74:1 76:1 79:1 83:1 
-10 5:1 6:1 17:1 22:1 36:1 40:1 50:1 63:1 67:1 73:1 74:1 76:1 80:1 83:1 
-10 2:1 6:1 17:1 19:1 39:1 42:1 52:1 64:1 67:1 72:1 74:1 76:1 82:1 83:1 
10 2:1 6:1 16:1 20:1 37:1 40:1 51:1 63:1 67:1 73:1 74:1 76:1 80:1 83:1 
10 5:1 10:1 16:1 29:1 39:1 40:1 52:1 63:1 67:1 73:1 74:1 76:1 80:1 83:1 
10 4:1 6:1 18:1 19:1 39:1 40:1 50:1 63:1 67:1 73:1 74:1 76:1 82:1 83:1 
-0.15338035249518189 2:1 6:1 16:1 19:1 39:1 42:1 57:1 66:1 67:1 73:1 74:1 76:1 78:1 83:1 
2.8003262743722148 2:1 6:1 18:1 22:1 36:1 41:1 49:1 66:1 67:1 72:1 74:1 76:1 79:1 83:1 
0.64358293655460896 2:1 6:1 18:1 22:1 36:1 42:1 55:1 66:1 71:1 72:1 74:1 76:1 80:1 83:1 
-10 5:1 6:1 16:1 31:1 35:1 40:1 48:1 63:1 67:1 73:1 74:1 76:1 80:1 83:1 
10 4:1 7:1 15:1 22:1 36:1 40:1 50:1 63:1 68:1 73:1 74:1 76:1 82:1 93:1 
0.14260789368781729 3:1 6:1 18:1 20:1 37:1 42:1 50:1 64:1 67:1 73:1 74:1 76:1 80:1 83:1 
-10 2:1 6:1 15:1 22:1 36:1 40:1 49:1 63:1 67:1 73:1 74:1 76:1 82:1 88:1 
-10 3:1 6:1 17:1 22:1 36:1 40:1 50:1 63:1 67:1 73:1 74:1 76:1 78:1 83:1 
10 3:1 6:1 15:1 19:1 39:1 45:1 52:1 64:1 68:1 73:1 75:1 76:1 80:1 84:1 
10 4:1 7:1 14:1 21:1 35:1 40:1 56:1 63:1 67:1 73:1 74:1 76:1 82:1 83:1 
-10 5:1 10:1 18:1 23:1 39:1 41:1 52:1 64:1 67:1 72:1 74:1 76:1 82:1 83:1 
10 4:1 9:1 16:1 22:1 36:1 40:1 55:1 63:1 67:1 73:1 74:1 76:1 80:1 83:1 
10 3:1 6:1 14:1 22:1 36:1 40:1 48:1 63:1 67:1 73:1 75:1 76:1 80:1 83:1 
10 5:1 8:1 17:1 20:1 37:1 40:1 51:1 63:1 67:1 73:1 75:1 76:1 82:1 83:1 
0.23968566139573022 2:1 6:1 18:1 22:1 36:1 42:1 54:1 64:1 67:1 73:1 74:1 76:1 82:1 83:1 
10 5:1 8:1 15:1 20:1 37:1 40:1 50:1 63:1 67:1 73:1 74:1 76:1 81:1 83:1 
-10 3:1 6:1 18:1 22:1 36:1 40:1 48:1 63:1 67:1 73:1 74:1 76:1 82:1 83:1 
1.6272119686069875 2:1 6:1 16:1 20:1 37:1 42:1 50:1 64:1 71:1 72:1 74:1 76:1 79:1 83:1 
2.0568498270285764 1:1 6:1 18:1 22:1 36:1 42:1 58:1 64:1 67:1 72:1 74:1 76:1 81:1 
3.7989309847322819 2:1 6:1 17:1 22:1 36:1 42:1 53:1 64:1 67:1 73:1 74:1 76:1 80:1 83:1 
0.18946258524351459 4:1 6:1 14:1 20:1 37:1 41:1 54:1 64:1 67:1 73:1 74:1 76:1 82:1 83:1 
10 4:1 6:1 15:1 22:1 36:1 40:1 50:1 63:1 67:1 73:1 74:1 76:1 82:1 83:1 
-10 5:1 7:1 14:1 29:1 39:1 45:1 52:1 64:1 67:1 72:1 74:1 76:1 82:1 83:1 
10 3:1 6:1 18:1 19:1 39:1 40:1 50:1 63:1 67:1 73:1 74:1 76:1 82:1 83:1 
4.5230507560423838 5:1 11:1 17:1 22:1 36:1 41:1 48:1 66:1 67:1 73:1 74:1 76:1 79:1 83:1 
1.187600094338858 3:1 6:1 14:1 22:1 36:1 42:1 48:1 66:1 67:1 73:1 74:1 76:1 79:1 83:1 
0.76923987354977852 2:1 6:1 14:1 20:1 37:1 42:1 50:1 65:1 67:1 72:1 74:1 76:1 80:1 83:1 
-10 5:1 7:1 18:1 22:1 36:1 40:1 56:1 63:1 67:1 73:1 75:1 76:1 80:1 83:1 
0.041697603822659135 5:1 6:1 16:1 20:1 37:1 42:1 55:1 65:1 71:1 72:1 74:1 76:1 80:1 101:1 
-10 1:1 6:1 18:1 27:1 35:1 40:1 48:1 63:1 67:1 73:1 75:1 76:1 79:1 83:1 
3.9655606141174822 2:1 6:1 18:1 20:1 37:1 42:1 49:1 64:1 67:1 72:1 74:1 76:1 80:1 83:1 
-0.10941008135951306 2:1 10:1 15:1 19:1 39:1 42:1 52:1 64:1 67:1 72:1 74:1 76:1 80:1 83:1 
-10 2:1 6:1 17:1 19:1 39:1 40:1 52:1 63:1 67:1 73:1 74:1 77:1 81:1 83:1 
-10 3:1 6:1 16:1 29:1 39:1 42:1 52:1 64:1 67:1 73:1 75:1 76:1 82:1 83:1 
-10 3:1 6:1 14:1 32:1 39:1 42:1 52:1 64:1 67:1 73:1 74:1 76:1 80:1 85:1 
2.2807625990048588 2:1 6:1 16:1 20:1 37:1 41:1 49:1 65:1 67:1 73:1 74:1 76:1 80:1 115:1 
-10 3:1 6:1 14:1 19:1 39:1 40:1 51:1 63:1 67:1 73:1 74:1 76:1 80:1 83:1 
-2.8150437638521701 1:1 15:1 19:1 39:1 42:1 64:1 67:1 72:1 74:1 76:1 82:1 83:1 
10 4:1 6:1 16:1 25:1 38:1 40:1 54:1 63:1 67:1 73:1 74:1 76:1 80:1 83:1 
-10 2:1 11:1 17:1 29:1 39:1 40:1 52:1 63:1 67:1 73:1 74:1 76:1 82:1 83:1 
10 5:1 7:1 16:1 20:1 37:1 40:1 52:1 61:1 67:1 72:1 75:1 76:1 78:1 83:1 
-8.2640384262576667 4:1 6:1 16:1 22:1 36:1 40:1 48:1 63:1 71:1 73:1 74:1 76:1 80:1 83:1 
-1.9172545311634248 1:1 6:1 18:1 22:1 36:1 43:1 51:1 66:1 67:1 72:1 74:1 76:1 81:1 83:1 
-10 1:1 6:1 16:1 19:1 39:1 42:1 51:1 66:1 67:1 73:1 74:1 76:1 80:1 83:1 
0.18484154850925208 5:1 6:1 17:1 27:1 35:1 44:1 49:1 66:1 71:1 72:1 74:1 76:1 79:1 83:1 
-10 4:1 6:1 15:1 20:1 37:1 40:1 56:1 63:1 67:1 73:1 74:1 76:1 78:1 83:1 
10 2:1 7:1 17:1 19:1 39:1 40:1 51:1 63:1 67:1 73:1 74:1 76:1 82:1 83:1 
10 1:1 17:1 22:1 36:1 42:1 64:1 67:1 73:1 74:1 76:1 78:1 83:1 
0.59325275209148232 5:1 6:1 16:1 20:1 37:1 42:1 48:1 64:1 67:1 73:1 74:1 76:1 80:1 83:1 
-4.6860898944591849 1:1 6:1 14:1 19:1 39:1 45:1 52:1 62:1 67:1 72:1 74:1 76:1 80:1 83:1 
2.2424230199758077 1:1 6:1 16:1 20:1 37:1 42:1 55:1 64:1 67:1 72:1 74:1 76:1 78:1 83:1 
0.083823071612511388 1:1 6:1 17:1 20:1 37:1 42:1 50:1 66:1 67:1 73:1 74:1 76:1 82:1 103:1 
-0.056158914470634522 2:1 10:1 18:1 27:1 35:1 40:1 57:1 63:1 67:1 73:1 74:1 76:1 80:1 83:1 
10 3:1 11:1 18:1 25:1 38:1 42:1 52:1 64:1 67:1 73:1 75:1 76:1 80:1 83:1 
0.75444909468813171 4:1 6:1 14:1 22:1 36:1 41:1 49:1 64:1 68:1 72:1 74:1 76:1 80:1 83:1 
10 4:1 10:1 15:1 29:1 39:1 40:1 51:1 63:1 67:1 73:1 74:1 77:1 80:1 83:1 
1.7235822322890524 2:1 6:1 18:1 22:1 36:1 42:1 58:1 66:1 67:1 72:1 74:1 76:1 80:1 103:1 
10 4:1 6:1 14:1 22:1 36:1 40:1 51:1 63:1 67:1 73:1 74:1 76:1 80:1 83:1 
10 3:1 6:1 14:1 19:1 39:1 40:1 49:1 61:1 68:1 72:1 74:1 76:1 78:1 83:1 
-6.4304678402168047 3:1 6:1 17:1 20:1 37:1 41:1 51:1 62:1 67:1 73:1 74:1 76:1 81:1 83:1 
